timestep,K2064010,V4145210,V5004030,V5015210
0,0.26599973,-1.2009791,-2.5092423,5.228824
1,0.28553098,-1.0066389,-2.3112109,5.166936
2,0.42858207,-1.119766,-2.1439226,4.9822183
3,0.37698802,-1.0001343,-1.8520912,4.798977
4,0.05959357,-1.0242103,-1.9121614,4.816027
5,0.059020232,-1.0238072,-1.9100946,4.8168974
6,0.14384502,-0.92543465,-1.7573293,4.910248
7,0.42364526,-1.0163488,-1.7350417,4.806643
8,0.18175888,-0.88218,-1.723432,4.943838
9,0.19965309,-0.8806107,-1.7241782,4.9505367
10,0.3935634,-1.0145743,-1.7546401,4.808478
11,0.3790481,-0.5518246,-1.4908174,5.049726
12,0.17902653,-0.5269429,-1.5861117,4.9874153
13,0.77190804,-0.714984,-2.2774622,5.3695254
14,0.31724972,-0.44277883,-1.7891389,5.065277
15,0.22098161,-0.7115898,-1.4937171,5.6339684
16,0.17823793,-0.7350579,-1.5740604,5.531912
17,0.044415902,-0.38864258,-1.5791713,4.9491696
18,0.06707733,-1.0054336,-1.8860801,4.8307285
19,0.06765539,-1.0035962,-1.8837351,4.832779
20,0.06831389,-1.0008675,-1.8845369,4.833334
21,0.069177516,-1.0011519,-1.8841599,4.83341
22,0.06857223,-1.0010157,-1.8820361,4.832498
23,0.06849298,-1.0007855,-1.8820378,4.8338566
24,0.06833743,-1.0003101,-1.8817707,4.833002
25,0.068876,-0.99976236,-1.8811916,4.8333893
26,0.068773635,-0.9988298,-1.879983,4.8330035
27,0.066503935,-0.99864936,-1.8805324,4.8356895
28,0.06739109,-0.9983372,-1.8800516,4.834707
29,0.066141576,-0.9985127,-1.8791751,4.83517
30,0.15189284,-0.89820534,-1.7222182,4.926413
31,0.17582871,-0.8711358,-1.6958016,4.9493594
32,0.19170773,-0.8603373,-1.6893668,4.955958
33,0.20606369,-0.8578227,-1.6941361,4.960766
34,0.21549363,-0.85556597,-1.7000732,4.9642954
35,0.2233053,-0.8543794,-1.704382,4.965571
36,0.2236105,-0.8564308,-1.7053399,4.965689
37,0.21612065,-0.8589356,-1.7000589,4.9651933
38,0.20330574,-0.8619382,-1.6935753,4.962585
39,0.18716289,-0.8637457,-1.6871554,4.960982
40,0.17391394,-0.8738584,-1.6936051,4.9545217
41,0.15143806,-0.9016357,-1.7214874,4.934362
42,0.067736834,-1.0033938,-1.8823824,4.8471465
43,0.067577966,-1.003179,-1.8822888,4.846239
44,0.06748548,-1.0021029,-1.8817005,4.8467393
45,0.06779457,-1.0017344,-1.8811727,4.847012
46,0.06792775,-1.0015572,-1.8806605,4.8469563
47,0.06677402,-1.0026642,-1.8805665,4.847359
48,0.06690992,-1.0018731,-1.8812412,4.8482385
49,0.06721845,-1.0027567,-1.88027,4.848581
50,0.0669098,-1.0018884,-1.8803982,4.848612
51,0.066692,-1.0001154,-1.879834,4.84857
52,0.06535664,-1.0011665,-1.8784657,4.8488846
53,0.06659854,-1.0008073,-1.8774885,4.848744
54,0.1416714,-0.9076449,-1.7242845,4.930283
55,0.15813237,-0.8777373,-1.6942686,4.954156
56,0.16815077,-0.86658925,-1.6862698,4.9636197
57,0.18030256,-0.8612907,-1.6829656,4.968162
58,0.18866007,-0.8591133,-1.6878911,4.972002
59,0.19387724,-0.85940355,-1.6897231,4.971555
60,0.19294588,-0.86058575,-1.6896731,4.972871
61,0.18666275,-0.8606954,-1.6871077,4.9710593
62,0.17907815,-0.8614381,-1.6840502,4.972587
63,0.16670321,-0.8705248,-1.6859471,4.9689136
64,0.1592269,-0.88224363,-1.6930894,4.960937
65,0.13730659,-0.9101091,-1.7244867,4.9401193
66,0.06920796,-1.0045347,-1.8794597,4.857819
67,0.069220275,-1.0035917,-1.8792547,4.857119
68,0.06993255,-1.0035564,-1.8772923,4.8580647
69,0.06855046,-1.0031191,-1.8771852,4.8587813
70,0.06705466,-1.0030484,-1.8770951,4.8597436
71,0.06762561,-1.0034639,-1.8764601,4.859699
72,0.06664658,-1.0026304,-1.8761764,4.8603272
73,0.066575676,-1.0021304,-1.8759915,4.8592873
74,0.06725793,-1.0021385,-1.8757218,4.8598404
75,0.06911146,-1.0024856,-1.8753943,4.8592696
76,0.25713548,-0.9678746,-2.0787654,4.891022
77,0.35748515,-1.0506473,-1.8745507,4.7919745
78,0.48461774,-0.91234297,-2.0104566,4.969317
79,0.41761884,-0.851644,-2.0173252,5.1634364
80,0.56894284,-0.8917349,-1.9113652,4.9644256
81,0.13116221,-0.2554421,-1.7252907,5.0849767
82,0.22298609,-0.7541642,-1.7874689,5.127625
83,0.20849419,-0.85761833,-1.6808571,4.979923
84,0.20933403,-0.85784864,-1.6824192,4.981783
85,0.2079611,-0.5112744,-1.7275988,5.0154
86,0.2855704,-0.4716103,-1.7222251,5.025257
87,0.1816917,-0.8683705,-1.6696262,4.973757
88,0.16832347,-0.87906855,-1.6761189,4.9700913
89,0.14730997,-0.9033647,-1.7074909,4.9553123
90,0.06854402,-1.0027534,-1.8657036,4.8738923
91,0.02303031,-0.90822816,-1.6857018,4.9039955
92,0.06948585,-1.0009063,-1.8652602,4.874073
93,0.06948345,-0.99935514,-1.8660032,4.87545
94,0.069334775,-0.9997258,-1.8647684,4.8747983
95,0.06978511,-1.0008402,-1.863801,4.8745537
96,0.06918777,-0.99944156,-1.8639488,4.875277
97,0.067706876,-0.9995219,-1.863298,4.87609
98,0.06662016,-0.9987696,-1.863061,4.8771834
99,0.068791516,-0.99870586,-1.8630086,4.875773
100,0.069515,-0.9987504,-1.8620821,4.8761153
101,0.06965052,-0.9988648,-1.8611027,4.876085
102,0.14769536,-0.90096337,-1.6993747,4.9571433
103,0.1714466,-0.8734729,-1.6714786,4.979079
104,0.18451513,-0.861824,-1.6639103,4.987236
105,0.19520909,-0.8571112,-1.6647221,4.988878
106,0.20581849,-0.8581709,-1.6688191,4.988718
107,0.21051162,-0.856658,-1.6736652,4.9890685
108,0.21092927,-0.8569537,-1.672296,4.9894195
109,0.20339118,-0.8588578,-1.6691362,4.9898353
110,0.19445564,-0.85900736,-1.666282,4.992065
111,0.18241088,-0.86537075,-1.6635742,4.9918103
112,0.16823196,-0.875592,-1.67094,4.9843197
113,0.14611767,-0.904635,-1.6995131,4.965215
114,0.06904013,-1.0016848,-1.861948,4.8852477
115,0.06903713,-1.0008975,-1.8619624,4.8863063
116,0.0680911,-1.0006418,-1.8612399,4.8856006
117,0.06693847,-1.0004231,-1.8607992,4.8858433
118,0.06615376,-1.0007186,-1.8611755,4.88674
119,0.06768256,-1.0014592,-1.8609381,4.885942
120,0.068055935,-1.0009977,-1.8597221,4.887079
121,0.06813926,-0.999994,-1.8594928,4.887846
122,0.06855205,-0.9989953,-1.8595595,4.8869815
123,0.069164924,-0.99836713,-1.859011,4.8865285
124,0.06869975,-0.9980834,-1.8593096,4.887062
125,0.06910681,-0.997808,-1.8578615,4.8874927
126,0.14809331,-0.90833354,-1.702571,4.9640837
127,0.16913994,-0.8786518,-1.6685959,4.982923
128,0.18272348,-0.8669196,-1.6604582,4.992338
129,0.19557154,-0.85896945,-1.6558895,4.9970746
130,0.20372425,-0.8590167,-1.6591395,4.9960628
131,0.20664491,-0.85831755,-1.6620325,4.996525
132,0.20695569,-0.8586495,-1.6613706,4.9969544
133,0.20149893,-0.858612,-1.6605487,5.000115
134,0.19316071,-0.8619917,-1.6582471,4.999884
135,0.17883772,-0.8712638,-1.6590995,4.9957066
136,0.16694216,-0.88243127,-1.6692328,4.9886355
137,0.14470856,-0.9127596,-1.7011265,4.9709945
138,0.0662373,-1.000563,-1.8595308,4.8964524
139,0.06656254,-1.0005571,-1.8588156,4.896815
140,0.066291146,-1.0014696,-1.8587676,4.8968453
141,0.065646835,-1.0004424,-1.8582878,4.8987803
142,0.0659206,-0.99942183,-1.857513,4.898684
143,0.066012435,-0.99944323,-1.8557171,4.898437
144,0.06529241,-0.998404,-1.8559028,4.898666
145,0.06698304,-0.99804157,-1.8558345,4.897653
146,0.067775495,-0.9985158,-1.8553834,4.897656
147,0.064617604,-0.9984315,-1.854467,4.8988433
148,0.066000156,-0.9982672,-1.8536339,4.898966
149,0.0669826,-0.9982517,-1.8539534,4.8985925
150,0.14498313,-0.9053178,-1.691813,4.9780655
151,0.166647,-0.8739756,-1.6604686,4.99659
152,0.1828137,-0.86369926,-1.6532074,5.0031943
153,0.19464378,-0.8591203,-1.6542488,5.0063233
154,0.20332865,-0.85708445,-1.6572709,5.0044794
155,0.20723654,-0.8575387,-1.6586221,5.0040393
156,0.20779209,-0.8578241,-1.6601974,5.0050216
157,0.20180875,-0.85859394,-1.6577253,5.006006
158,0.19264562,-0.86021465,-1.6545386,5.0088787
159,0.1806749,-0.8668029,-1.6532947,5.0087686
160,0.16577753,-0.8797073,-1.6617395,5.000627
161,0.14104989,-0.91039497,-1.6935452,4.985003
162,0.06365163,-1.0016397,-1.8546797,4.906854
163,0.06347856,-1.0009148,-1.8549019,4.907418
164,0.062978834,-1.0004154,-1.8547359,4.9076977
165,0.06443917,-1.0002217,-1.8547106,4.907929
166,0.063120015,-0.9996392,-1.8541099,4.90949
167,0.06334943,-0.9996956,-1.8522664,4.908111
168,0.06406706,-0.9992849,-1.8518015,4.9085464
169,0.06498683,-1.0012127,-1.8504033,4.908339
170,0.06485038,-1.0003377,-1.8499384,4.907455
171,0.4258201,-1.0951701,-1.8859342,4.7592206
172,0.004804542,-0.90041447,-1.6599995,4.9288244
173,0.021313211,-0.9403135,-1.8979554,5.0767474
174,0.14305583,-0.9066713,-1.6850467,4.98558
175,0.16917773,-0.876251,-1.655096,5.003839
176,0.18330409,-0.86197275,-1.6473483,5.011227
177,0.22091751,-0.5003106,-1.727774,5.094927
178,0.16748469,-0.41028664,-1.6503109,5.233774
179,0.46042374,-1.0083843,-1.6865424,4.83112
180,0.5253393,-0.8108353,-1.9985743,5.1810374
181,0.6398125,-0.87280136,-2.2578986,5.6155987
182,0.7301655,-0.6633522,-2.1602154,4.9747825
183,0.7718175,-0.88525087,-2.193388,4.7724366
184,0.41296467,-0.9511797,-1.6964704,4.966247
185,0.51123744,-1.1532928,-2.1485949,4.6762147
186,0.4470776,-1.184436,-2.403896,4.99443
187,0.22343196,-1.2488698,-2.414292,5.0676913
188,0.26403415,-1.0867928,-2.4625783,5.1887794
189,0.18349777,-1.3259459,-2.3954651,5.065347
190,0.3235947,-1.2475052,-2.6199386,4.4753084
191,0.42001167,-1.2740935,-2.3757117,3.8346817
192,-0.1670536,-0.9665003,-1.8716878,4.6860085
193,-0.00066482025,-0.7393953,-1.7686919,4.5792356
194,0.07570097,-1.0088181,-1.7761716,4.778996
195,0.08357436,-0.969595,-1.7396058,4.8814387
196,0.08470932,-0.9526584,-1.7260069,4.920158
197,0.08606117,-0.949738,-1.7208987,4.9326916
198,0.15648519,-0.8612189,-1.5634049,5.011184
199,0.17921038,-0.8315432,-1.5334139,5.028792
200,0.19108284,-0.8225499,-1.5258318,5.034492
201,0.21624237,-0.74638724,-1.4301763,5.1538596
202,0.2090954,-0.815985,-1.5314575,5.0323977
203,0.21205913,-0.81551075,-1.5355134,5.0336814
204,0.21280031,-0.8150375,-1.5359675,5.0337715
205,0.20663749,-0.81747055,-1.532152,5.035646
206,0.20001619,-0.8202289,-1.5286859,5.037722
207,0.1922308,-0.8087595,-1.6543798,4.97831
208,0.18873824,-0.76521856,-1.6962665,5.00235
209,0.09756886,-0.806832,-1.5064937,5.061871
210,0.37883365,-0.9552021,-1.8703555,5.3050995
211,0.32961702,-1.1056625,-1.8552155,4.726217
212,0.06881846,-0.9514418,-1.7166648,4.945957
213,0.07645018,-0.9504714,-1.7148758,4.9484024
214,0.026863685,-0.8870306,-1.81417,5.0369925
215,-0.005190581,-0.7994434,-1.6718259,5.1752815
216,0.0844351,-0.9478658,-1.7136401,4.9500794
217,0.08423337,-0.9473869,-1.7138222,4.950667
218,0.08589303,-0.9471333,-1.7140527,4.9524174
219,0.012765706,-0.55793005,-1.6122643,4.9626617
220,0.08500686,-0.947934,-1.7119619,4.9520054
221,0.08476854,-0.9474681,-1.7109375,4.951921
222,0.11481886,-0.41350785,-1.6155442,5.182183
223,0.41299078,-0.8945845,-1.5053929,5.0468845
224,0.36244503,-0.8629417,-1.5360857,5.020395
225,0.23641777,-0.74251837,-1.4136993,5.195917
226,0.205276,-0.8144422,-1.5266436,5.0439496
227,0.21101902,-0.8148031,-1.5315684,5.0453935
228,0.37912104,-0.8576581,-1.543105,5.022328
229,0.2053497,-0.8154623,-1.5277745,5.0476537
230,0.19668071,-0.81953794,-1.5234295,5.051201
231,0.18449934,-0.8245587,-1.5173577,5.0546317
232,0.17485984,-0.8333455,-1.5220624,5.0524206
233,0.15175582,-0.86236495,-1.5504843,5.040315
234,0.082249515,-0.9521022,-1.7127247,4.962363
235,0.082703285,-0.9503763,-1.7128166,4.963211
236,0.08378125,-0.9500246,-1.711933,4.963385
237,0.083675735,-0.9500782,-1.7122971,4.964371
238,0.08211707,-0.94994617,-1.7121192,4.96368
239,0.082722135,-0.94948536,-1.7123615,4.963608
240,0.082474045,-0.95040196,-1.709551,4.963385
241,0.082197554,-0.9506567,-1.7087857,4.9642067
242,0.08211842,-0.94837016,-1.7084152,4.9641147
243,0.08170739,-0.9482007,-1.7091055,4.9643135
244,0.081285544,-0.9478763,-1.7076164,4.9642143
245,0.081394844,-0.9477795,-1.7082638,4.9646015
246,0.15033855,-0.86543655,-1.5516572,5.0400047
247,0.17213319,-0.8359151,-1.5203729,5.0517516
248,0.18241078,-0.82663155,-1.5126462,5.057461
249,0.19418155,-0.82125825,-1.5138379,5.057241
250,0.19932055,-0.81879216,-1.5179878,5.056311
251,0.37253138,-0.8595435,-1.5386782,5.0297685
252,0.36875024,-0.8619349,-1.5386267,5.0310745
253,0.19974811,-0.81994647,-1.5191468,5.0580964
254,0.19168139,-0.82362324,-1.5153006,5.0619636
255,0.17921512,-0.8302112,-1.512577,5.060825
256,0.16867702,-0.8417354,-1.5224115,5.0591083
257,0.14922754,-0.87067217,-1.5518789,5.0484276
258,0.08016986,-0.95141244,-1.7098942,4.974133
259,0.08020038,-0.9523843,-1.7101334,4.973313
260,0.07977185,-0.9517874,-1.7097845,4.974123
261,0.08012882,-0.9507742,-1.7077242,4.973301
262,0.0799265,-0.9505417,-1.7084227,4.97594
263,0.07903112,-0.9500348,-1.7077926,4.976378
264,0.07928755,-0.9505734,-1.7078658,4.9752293
265,0.080118366,-0.9506898,-1.7073919,4.975967
266,0.078823216,-0.94930094,-1.7065768,4.9749312
267,0.079921894,-0.9478757,-1.7060771,4.9755816
268,0.07850548,-0.9481094,-1.7064861,4.9769025
269,0.07859665,-0.94820446,-1.7056783,4.9764123
270,0.14154395,-0.87343675,-1.5539246,5.0484962
271,0.16096151,-0.8438991,-1.5224913,5.062474
272,0.17090024,-0.83280724,-1.513054,5.0656643
273,0.18007286,-0.8252346,-1.5085983,5.069781
274,0.18653212,-0.82331806,-1.5104471,5.0677133
275,0.1890936,-0.82180315,-1.5124084,5.0673313
276,0.18922204,-0.82284164,-1.5130482,5.0698924
277,0.1843869,-0.82496333,-1.511293,5.0718517
278,0.17684488,-0.8272744,-1.5117005,5.072984
279,0.16815323,-0.83717185,-1.5134987,5.0700364
280,0.15776585,-0.84802467,-1.524356,5.0676503
281,0.14071998,-0.87727445,-1.5559896,5.0561275
282,0.07571594,-0.9527283,-1.7067156,4.9845257
283,0.07692191,-0.95224214,-1.7066189,4.9845023
284,0.07772821,-0.9521766,-1.7069122,4.985085
285,0.07806453,-0.95100373,-1.7063913,4.984247
286,0.07758361,-0.9502327,-1.705814,4.9849777
287,0.07769065,-0.9492939,-1.7052189,4.98501
288,0.07600547,-0.95034856,-1.70498,4.9856496
289,0.07710502,-0.9502836,-1.7040309,4.986401
290,0.07660683,-0.95084685,-1.70357,4.986389
291,0.07897105,-0.95022154,-1.7027464,4.9841714
292,0.078518234,-0.94941324,-1.7025522,4.98481
293,0.0784055,-0.94863445,-1.702638,4.985743
294,0.1373003,-0.87751055,-1.5548848,5.0598607
295,0.15696186,-0.8473492,-1.5245924,5.071354
296,0.16438045,-0.83616275,-1.5127882,5.073788
297,0.38001776,-0.92367023,-1.5294365,4.9873085
298,0.35992864,-1.2287236,-1.7972931,4.1589174
299,0.051417887,-1.0511858,-1.9983107,4.942908
300,0.38765907,-0.8805535,-2.3195457,4.773495
301,0.0352857,-0.44459566,-1.7670993,4.8289
302,0.1368608,-0.865256,-1.628919,4.894123
303,0.15656234,-0.83751255,-1.5301279,5.0080285
304,0.15549727,-0.8360467,-1.4962205,5.0530543
305,0.4301493,-0.97171074,-1.5552758,4.9221807
306,0.39795694,-1.0270282,-1.8946065,5.1413226
307,0.4373208,-1.0557486,-1.8925358,5.0657387
308,0.43946198,-0.7145245,-1.9138769,5.3728557
309,-0.020245185,-0.7294721,-1.6286107,5.2909875
310,0.31130454,-1.3335747,-2.2068813,5.107485
311,0.29690933,-1.239461,-2.1814773,4.8615527
312,-0.20597434,-1.3779402,-1.501002,5.3164935
313,0.01798906,-0.68226695,-1.6928015,4.8091617
314,0.08708382,-0.9565103,-1.6893644,4.9161363
315,0.09169061,-0.9156584,-1.6434174,4.9699664
316,0.09288147,-0.90396094,-1.6276239,4.990444
317,0.09420631,-0.89948195,-1.6206064,4.996618
318,0.15034215,-0.83037853,-1.4717354,5.0666676
319,0.16722696,-0.80194324,-1.4410514,5.078172
320,0.1760512,-0.7912429,-1.4307846,5.0822754
321,0.18436955,-0.7828861,-1.4270865,5.0837345
322,0.44586134,-0.92204195,-1.4746956,4.9254775
323,0.19054802,-0.779138,-1.4288597,5.084042
324,0.19255768,-0.7807614,-1.4295754,5.0849543
325,0.18802084,-0.7827914,-1.4275855,5.087425
326,0.33741024,-0.78810114,-1.3720899,5.149414
327,0.38452277,-0.8983357,-1.475995,4.9831767
328,0.16469027,-0.8049148,-1.4411536,5.086909
329,0.14798295,-0.8336398,-1.470795,5.077838
330,0.09115732,-0.8939732,-1.6184613,5.00997
331,0.090791665,-0.8950128,-1.6176099,5.010473
332,0.09086677,-0.89502937,-1.6173592,5.0099583
333,-0.144811,-0.11864082,-1.6430753,5.1473546
334,0.09340171,-0.8963707,-1.6157513,5.000615
335,0.09207654,-0.8947013,-1.6160017,5.0055842
336,0.09154737,-0.8932204,-1.6150674,5.0082054
337,0.09093142,-0.8915403,-1.6157823,5.0101037
338,0.091348864,-0.89158183,-1.6150693,5.0109057
339,0.0920195,-0.8920148,-1.6141287,5.0102973
340,0.092247464,-0.8922827,-1.6132269,5.0111737
341,0.09167161,-0.89160126,-1.6124157,5.0114384
342,0.15145715,-0.8274209,-1.4644464,5.080814
343,0.16807376,-0.800025,-1.4340849,5.0896573
344,0.17728007,-0.78993064,-1.4255772,5.091979
345,0.18649165,-0.7824015,-1.4220313,5.093642
346,0.1924646,-0.7796311,-1.4251237,5.092457
347,0.19405599,-0.7799304,-1.426042,5.0912824
348,0.19380645,-0.7806926,-1.425968,5.091856
349,0.1908397,-0.7812225,-1.4246153,5.095179
350,0.18515833,-0.78464985,-1.4236951,5.0980687
351,0.17542548,-0.7919002,-1.4267925,5.097903
352,0.12446084,-0.45197642,-1.4436412,5.1898594
353,0.11857761,-0.6361565,-1.610454,5.5412154
354,0.08959588,-0.90960073,-1.6273156,4.992213
355,0.091569155,-0.89561677,-1.6150317,5.0073094
356,0.09199425,-0.888627,-1.6103324,5.016715
357,0.09211018,-0.8865838,-1.6076269,5.0197353
358,0.092295654,-0.8844924,-1.6069089,5.0221257
359,0.09105313,-0.8842953,-1.6060714,5.0213137
360,0.09134545,-0.88366055,-1.6070932,5.0225244
361,0.090156496,-0.8840243,-1.6055046,5.0218678
362,0.09121287,-0.8830878,-1.604577,5.0213146
363,0.09145733,-0.8830535,-1.6041441,5.0224032
364,0.09057701,-0.88194674,-1.604473,5.0228667
365,0.09042168,-0.8817868,-1.6038591,5.0231156
366,0.14976044,-0.82122254,-1.4515487,5.091594
367,0.1665488,-0.794054,-1.4243759,5.0988317
368,0.17687112,-0.78408283,-1.4165491,5.103453
369,0.18415894,-0.77848697,-1.416803,5.103973
370,0.18924457,-0.77556044,-1.4202851,5.10069
371,0.19163187,-0.775925,-1.4219532,5.0992947
372,0.19144839,-0.77595663,-1.4226724,5.100611
373,0.18769343,-0.7773954,-1.4212946,5.1039133
374,0.18302254,-0.78212756,-1.4183512,5.1079297
375,0.17337517,-0.788177,-1.4187819,5.107391
376,0.16343236,-0.7991366,-1.4279199,5.1076455
377,0.147327,-0.8248609,-1.4543716,5.099342
378,0.088114195,-0.8809829,-1.6054956,5.031798
379,0.08858866,-0.8797825,-1.6051779,5.0328903
380,0.08840271,-0.8786003,-1.6048349,5.0319467
381,0.08947086,-0.8788727,-1.6046501,5.0326715
382,0.09030188,-0.87884253,-1.605513,5.033815
383,0.08827505,-0.8776825,-1.6050833,5.0338783
384,0.08924687,-0.8789782,-1.6022683,5.0328536
385,0.0894683,-0.8785662,-1.6019983,5.032657
386,0.08952279,-0.8782203,-1.6017884,5.0327134
387,0.089030705,-0.876877,-1.6024259,5.0331607
388,0.08937103,-0.8767294,-1.6025034,5.0340753
389,0.0874064,-0.876241,-1.6018753,5.035025
390,0.15069847,-0.8197511,-1.4466418,5.101333
391,0.16901942,-0.7950423,-1.4202055,5.1093116
392,0.17697527,-0.7830836,-1.4133177,5.111519
393,0.18526566,-0.7787362,-1.41366,5.112589
394,0.19001515,-0.7764606,-1.4169768,5.109285
395,0.19325405,-0.775206,-1.4187236,5.110643
396,0.1942774,-0.77558404,-1.418045,5.1102185
397,0.18861187,-0.7771887,-1.417123,5.1118865
398,0.18384881,-0.78209877,-1.4136859,5.1171513
399,0.17314447,-0.7879367,-1.4144148,5.1172404
400,0.16488256,-0.7993045,-1.4245282,5.116409
401,0.14659522,-0.8257608,-1.4511698,5.112488
402,0.08602845,-0.875827,-1.603436,5.043211
403,0.08560882,-0.87433195,-1.6034566,5.04266
404,0.08594111,-0.8734725,-1.6034728,5.042938
405,0.08627317,-0.8737863,-1.6028,5.0434113
406,0.08600789,-0.87368876,-1.602282,5.0436587
407,0.08507972,-0.8732473,-1.6017737,5.0440807
408,0.08518514,-0.8733196,-1.6019415,5.043754
409,0.08476124,-0.8716771,-1.6013981,5.044473
410,0.08393959,-0.8720091,-1.600963,5.045037
411,0.08497795,-0.87203103,-1.5995183,5.0446777
412,0.08638785,-0.87138796,-1.5991855,5.044853
413,0.08696113,-0.87088495,-1.599494,5.0446897
414,0.14413448,-0.8198939,-1.4473943,5.114382
415,0.16136698,-0.7942882,-1.4183908,5.1212616
416,0.17098089,-0.78502065,-1.4115311,5.1231103
417,0.17930622,-0.7807934,-1.41185,5.1231556
418,0.18495345,-0.77702993,-1.4149314,5.1206975
419,0.1888572,-0.77502805,-1.4168925,5.122537
420,0.18734534,-0.77658147,-1.4180886,5.122963
421,0.18273532,-0.7796752,-1.4166564,5.124308
422,0.1758248,-0.78598523,-1.4126536,5.12672
423,0.16766421,-0.7911121,-1.4148355,5.1286054
424,0.3081843,-0.83279353,-1.4573866,5.121786
425,0.07606768,-0.4142079,-1.5414776,5.154331
426,0.22781934,-0.98739594,-1.5852218,5.124951
427,-0.01135848,-0.7721074,-1.6160077,5.2536893
428,0.08106989,-0.87483025,-1.6172346,5.0329003
429,0.08307966,-0.87010926,-1.6082844,5.0446086
430,0.083632775,-0.8673572,-1.6025461,5.0496006
431,0.082962096,-0.86686784,-1.5996655,5.0530114
432,0.08294606,-0.8656458,-1.5975484,5.053771
433,0.08288416,-0.8646404,-1.5966082,5.0544915
434,0.08283126,-0.8645285,-1.5960765,5.055141
435,0.082113974,-0.8640763,-1.5961672,5.055893
436,0.25820124,-0.92013454,-1.641715,5.060289
437,0.083676904,-0.8637183,-1.5957125,5.0551987
438,0.1420029,-0.8208745,-1.4412848,5.1233754
439,0.1598381,-0.7958395,-1.4130491,5.1293273
440,0.16921902,-0.7871787,-1.4056045,5.13201
441,0.17743815,-0.78314966,-1.4084824,5.13318
442,0.18537827,-0.77911943,-1.4137831,5.1320148
443,0.18842168,-0.7770657,-1.4168416,5.133431
444,0.18679376,-0.77880555,-1.4175771,5.134586
445,0.18058431,-0.7823619,-1.415526,5.1352468
446,0.17444326,-0.78587335,-1.4119605,5.1372075
447,0.16445173,-0.7912834,-1.4082192,5.138023
448,0.15563336,-0.8031772,-1.4155531,5.1365113
449,0.13692795,-0.82582283,-1.4453826,5.133356
450,0.0785628,-0.86213166,-1.5995156,5.0640845
451,0.07893128,-0.8623876,-1.598033,5.063333
452,0.0787566,-0.8620193,-1.5972158,5.0631905
453,0.07835331,-0.8616221,-1.5965942,5.063499
454,0.07848707,-0.8611396,-1.5969433,5.0647984
455,0.078150034,-0.860694,-1.596583,5.0645485
456,0.07855485,-0.8600233,-1.5964398,5.064924
457,0.079157166,-0.86031646,-1.5963372,5.06443
458,0.07893858,-0.85941386,-1.5962244,5.0657024
459,0.080022275,-0.85962266,-1.5954894,5.0655284
460,0.078297056,-0.85887367,-1.5952392,5.0658073
461,0.07889605,-0.85895926,-1.5940752,5.0663066
462,0.13776927,-0.8218508,-1.4401021,5.134438
463,0.15400015,-0.79916734,-1.4111267,5.139988
464,0.16151783,-0.78897715,-1.4047292,5.140269
465,0.17098093,-0.78369504,-1.4082693,5.142895
466,0.17820466,-0.7804005,-1.4122769,5.1424446
467,0.18097465,-0.77690005,-1.414981,5.144457
468,0.18027826,-0.7784036,-1.4165778,5.14579
469,0.176879,-0.7806813,-1.4139829,5.1461215
470,0.1670909,-0.78604394,-1.4102191,5.148188
471,0.16041552,-0.7932673,-1.4082893,5.147182
472,0.15082674,-0.80504346,-1.4140234,5.147037
473,0.13227768,-0.8267469,-1.440279,5.142833
474,0.0753653,-0.8578107,-1.5952226,5.074241
475,0.075499795,-0.8570593,-1.5946746,5.0738063
476,0.07425898,-0.856371,-1.5946931,5.0743003
477,0.07388532,-0.85716337,-1.5951697,5.075142
478,0.07327258,-0.8579027,-1.5929209,5.0743237
479,0.07459694,-0.8566683,-1.5926074,5.075501
480,0.073429726,-0.8562897,-1.5924063,5.0757833
481,0.07523391,-0.85560817,-1.5926765,5.076239
482,0.074801445,-0.8550442,-1.5923544,5.075222
483,0.074153714,-0.85566074,-1.5913461,5.073067
484,0.07371422,-0.85538095,-1.5907483,5.0733604
485,0.073130004,-0.85472864,-1.5905042,5.074178
486,0.12631465,-0.8252556,-1.4382144,5.1448083
487,0.14203967,-0.8024613,-1.4112602,5.149902
488,0.14885269,-0.79221916,-1.4052871,5.153712
489,0.15531045,-0.78640366,-1.4073614,5.156778
490,0.16276568,-0.7824934,-1.4114505,5.156791
491,0.1659473,-0.7808803,-1.4135666,5.1567435
492,0.16480453,-0.7811257,-1.4138126,5.1577225
493,0.16002871,-0.7835083,-1.4126772,5.160437
494,0.1538763,-0.7891483,-1.4091336,5.1595287
495,0.14583902,-0.79805374,-1.4091463,5.1589284
496,0.13857846,-0.80752546,-1.4176344,5.157896
497,0.12264094,-0.8297188,-1.4419512,5.152516
498,0.06852338,-0.85520095,-1.5934781,5.0843863
499,0.0694743,-0.8547575,-1.592992,5.084641
500,0.07057721,-0.85334677,-1.5933442,5.0839653
501,0.07116204,-0.8533259,-1.5939065,5.0849166
502,0.06945189,-0.85277253,-1.5925307,5.085222
503,0.070398055,-0.8528783,-1.5928243,5.084994
504,0.06948831,-0.85233235,-1.5922323,5.0852475
505,0.06969402,-0.8523822,-1.5911568,5.085624
506,0.07002115,-0.85095197,-1.5908803,5.085171
507,0.07003244,-0.8509992,-1.5894494,5.0858703
508,0.06987473,-0.85116225,-1.5894351,5.0857296
509,0.070484996,-0.850802,-1.5895962,5.085027
510,0.12173533,-0.83053976,-1.442841,5.152161
511,0.13665564,-0.80917186,-1.4176226,5.1584554
512,0.14379357,-0.8002303,-1.408837,5.160949
513,0.1517836,-0.7923567,-1.4060873,5.164133
514,0.15814503,-0.7874725,-1.4070343,5.1658463
515,0.16087143,-0.7854297,-1.4111506,5.1665497
516,0.15990457,-0.7857891,-1.4119376,5.1680446
517,0.15536897,-0.7890901,-1.4105178,5.169958
518,0.1493801,-0.795096,-1.4103254,5.168209
519,0.14084211,-0.8043661,-1.4141922,5.1653895
520,0.13164075,-0.81446344,-1.423119,5.1638246
521,0.11685567,-0.8347537,-1.4489244,5.1599813
522,0.065467715,-0.85045725,-1.5922241,5.0929165
523,0.065091975,-0.8500082,-1.5922211,5.093121
524,0.06394499,-0.8491268,-1.5913321,5.0934424
525,0.0660361,-0.84908646,-1.5910978,5.093397
526,0.06514171,-0.84916,-1.5904049,5.0939674
527,0.015649945,-0.4245577,-1.4550028,5.0992546
528,0.065487646,-0.848773,-1.5898433,5.0948167
529,0.040223926,-0.8715243,-1.6744133,5.186207
530,0.06443894,-0.84817743,-1.5893687,5.0955224
531,0.020288369,-0.84627885,-1.6470491,5.189289
532,0.36979684,-0.96950036,-1.6460708,5.030764
533,0.5398051,-1.0690573,-1.8834753,5.173235
534,0.50128967,-0.98185796,-1.8206295,5.1963105
535,0.50835264,-1.0397803,-2.0239136,5.440765
536,0.4660038,-1.001491,-2.1727574,5.419272
537,0.09714166,-0.34671593,-1.6581436,5.241922
538,0.4656863,-0.9378632,-1.5691265,5.149492
539,0.62793,-0.5801795,-1.9105211,5.26017
540,0.54074365,-0.86282593,-1.9078698,4.590516
541,0.4121722,-0.73163193,-1.9874371,5.282549
542,0.39374793,-0.845748,-2.230407,5.181806
543,0.3575795,-0.88244814,-2.0664046,5.04993
544,0.27374235,-0.8456096,-2.2550566,5.2420406
545,0.32868835,-0.92703056,-1.8652624,5.2615294
546,0.017998239,-0.84467,-1.6241771,5.063818
547,0.5298402,-1.069381,-1.9419776,5.1273727
548,0.37633136,-0.9768968,-1.4979787,5.06755
549,0.41398728,-1.0046856,-1.7861778,5.2238297
550,0.45902643,-0.98131967,-1.828221,5.0842433
551,-0.1450391,-0.3933177,-1.4112192,5.2022133
552,-0.14194527,-0.5113731,-1.7170316,5.2273917
553,-0.1259139,-0.5967066,-1.6699878,5.1879926
554,-0.15572615,-0.26759014,-1.3888427,5.148136
555,-0.09903621,-0.36026955,-1.2913581,5.365808
556,0.07461703,-0.8321104,-1.5367476,5.073318
557,-0.056951564,-0.63479024,-1.7787074,5.260899
558,0.019909546,-0.52266395,-1.5234084,5.2763786
559,0.43990418,-0.8893785,-1.4780669,5.2288527
560,0.31582856,-0.9367823,-1.4319329,5.1836543
561,0.1368905,-0.7846779,-1.1535046,5.285424
562,0.13123855,-0.7658255,-1.3533511,5.1683345
563,0.15180783,-0.7608822,-1.3522615,5.1766515
564,0.15703453,-0.760012,-1.3499097,5.181947
565,0.15581821,-0.76159954,-1.3472824,5.1846004
566,0.1505668,-0.7682121,-1.3430568,5.184893
567,0.14481266,-0.77720976,-1.3413476,5.1822543
568,0.13637213,-0.78920215,-1.3497392,5.1806006
569,0.12030932,-0.8053083,-1.371592,5.175062
570,0.071652316,-0.8141143,-1.5102972,5.1113186
571,0.07196199,-0.8131935,-1.5103893,5.112446
572,0.07224434,-0.81296664,-1.5089612,5.1116986
573,0.07240004,-0.81260806,-1.509131,5.1120334
574,0.072752595,-0.81320834,-1.5090629,5.1127496
575,0.07195034,-0.81406134,-1.5080332,5.1132836
576,0.0729735,-0.81278604,-1.5075926,5.1132507
577,0.0725627,-0.8116761,-1.5079409,5.1125236
578,0.07266142,-0.8123007,-1.5067464,5.1114564
579,0.07085857,-0.81207436,-1.506121,5.113816
580,0.07081113,-0.81165886,-1.5070277,5.1143513
581,0.07215434,-0.8106392,-1.50536,5.1142197
582,0.120720334,-0.80242014,-1.3716141,5.1774006
583,0.13414532,-0.7885902,-1.3464384,5.182338
584,0.14119105,-0.7793667,-1.3382825,5.18515
585,0.14899133,-0.76963615,-1.3386822,5.190473
586,0.15297362,-0.7652468,-1.340528,5.1922827
587,0.15493919,-0.7614576,-1.343708,5.1937866
588,0.1540397,-0.7630868,-1.343688,5.195995
589,0.15139212,-0.7661667,-1.3430694,5.1962037
590,0.14695564,-0.77381104,-1.3404201,5.193664
591,0.13670321,-0.78410035,-1.3422445,5.191962
592,0.12961175,-0.7932386,-1.3514873,5.1891212
593,0.11504672,-0.8038394,-1.375888,5.1862006
594,0.069196224,-0.81030756,-1.5084311,5.122452
595,0.07010275,-0.81010216,-1.5073541,5.1225014
596,0.06872914,-0.81013083,-1.5060109,5.1216373
597,0.066292435,-0.81035966,-1.506064,5.12285
598,0.066193014,-0.8092101,-1.5060478,5.1213613
599,0.06650775,-0.8092804,-1.5061423,5.122165
600,0.06684291,-0.809776,-1.5045409,5.1221576
601,0.0685857,-0.8083415,-1.5066651,5.122974
602,0.067087404,-0.8086569,-1.5047913,5.12231
603,0.066787176,-0.80791473,-1.5037519,5.1233134
604,0.06783953,-0.80890113,-1.5025355,5.1235127
605,0.06733299,-0.8077242,-1.503264,5.12429
606,0.1152463,-0.7984194,-1.3748671,5.186356
607,0.12729518,-0.7924877,-1.3490089,5.1901703
608,0.13418676,-0.7827565,-1.3407761,5.1940675
609,0.14225319,-0.7739263,-1.3368912,5.198564
610,0.14635333,-0.7683113,-1.3402995,5.2012296
611,0.14801642,-0.76630974,-1.3418804,5.204185
612,0.14714704,-0.7665965,-1.3424414,5.203339
613,0.14486657,-0.77154607,-1.3419417,5.203417
614,0.14050186,-0.7769179,-1.3406101,5.2019863
615,0.13036226,-0.7875442,-1.3449956,5.1983514
616,0.12311693,-0.7973299,-1.3532923,5.197376
617,0.11207405,-0.79959697,-1.3811146,5.1943355
618,0.061990112,-0.8074172,-1.5068661,5.129155
619,0.06204779,-0.80732566,-1.5073204,5.1306577
620,0.062136382,-0.8074935,-1.5063372,5.130387
621,0.063031904,-0.80718166,-1.5057096,5.1310043
622,0.062749594,-0.8066208,-1.5058346,5.1316514
623,0.062553756,-0.8062909,-1.5051503,5.1309624
624,0.0631479,-0.80596465,-1.5050397,5.130035
625,0.062200923,-0.8053486,-1.504074,5.13072
626,0.06304116,-0.80524945,-1.5036684,5.1302505
627,0.06317917,-0.8049791,-1.5042027,5.1316223
628,0.06253415,-0.8046689,-1.502935,5.1322255
629,0.06236573,-0.8054276,-1.5028349,5.1312757
630,0.10961506,-0.796882,-1.3813972,5.195619
631,0.13070685,-0.55133307,-1.4153371,5.272817
632,0.068376966,-0.4364423,-1.2615983,5.4201865
633,0.057825554,-0.26789427,-1.0901177,5.2377615
634,0.13865216,-0.78204685,-1.3419236,5.194786
635,0.14075069,-0.7720745,-1.3391418,5.204757
636,0.14088574,-0.76830035,-1.3395604,5.2107234
637,0.13570875,-0.77142125,-1.3387846,5.2113795
638,0.13220917,-0.77764434,-1.3407849,5.210571
639,0.124509014,-0.7875003,-1.3464705,5.207319
640,0.11627444,-0.79314375,-1.3558882,5.205445
641,0.107574634,-0.7940107,-1.3817767,5.1998158
642,0.059297174,-0.8005834,-1.5022687,5.138313
643,0.061135817,-0.8004766,-1.5021343,5.137163
644,0.05971499,-0.8001258,-1.501803,5.1388993
645,0.060384344,-0.7991472,-1.5025536,5.1395726
646,0.059867144,-0.7982804,-1.5021166,5.140068
647,0.061493557,-0.7979477,-1.5020485,5.139572
648,0.05940037,-0.79797417,-1.5005074,5.139034
649,0.058728535,-0.7982428,-1.5001911,5.1393948
650,0.059126806,-0.7982976,-1.5000477,5.1395984
651,0.05944112,-0.79891926,-1.4999428,5.1395926
652,0.06022173,-0.7976773,-1.4988309,5.1397705
653,0.059458178,-0.7964391,-1.4988542,5.140311
654,0.10788682,-0.7894924,-1.3796396,5.200953
655,0.116871506,-0.7889626,-1.3524523,5.207439
656,0.12640944,-0.7863628,-1.3425208,5.2091303
657,0.13304523,-0.7767048,-1.3382417,5.21442
658,0.13840942,-0.7710571,-1.3370633,5.219242
659,0.13947184,-0.7689205,-1.3391799,5.2213993
660,0.13769926,-0.7687338,-1.3395692,5.223292
661,0.13428281,-0.7729363,-1.3402233,5.222738
662,0.1295029,-0.77919644,-1.342557,5.2187123
663,0.11938112,-0.78847283,-1.3498772,5.21443
664,0.11216829,-0.7902879,-1.358964,5.211921
665,0.10290236,-0.79241675,-1.3852887,5.2065635
666,0.055684756,-0.79781413,-1.5030462,5.14604
667,0.053315986,-0.7962777,-1.5025507,5.1468444
668,0.05456394,-0.7957098,-1.5026083,5.147817
669,0.054215103,-0.79606265,-1.5027395,5.147527
670,0.054433774,-0.79650736,-1.5024501,5.147938
671,0.05507956,-0.79567367,-1.5022675,5.147345
672,0.055318903,-0.7946835,-1.5017114,5.148104
673,0.054233026,-0.7941964,-1.5001875,5.148373
674,0.053733338,-0.79453224,-1.4999439,5.148167
675,0.055552553,-0.7947964,-1.4997653,5.1481895
676,0.054625582,-0.7948132,-1.4987687,5.148351
677,0.05469085,-0.79383564,-1.4983515,5.147583
678,0.09825769,-0.7868939,-1.3843594,5.206512
679,0.106444605,-0.7851708,-1.358239,5.2144904
680,0.11389872,-0.7865085,-1.3492364,5.2174563
681,0.118649475,-0.78053063,-1.3436533,5.222899
682,0.1240077,-0.7736483,-1.3407468,5.2285256
683,0.12605636,-0.77190894,-1.3418431,5.2319665
684,0.124607086,-0.7718583,-1.3423766,5.232117
685,0.121622406,-0.77498204,-1.3442096,5.230783
686,0.1165998,-0.78323954,-1.3473552,5.226829
687,0.10788411,-0.78706527,-1.3544383,5.2217216
688,0.100701295,-0.7852712,-1.3643495,5.218694
689,0.09279033,-0.7891701,-1.3928663,5.2117734
690,0.050120454,-0.79408556,-1.5044745,5.1525016
691,0.050220508,-0.792983,-1.5027151,5.152573
692,0.048311006,-0.7938362,-1.5018984,5.153425
693,0.050418366,-0.79351956,-1.5027281,5.1533165
694,0.04941703,-0.7929354,-1.5010991,5.153021
695,0.050569873,-0.7933132,-1.5025781,5.1538258
696,0.050680984,-0.7922633,-1.5016998,5.1530967
697,0.04988565,-0.791951,-1.5010982,5.1533933
698,0.050575603,-0.7914059,-1.5009102,5.1540675
699,0.050400984,-0.7913229,-1.5000211,5.153664
700,0.0495857,-0.7906124,-1.4996051,5.153708
701,0.05003045,-0.7912136,-1.4999584,5.154122
702,0.08930489,-0.7844517,-1.3895596,5.212069
703,0.09571711,-0.7834618,-1.3615547,5.2230506
704,0.10141639,-0.7836263,-1.3518705,5.227125
705,0.10531396,-0.781563,-1.3461508,5.2353196
706,0.11051191,-0.7747559,-1.3450707,5.2405705
707,0.11165818,-0.77203006,-1.3458624,5.243053
708,0.110525645,-0.7723252,-1.3458575,5.2433224
709,0.10881162,-0.7767737,-1.3474764,5.2429924
710,0.10360509,-0.7824176,-1.3505464,5.2382054
711,0.09470257,-0.7834285,-1.3588022,5.232542
712,0.09010196,-0.7838289,-1.3690013,5.2279563
713,0.085617535,-0.7849243,-1.3960105,5.2152824
714,0.04546058,-0.78816986,-1.505353,5.1596065
715,0.044421703,-0.787792,-1.5044159,5.1597495
716,0.045289416,-0.7863985,-1.5039424,5.158938
717,0.04599881,-0.78687793,-1.5039591,5.16082
718,0.045690965,-0.78691953,-1.5040965,5.159455
719,0.044490594,-0.786413,-1.5032965,5.1602645
720,0.04423216,-0.7870651,-1.5031077,5.1597667
721,0.04467682,-0.78685683,-1.5028952,5.1600633
722,0.045266997,-0.78513,-1.5022336,5.1598296
723,0.04531907,-0.78442603,-1.501952,5.159391
724,0.044591647,-0.7844376,-1.5010339,5.1592584
725,0.043869585,-0.78436285,-1.500701,5.160511
726,0.083146565,-0.78272676,-1.3920302,5.2173615
727,0.08841903,-0.77991897,-1.3661608,5.229664
728,0.092904575,-0.78062886,-1.356256,5.2351937
729,0.09927308,-0.77913284,-1.3494049,5.242855
730,0.10288045,-0.7754042,-1.3477293,5.2489796
731,0.10559508,-0.77224165,-1.3490272,5.252435
732,0.10375264,-0.773961,-1.3497857,5.253448
733,0.10054195,-0.77730876,-1.3500156,5.251708
734,0.096366756,-0.77990055,-1.3550358,5.247227
735,0.08852896,-0.78121996,-1.3629494,5.2389164
736,0.08320088,-0.7802966,-1.3731843,5.2359433
737,0.076916,-0.78342503,-1.4010998,5.220402
738,0.04120807,-0.78074694,-1.5068232,5.165865
739,0.039889216,-0.7807882,-1.5058054,5.1663213
740,0.03965804,-0.77981687,-1.5054954,5.165928
741,0.35631514,-0.98421067,-1.3128425,5.273244
742,0.41805568,-1.0061531,-1.4705611,4.8006983
743,-0.034146845,-1.0212966,-1.8956741,5.124822
744,0.06720675,-1.0994034,-1.9308523,5.013175
745,-0.22538279,-0.5261014,-1.3041046,5.10883
746,-0.12431771,-0.74928474,-1.3160516,5.1074295
747,0.02981183,-0.80256695,-1.5307726,5.0919423
748,0.03850771,-0.77823716,-1.4908336,5.1416345
749,0.043067086,-0.7689541,-1.476336,5.161098
750,0.08544352,-0.76988393,-1.3645018,5.2189307
751,0.09132701,-0.7666244,-1.3352265,5.236407
752,0.024306824,-0.49193394,-1.009828,5.5285497
753,0.09106561,-0.40845272,-1.2531934,5.3190017
754,0.11408415,-0.7622892,-1.3191588,5.2565827
755,0.14132658,-0.57022595,-1.0419356,5.609634
756,0.16196229,-0.45745036,-1.2407793,5.4202633
757,0.11271095,-0.767543,-1.3239523,5.2589774
758,0.10555294,-0.7640126,-1.3230162,5.255396
759,0.097324125,-0.7656087,-1.3297688,5.249035
760,0.020505091,-0.39526144,-0.9711285,5.3929915
761,0.057883453,-0.647485,-1.1630243,5.5260997
762,0.28887713,-0.365235,-1.3545117,5.2006106
763,0.2897367,-0.8079083,-1.5066856,5.2250805
764,0.040214796,-0.754679,-1.4691958,5.173611
765,0.040603887,-0.7524254,-1.4688431,5.1743226
766,0.040433902,-0.75181454,-1.4684108,5.1749096
767,0.040305693,-0.7516354,-1.4685103,5.174955
768,0.040378302,-0.75145406,-1.4673945,5.174886
769,0.03973471,-0.75168437,-1.4651881,5.173811
770,0.039292473,-0.75199556,-1.4644333,5.173043
771,0.039559484,-0.751492,-1.4645733,5.173742
772,0.039939653,-0.75126535,-1.4647411,5.1745033
773,0.039360147,-0.74984217,-1.465458,5.1765
774,0.07558799,-0.76083165,-1.3636613,5.2284646
775,0.08163161,-0.7588095,-1.3371009,5.2476983
776,0.08640399,-0.75759846,-1.3269573,5.253086
777,0.0958921,-0.7557462,-1.3213087,5.260705
778,0.09801137,-0.75360805,-1.317888,5.2674103
779,0.100568034,-0.75408584,-1.3173237,5.270265
780,0.09917135,-0.75508195,-1.3180823,5.2726064
781,0.097768344,-0.7546335,-1.3211719,5.2700706
782,0.0904525,-0.7568197,-1.3245562,5.265978
783,0.08183202,-0.75829643,-1.3331507,5.258985
784,0.07700657,-0.7584844,-1.3431902,5.2532153
785,0.07081741,-0.75920534,-1.3670627,5.2351837
786,0.03575344,-0.74203247,-1.4664806,5.1806464
787,0.035382777,-0.7420847,-1.4662639,5.180393
788,0.03463477,-0.7418962,-1.466641,5.182903
789,0.033474445,-0.74128896,-1.4659876,5.182303
790,0.03360192,-0.7419155,-1.4648747,5.1810756
791,0.034748644,-0.7412326,-1.4644681,5.181129
792,0.03467852,-0.7398019,-1.4637156,5.1809793
793,0.03474341,-0.7393782,-1.4637192,5.181614
794,0.03502639,-0.73846436,-1.4629598,5.1801915
795,0.034528244,-0.73872846,-1.4630908,5.1817174
796,0.034097243,-0.73813224,-1.463682,5.1832294
797,0.034133416,-0.73734933,-1.4633867,5.1835575
798,0.07221714,-0.7565739,-1.3674073,5.232063
799,0.07885286,-0.754533,-1.3462456,5.250708
800,0.083463766,-0.7546002,-1.33497,5.2581315
801,0.20468466,-0.77347016,-1.3149029,5.356646
802,0.09568437,-0.7528587,-1.3216184,5.269367
803,0.09866173,-0.7513849,-1.318169,5.272972
804,0.047818888,-0.20402049,-1.0759202,5.304151
805,0.09453254,-0.7517919,-1.3210214,5.2736754
806,0.08782386,-0.7525571,-1.3262869,5.268415
807,0.07896247,-0.7537742,-1.3374368,5.262236
808,0.07377392,-0.75271064,-1.3507808,5.2553935
809,0.065806836,-0.7526992,-1.3720342,5.2378807
810,0.03015683,-0.7299951,-1.4643388,5.1861415
811,0.028229991,-0.72967166,-1.4626182,5.187681
812,0.18340044,-0.76680595,-1.5249715,5.2337613
813,0.029743433,-0.72925997,-1.4624988,5.187532
814,0.029850254,-0.7291315,-1.4628822,5.1867924
815,0.029268384,-0.7278454,-1.4626347,5.187638
816,0.029156199,-0.72876054,-1.4606966,5.1865706
817,0.028410723,-0.7286253,-1.4609915,5.186321
818,0.02913192,-0.72766304,-1.4604837,5.1881638
819,0.027937135,-0.72742325,-1.4601992,5.1878033
820,0.02950566,-0.72759265,-1.4595685,5.187762
821,0.028187582,-0.7265065,-1.4583187,5.188147
822,0.06594246,-0.7490662,-1.3656474,5.238827
823,0.07249033,-0.75016683,-1.3412217,5.259222
824,0.079655685,-0.7491047,-1.3286344,5.2663713
825,0.08626136,-0.7475817,-1.3181492,5.2751503
826,0.09192592,-0.7459869,-1.3125297,5.280436
827,0.09564885,-0.7434724,-1.3121456,5.2840486
828,0.09299999,-0.7415003,-1.3099955,5.285456
829,0.08951193,-0.74370784,-1.3130114,5.282643
830,0.08305228,-0.74765295,-1.3173162,5.277745
831,0.074592225,-0.74922365,-1.3289262,5.2718873
832,0.06866785,-0.74922556,-1.3430938,5.264214
833,0.05952363,-0.74560386,-1.3671279,5.245953
834,0.023722857,-0.72130966,-1.4594833,5.192284
835,0.022835454,-0.72051305,-1.4592422,5.191757
836,0.022086242,-0.72023433,-1.458663,5.192471
837,0.022544602,-0.7189276,-1.4584546,5.1924443
838,0.0230259,-0.7181754,-1.457806,5.1931157
839,0.023898503,-0.71756667,-1.45779,5.193746
840,0.022366574,-0.71697944,-1.4580489,5.194554
841,0.02261577,-0.7170784,-1.4572803,5.194216
842,0.022625268,-0.71716577,-1.4576178,5.194266
843,0.022640476,-0.7159219,-1.4565754,5.194797
844,0.023305187,-0.7153721,-1.455832,5.1950836
845,0.023008019,-0.71481544,-1.455773,5.195146
846,0.060797762,-0.7430935,-1.356186,5.2509675
847,0.069114365,-0.74562126,-1.3287829,5.2755165
848,0.076449506,-0.74387044,-1.315768,5.281223
849,0.085285574,-0.73800105,-1.3064861,5.29112
850,0.090042986,-0.73330384,-1.3044969,5.2973466
851,0.091565154,-0.7297992,-1.303125,5.2999835
852,0.09111919,-0.7288947,-1.3040556,5.300325
853,0.08829456,-0.73229104,-1.3051455,5.2994766
854,0.080678254,-0.7363847,-1.3080559,5.2952538
855,0.07155311,-0.7442108,-1.317864,5.288162
856,0.063420594,-0.7459809,-1.3317012,5.2807465
857,0.052348983,-0.7407723,-1.3583182,5.25722
858,0.016027113,-0.7088179,-1.4592983,5.199621
859,0.015054573,-0.708636,-1.4579719,5.200105
860,0.01510036,-0.70822096,-1.4582682,5.199346
861,0.015566955,-0.70836467,-1.457616,5.2002745
862,0.015727958,-0.7075624,-1.4565836,5.2005477
863,0.015631149,-0.7071646,-1.4559973,5.20083
864,0.015972137,-0.7075141,-1.4554076,5.1996155
865,0.015576105,-0.7076397,-1.4538378,5.1995277
866,0.014573176,-0.70710164,-1.4550384,5.201113
867,0.016167054,-0.70671463,-1.4549061,5.201042
868,0.016486555,-0.7063437,-1.4549761,5.2007136
869,0.01636686,-0.7054224,-1.4541146,5.1999855
870,0.04927187,-0.73843235,-1.3515749,5.2607894
871,0.059042007,-0.7433242,-1.3228339,5.2864003
872,0.06552229,-0.73869133,-1.3101717,5.294788
873,0.07333135,-0.7292301,-1.3014883,5.304294
874,0.07813021,-0.72317404,-1.2993766,5.311624
875,0.07909607,-0.7202165,-1.2979467,5.313359
876,0.077122055,-0.72075874,-1.2982928,5.3151145
877,0.074264824,-0.7221716,-1.300625,5.3142295
878,0.069690116,-0.7288442,-1.3020183,5.3082614
879,0.060039144,-0.7366714,-1.3129014,5.3010597
880,0.05263239,-0.741427,-1.3260943,5.290683
881,0.043088973,-0.7351096,-1.354937,5.2694817
882,0.008839011,-0.6990648,-1.45864,5.208366
883,0.008606702,-0.69837284,-1.4587771,5.207691
884,0.008220593,-0.69914097,-1.4569219,5.207415
885,0.006880035,-0.69879323,-1.4558381,5.207787
886,0.007938574,-0.6971111,-1.4562689,5.2079196
887,0.007673621,-0.6972144,-1.4564934,5.2083
888,0.007497301,-0.6968308,-1.4556478,5.2090764
889,0.008467913,-0.69664973,-1.4554416,5.2080417
890,0.0084819,-0.6966401,-1.454661,5.209389
891,0.008791198,-0.69593,-1.4543654,5.208342
892,0.0073705115,-0.6954541,-1.4538503,5.210035
893,0.007244865,-0.6955614,-1.4537082,5.2093787
894,0.042363036,-0.7313857,-1.3482099,5.2691674
895,0.052810144,-0.7363402,-1.3196906,5.293736
896,0.060246944,-0.7325797,-1.3056471,5.303556
897,0.0682286,-0.72303385,-1.2961946,5.312812
898,0.072607465,-0.71540207,-1.2935799,5.3198676
899,0.07192001,-0.71276003,-1.2928672,5.3241067
900,0.07184655,-0.7136745,-1.2920531,5.3237844
901,0.068246074,-0.715688,-1.2949389,5.3228106
902,0.06358985,-0.72168064,-1.2977704,5.318353
903,0.05266996,-0.7300064,-1.3075839,5.3101773
904,0.04707859,-0.73199075,-1.3241854,5.3002076
905,0.035251606,-0.7278163,-1.3517321,5.2760158
906,-0.0007340312,-0.6901948,-1.4565557,5.216755
907,-0.0016924044,-0.6896641,-1.4568992,5.216501
908,-0.0010035038,-0.68927807,-1.4552283,5.2159843
909,-9.606282e-06,-0.6885511,-1.4556332,5.216019
910,0.0009844104,-0.68879825,-1.4562265,5.2166786
911,-0.001354446,-0.68943006,-1.4558854,5.2174573
912,-0.0012374818,-0.68873805,-1.4549221,5.2172503
913,0.0006019771,-0.68834466,-1.4544054,5.2176375
914,0.0006786585,-0.68816215,-1.453825,5.21632
915,6.750226e-05,-0.68708247,-1.4538727,5.2165804
916,-0.0015313824,-0.6872716,-1.4532495,5.21764
917,-0.0011176765,-0.6862739,-1.452096,5.217903
918,0.026444575,-0.72224873,-1.3516297,5.2748237
919,0.034537394,-0.7282917,-1.3270048,5.296434
920,0.03716441,-0.72731113,-1.3145012,5.3110905
921,0.043023724,-0.7217192,-1.3019632,5.3195515
922,0.047041297,-0.71860814,-1.2961177,5.3257546
923,0.048336457,-0.71701604,-1.2935909,5.3291173
924,0.047340542,-0.71514755,-1.2946577,5.3304615
925,0.0443815,-0.71631974,-1.2961932,5.3275304
926,0.039097577,-0.7206997,-1.3033038,5.3230305
927,0.033726454,-0.7255726,-1.3166298,5.313399
928,0.029027373,-0.7265422,-1.331675,5.301213
929,0.020031393,-0.7204664,-1.3541948,5.279274
930,-0.007386863,-0.6842365,-1.4517822,5.2231383
931,-0.0064785182,-0.68267435,-1.4520684,5.223238
932,-0.006963432,-0.68247813,-1.4511491,5.2233453
933,-0.00611645,-0.68257505,-1.4513489,5.2235007
934,-0.006844779,-0.68214065,-1.4513639,5.2223325
935,-0.0077031055,-0.6823471,-1.449779,5.2228823
936,-0.0079914825,-0.68228555,-1.4502398,5.2238793
937,-0.00750944,-0.68180394,-1.4503832,5.223498
938,-0.008539637,-0.68127584,-1.449205,5.223617
939,-0.007509768,-0.68059,-1.4483032,5.2241445
940,-0.008262684,-0.68023473,-1.4476867,5.222957
941,-0.008145143,-0.68010825,-1.4469165,5.2240577
942,0.015703857,-0.7154281,-1.3515421,5.2785535
943,0.021975756,-0.7212188,-1.3297604,5.300953
944,0.025509953,-0.72047424,-1.3169327,5.313502
945,0.028229931,-0.7158175,-1.3030716,5.325805
946,0.031091234,-0.7109716,-1.2967582,5.332094
947,0.033248533,-0.7085855,-1.2931844,5.3353825
948,0.03205669,-0.70710844,-1.2942991,5.335972
949,0.02936536,-0.7104127,-1.2976485,5.332863
950,0.024980724,-0.7131831,-1.305895,5.3286204
951,0.021084538,-0.71795195,-1.3189737,5.316732
952,0.016930291,-0.72084635,-1.3319016,5.304231
953,0.010755648,-0.7132337,-1.353942,5.2831388
954,-0.013635199,-0.6768279,-1.4473572,5.2296886
955,-0.0139146745,-0.67597455,-1.447518,5.2298317
956,-0.013596903,-0.676325,-1.447045,5.229492
957,-0.013223012,-0.6759204,-1.4474596,5.2295175
958,-0.013478766,-0.6747553,-1.4454447,5.22889
959,-0.01303942,-0.67380685,-1.4459084,5.229629
960,-0.013061841,-0.6739767,-1.4440273,5.229337
961,-0.014339973,-0.6739395,-1.444253,5.2305026
962,-0.013995658,-0.6735153,-1.4436146,5.2308936
963,-0.015074412,-0.6734524,-1.4432904,5.2317467
964,-0.01487574,-0.6745747,-1.4430685,5.231855
965,-0.0140009625,-0.6734133,-1.4422518,5.230551
966,0.008341451,-0.7080013,-1.3508357,5.281727
967,0.1362377,-0.7955029,-1.3852593,5.35738
968,0.1747982,-0.86752605,-1.4118176,5.3183136
969,0.02204757,-0.7084131,-1.3062333,5.3271365
970,0.022539943,-0.70399904,-1.2984195,5.334938
971,0.024502566,-0.70246524,-1.294066,5.337215
972,0.02438726,-0.70232743,-1.2950395,5.3390045
973,0.0888181,-0.8155486,-0.8598214,5.489649
974,0.01948288,-0.7063808,-1.3094977,5.328711
975,0.015265524,-0.7105288,-1.3212258,5.3169956
976,0.011201024,-0.7134874,-1.3322891,5.3047957
977,-0.036524612,-0.15850168,-1.1279544,5.311306
978,-0.04752928,-0.14230996,-1.237,5.2622585
979,-0.019809356,-0.66901326,-1.439911,5.236021
980,-0.04261251,-0.3492858,-1.3946697,5.4761677
981,-0.35612106,-0.85965186,-1.2315542,5.7449265
982,-0.05320394,-0.16153964,-1.2395238,5.2487664
983,-0.03815217,-0.16289496,-1.252178,5.2464237
984,-0.015255352,-0.66144437,-1.4356042,5.2328453
985,-0.014486134,-0.6543487,-1.4307266,5.235666
986,-0.016475976,-0.65189797,-1.429382,5.2385445
987,-0.01602756,-0.65079194,-1.4288534,5.2393684
988,-0.015486707,-0.6506508,-1.4274927,5.2389603
989,-0.015430719,-0.65054154,-1.4263161,5.2387524
990,0.008657187,-0.69154185,-1.3390914,5.28928
991,0.008683026,-0.7380147,-1.4094229,5.3728566
992,0.028225183,-0.7045364,-1.4231516,5.3331065
993,0.023889044,-0.68773144,-1.2917525,5.331936
994,0.028271526,-0.68238527,-1.2819551,5.341576
995,0.03182279,-0.71595484,-1.3386668,5.416689
996,0.023887554,-0.30676076,-0.97748256,5.489679
997,0.025283933,-0.68239546,-1.2808653,5.34029
998,0.1470871,-0.7844344,-1.145243,5.6378245
999,0.17249338,-0.9222271,-1.3158253,5.5079694
1000,0.012735884,-0.6947959,-1.3199466,5.3129525
1001,0.0027993917,-0.68975806,-1.3395863,5.293501
1002,-0.01983752,-0.6472981,-1.4234053,5.24311
1003,-0.019952675,-0.64597845,-1.422203,5.243019
1004,-0.020567188,-0.6463327,-1.4211909,5.243855
1005,-0.021243026,-0.6463347,-1.421712,5.244261
1006,-0.021749645,-0.6462746,-1.4213072,5.2440476
1007,-0.099731885,-0.580151,-1.132281,5.5916705
1008,0.32376972,-0.8627878,-1.6231017,5.350435
1009,0.36294076,-0.7972463,-1.7959223,5.169489
1010,0.3388987,-0.9268647,-1.6975431,5.159019
1011,0.33462468,-0.87533027,-1.8271853,5.0409064
1012,0.33435878,-1.1542048,-1.6906323,4.957529
1013,0.3304483,-1.0543239,-1.6308794,5.0913587
1014,0.3190203,-0.80500144,-1.3962039,5.286403
1015,0.41029346,-1.0796788,-1.7947102,5.2286296
1016,0.5490722,-0.95895505,-1.7141043,4.9984403
1017,0.37024996,-1.0313001,-1.570055,4.9508977
1018,0.44897857,-1.1352643,-1.9322904,5.187498
1019,0.40649238,-1.2171578,-2.8885806,5.248323
1020,0.5228064,-1.0725178,-2.7602634,4.8575864
1021,0.19545132,-1.0248584,-2.9911625,5.41045
1022,-0.06494113,-1.1235918,-8.408532,4.844806
1023,0.23367245,-1.7832757,-15.934868,-1.0605
1024,-0.79275304,-2.5388281,-7.143822,-1.3545376
1025,-0.8611107,-2.86669,-8.267165,-1.3551837
1026,-0.23819892,-4.0566707,-14.27896,-5.495088
1027,-0.99055594,-5.2762656,-17.79069,-8.487491
1028,-3.274523,-7.5002403,-13.372772,-12.508636
1029,-3.2385266,-7.776922,-9.365404,-10.718064
1030,-2.5207565,-9.107961,-9.659604,-15.57591
1031,-2.2306912,-8.915275,-12.175096,-16.685625
1032,-3.179779,-8.85855,-14.372093,-20.81133
1033,-1.9787717,-11.286653,-6.026463,-19.520073
1034,-0.22409599,-10.703155,11.337861,-3.6527283
1035,-0.22049646,-8.190675,-4.282452,-14.915073
1036,0.12512441,-4.8801875,-4.3828645,-4.585545
1037,-0.010881543,-3.344058,-4.369645,0.03576364
1038,-0.032898754,-2.1350467,-3.203694,2.2982461
1039,-0.04745691,-1.7153741,-2.681032,3.0514715
1040,-0.05027014,-1.5588115,-2.4712036,3.320753
1041,0.022857765,-1.4369172,-2.306248,3.476291
1042,0.049022853,-1.0553211,-2.3939931,3.558471
1043,0.127141,-1.15802,-2.1544883,3.7692661
1044,0.062302638,-1.3534456,-2.2248213,3.6477578
1045,0.10594249,-1.0888871,-2.0166013,3.7854774
1046,-0.0073407986,-1.2225479,-2.004729,3.777919
1047,0.1139896,-1.2553154,-2.3657825,3.8823335
1048,0.6876276,-3.2090042,-6.7414174,-0.646156
1049,0.39426804,-6.2402472,-2.645885,-6.6886907
1050,-1.974349,-4.732073,-7.5432506,-1.7841524
1051,-3.5167415,-7.9084916,-10.045643,-5.4807453
1052,-1.9978218,-10.111057,-12.178178,-22.29806
1053,-1.3746208,-6.317171,-3.6458454,-9.928669
1054,-0.5584718,-4.7179017,-4.3551936,-4.6931024
1055,-0.21471113,-3.0722873,-4.278613,-0.0016907454
1056,-0.089060895,-2.194791,-3.3969152,1.9582443
1057,-0.050346106,-1.8319454,-2.9086382,2.64995
1058,-0.03850363,-1.7019821,-2.7223034,2.8805668
1059,0.004755596,-1.5651928,-2.4835272,3.048088
1060,-0.0288874,-1.6256446,-2.619243,2.9937487
1061,-0.024807056,-1.5974556,-2.5820715,3.0386846
1062,-0.024350801,-1.5523211,-2.5163946,3.0783072
1063,-0.025106719,-1.5146799,-2.4659257,3.118251
1064,0.061204184,-1.6068382,-2.479066,3.004075
1065,0.026358694,-1.564929,-2.4315968,3.0729008
1066,-0.018742243,-1.4160334,-2.3560998,3.237976
1067,-0.017312279,-1.3893007,-2.3259497,3.274264
1068,-0.0149719715,-1.3657445,-2.2984195,3.3088639
1069,-0.010045965,-1.3488809,-2.275885,3.3389065
1070,-0.005272051,-1.3347389,-2.25974,3.365668
1071,-0.0035589237,-1.3269557,-2.2488265,3.3863342
1072,-0.0013402998,-1.3211875,-2.2428818,3.4019973
1073,0.004163017,-1.3203468,-2.252897,3.4169033
1074,0.007850607,-1.3144786,-2.290664,3.413068
1075,0.010370423,-1.3047794,-2.281361,3.4254868
1076,0.014878482,-1.2967546,-2.2707698,3.4360049
1077,0.017203122,-1.2870289,-2.2632644,3.4456997
1078,0.020140449,-1.2789373,-2.253804,3.4549007
1079,0.022617927,-1.2709246,-2.246173,3.4640396
1080,0.025710294,-1.2620354,-2.2381027,3.4720962
1081,0.02886968,-1.2557987,-2.2307308,3.480601
1082,0.031377673,-1.2484779,-2.224057,3.487304
1083,0.03340763,-1.2409872,-2.2171223,3.4960442
1084,0.03610277,-1.234924,-2.2115965,3.5033512
1085,0.038843434,-1.2281141,-2.2049406,3.510125
1086,0.038725663,-1.219194,-2.1410406,3.5472467
1087,0.040177006,-1.1985,-2.1080363,3.5637352
1088,0.045821458,-1.1820871,-2.086411,3.583004
1089,0.04881685,-1.1638287,-2.0645428,3.6014836
1090,0.05014916,-1.146509,-2.0471222,3.6221168
1091,0.052539557,-1.1327577,-2.0309465,3.6395772
1092,0.14420094,-0.8695466,-1.7145025,3.9028428
1093,0.37475404,-1.1721387,-2.277427,3.4189289
1094,0.38790694,-1.1710855,-2.281017,3.6637642
1095,0.39985207,-1.457317,-2.5593252,2.9946034
1096,0.5298621,-2.0607316,-3.4470081,2.127064
1097,0.4394879,-3.4682324,-5.9247108,1.0740238
1098,1.0712966,-7.3951035,-11.568558,-5.3326592
1099,1.3778133,-7.864055,-14.148704,-11.345122
1100,0.89762163,-6.8480697,-15.037227,-11.717999
1101,0.087723665,-4.9876456,-7.0286164,-6.3923492
1102,-0.28358996,-2.0010588,-3.7742841,-7.0727253
1103,0.019500973,-0.102033295,6.205557,-3.455827
1104,-0.25870165,0.2519258,5.352094,1.5895548
1105,0.1667702,-4.284885,5.599838,-11.5010605
1106,-0.2607741,-2.0549805,4.444114,-7.0421796
1107,-0.29516563,1.7579213,5.2279572,5.8748755
1108,-0.6333584,1.9133381,6.594347,-0.050413847
1109,-0.28683567,2.2306328,7.429619,0.7461152
1110,-0.27637792,-0.5204074,13.789901,-3.5752304
1111,-0.14838971,9.24558,24.589981,10.663254
1112,-0.31811795,12.220554,31.933731,26.09092
1113,-0.13310716,8.454639,18.60624,11.97689
1114,-0.116576694,8.886441,23.693975,16.22499
1115,0.20988667,5.0984573,17.563244,8.137456
1116,0.0512758,6.694987,15.397915,9.770563
1117,-0.03442924,7.441994,15.832878,9.7836685
1118,-0.14698268,11.3491745,21.484114,12.791545
1119,-0.1888498,12.469546,23.44002,14.641767
1120,-0.3018591,11.401787,22.108503,13.480433
1121,-0.4151137,11.975596,22.313889,15.163724
1122,-0.65406144,12.470169,24.07923,15.909958
1123,-0.78078777,13.115605,25.390335,18.033781
1124,-0.52734953,10.834996,25.590124,12.001641
1125,-0.64774776,11.405324,30.07289,21.911423
1126,-0.8895169,9.511121,29.351753,22.121943
1127,-0.19014925,7.2370467,20.794962,4.8363585
1128,-0.35210976,10.475605,24.408041,13.343246
1129,-0.18299949,23.22322,51.29822,54.265553
1130,0.06491065,10.441028,22.366646,11.353828
1131,-0.53984845,17.814184,47.577137,41.463078
1132,-0.6971858,-8.836093,61.19098,-1.2898108
1133,-0.48314276,-18.02083,19.98829,12.22815
1134,0.5319538,-23.09201,-9.460674,-42.83581
1135,0.58973813,-5.6137824,3.0672646,-18.86959
1136,0.87499326,-1.3125765,7.0076413,-11.872708
1137,1.1469024,-2.560319,5.763432,-13.03177
1138,1.2910436,-2.9706376,3.7370842,-16.21299
1139,1.2968515,-2.2368913,5.65436,-13.986012
1140,0.98490864,-5.8862357,3.1859837,-18.722807
1141,0.9912022,-5.895579,3.2528656,-18.723385
1142,0.96813995,-5.9697723,3.2365987,-18.899792
1143,0.94227093,-6.094564,3.185648,-19.177832
1144,0.9249266,-6.2076755,3.1430194,-19.486404
1145,0.9047718,-6.3672805,3.029452,-19.935709
1146,0.8509577,-6.3453064,3.369751,-20.440033
1147,0.8377915,-6.416453,3.3015835,-20.37104
1148,0.64517885,-6.841661,3.5749938,-21.162832
1149,0.6665511,-5.909368,5.34588,-19.267378
1150,0.64752966,-5.6690063,8.56152,-15.947133
1151,0.8163374,-7.465468,4.4735637,-19.950773
1152,0.7994177,-5.648941,6.619257,-17.089699
1153,0.59909064,-6.047394,6.082777,-17.716131
1154,-0.010816296,-4.9428678,6.7225685,-15.628426
1155,0.32104424,-5.8732038,4.731752,-18.283857
1156,0.5684366,-4.7179475,5.959864,-15.56091
1157,0.6033945,-7.669617,2.1334136,-20.354662
1158,0.68120617,-7.089336,2.364211,-19.244623
1159,0.6902955,-6.7225513,2.6757574,-18.589136
1160,0.686172,-6.545776,2.817042,-18.205698
1161,0.6834528,-6.3808513,2.9482162,-17.838274
1162,0.67385817,-6.2442036,3.0537574,-17.520245
1163,0.6663065,-6.1392555,3.1150959,-17.269276
1164,0.6584819,-6.060389,3.146199,-17.081324
1165,0.64265925,-6.026449,3.1170814,-16.966352
1166,0.6246553,-6.032318,3.007223,-16.935768
1167,0.6023154,-6.0582643,2.860284,-16.953594
1168,0.57148284,-6.103241,2.6898973,-16.987219
1169,0.524024,-6.232968,2.403726,-17.166702
1170,0.36815557,-6.3654804,2.4092367,-17.48672
1171,0.34613076,-6.344793,2.316501,-17.350504
1172,0.33329168,-6.3270774,2.2280073,-17.212742
1173,0.31874952,-6.307934,2.1426475,-17.073595
1174,0.30546114,-6.2908845,2.054416,-16.937338
1175,0.29463908,-6.2680564,1.9746579,-16.800753
1176,0.28409415,-6.244701,1.8941078,-16.666204
1177,0.27628842,-6.222194,1.8317007,-16.522844
1178,0.2675983,-6.2002883,1.7670809,-16.380047
1179,0.25968465,-6.1808662,1.703216,-16.23871
1180,0.2518595,-6.1609244,1.6516248,-16.099588
1181,0.2465225,-6.1402164,1.5956888,-15.961402
1182,0.3636187,-5.8692155,1.4741019,-15.4227495
1183,0.40139166,-5.6761665,1.57767,-15.053043
1184,0.42135727,-5.571038,1.5743192,-14.807274
1185,0.16414446,-6.013037,0.47157523,-15.518262
1186,0.25739872,-5.878443,1.4646345,-14.595752
1187,0.27142164,-6.081795,0.94563484,-14.979344
1188,-0.08704694,-6.0438867,0.74968696,-14.975552
1189,0.2918794,-5.678247,0.6194148,-14.471114
1190,0.49346352,-5.1688247,1.2844623,-13.67702
1191,0.5200197,-4.2612934,3.2757003,-12.20836
1192,0.40910614,-5.4040313,0.866594,-14.006593
1193,0.3702558,-5.5418363,0.71049356,-14.083534
1194,0.2257468,-5.808231,0.7455775,-14.348885
1195,0.22222485,-5.783324,0.69425005,-14.23375
1196,0.22329871,-5.7558465,0.6462552,-14.121886
1197,0.22207059,-5.7312813,0.60060024,-14.015428
1198,0.22279222,-5.705755,0.5497812,-13.91002
1199,0.22537209,-5.681811,0.49788132,-13.808721
1200,0.22468524,-5.6546326,0.4547414,-13.70045
1201,0.22854255,-5.629911,0.40904984,-13.598786
1202,0.23005438,-5.603952,0.36258945,-13.489516
1203,0.22896405,-5.5769153,0.32457045,-13.378623
1204,0.2330058,-5.5512786,0.2834555,-13.273442
1205,0.23387282,-5.527439,0.24117859,-13.165179
1206,0.357486,-5.2862625,0.1257395,-12.743053
1207,0.40753624,-5.1359024,0.081698775,-12.479028
1208,0.43414068,-5.0578637,0.03848001,-12.301014
1209,0.45401946,-4.9845653,-0.01855064,-12.129536
1210,0.46097967,-4.9231906,-0.070654415,-11.980121
1211,0.46981606,-4.8842587,-0.123825096,-11.863463
1212,0.46863198,-4.861372,-0.17897522,-11.771686
1213,0.46611023,-4.854588,-0.22972453,-11.700633
1214,0.45791802,-4.864672,-0.2729605,-11.660377
1215,0.44540694,-4.8902607,-0.31342453,-11.636872
1216,0.431669,-4.923319,-0.36743298,-11.626809
1217,0.4070921,-5.0096064,-0.38684186,-11.67677
1218,0.29695192,-5.261116,-0.48914194,-11.916867
1219,0.304628,-5.2414546,-0.5375038,-11.834233
1220,0.3078762,-5.2258906,-0.5819393,-11.753932
1221,0.31200144,-5.2118545,-0.6296751,-11.678889
1222,0.32140005,-5.196739,-0.6731847,-11.5985155
1223,0.33061674,-5.1873846,-0.71907425,-11.526775
1224,0.33920172,-5.1794453,-0.7658259,-11.4548
1225,0.3468642,-5.167795,-0.8105801,-11.3812
1226,0.350651,-5.1557717,-0.85515875,-11.310367
1227,0.35904053,-5.146765,-0.8985719,-11.236865
1228,0.3650109,-5.1335235,-0.94121057,-11.167567
1229,0.37040624,-5.120959,-0.9830852,-11.095435
1230,0.46994576,-4.8418202,-0.8337346,-10.670864
1231,0.48952723,-4.753225,-0.8907714,-10.486366
1232,0.49753872,-4.6914024,-0.93054456,-10.341653
1233,0.5033388,-4.6268554,-0.94865257,-10.1890955
1234,0.5102596,-4.572965,-0.97139007,-10.051303
1235,0.51532125,-4.5323625,-0.9859292,-9.928357
1236,0.52175945,-4.510348,-1.006608,-9.839328
1237,0.5302467,-4.501464,-1.0234473,-9.776511
1238,0.5328407,-4.509589,-1.0543178,-9.741969
1239,0.5369176,-4.5314183,-1.0982122,-9.741359
1240,0.5392901,-4.556265,-1.1355491,-9.744831
1241,0.5368864,-4.614655,-1.1987828,-9.822207
1242,0.46082985,-4.834313,-1.4698902,-10.111075
1243,0.4646426,-4.8099904,-1.4951496,-10.036862
1244,0.4685301,-4.785391,-1.5116574,-9.962087
1245,0.47629616,-4.760683,-1.5323967,-9.887556
1246,0.4791049,-4.735963,-1.548305,-9.812863
1247,0.48737073,-4.712518,-1.5668939,-9.741797
1248,0.49000183,-4.6869793,-1.589377,-9.669971
1249,0.4963573,-4.663708,-1.6044117,-9.592855
1250,0.50210714,-4.6383147,-1.6210364,-9.516881
1251,0.5063209,-4.6158094,-1.629664,-9.440182
1252,0.5120732,-4.587581,-1.6413985,-9.360913
1253,0.51675725,-4.561696,-1.6505389,-9.280312
1254,0.588334,-4.2812467,-1.2443032,-8.711068
1255,0.60181856,-4.1657643,-1.1642108,-8.414657
1256,0.606319,-4.090306,-1.1274853,-8.208888
1257,0.6084345,-4.013617,-1.1178186,-8.015222
1258,0.6083626,-3.955423,-1.1283422,-7.8566737
1259,0.6103318,-3.9120986,-1.1388391,-7.7327557
1260,0.61251456,-3.8871078,-1.1514409,-7.6531906
1261,0.6157705,-3.8776026,-1.1652613,-7.609613
1262,0.6196901,-3.8859189,-1.1784302,-7.6007113
1263,0.6213309,-3.9054735,-1.2113086,-7.624701
1264,0.4259995,-4.0774765,-1.6307796,-8.225976
1265,0.43097854,-3.3306847,-0.13250135,-6.145739
1266,0.38595882,-3.8731334,-1.4871787,-7.667154
1267,0.4033877,-3.6622689,-1.6750242,-7.4328246
1268,0.390739,-3.8036225,-1.4779269,-7.409781
1269,0.3797989,-3.8508904,-1.2186184,-7.414547
1270,0.576479,-3.2863553,-0.49424565,-6.5068116
1271,0.5687997,-3.410327,-0.5786403,-6.8130593
1272,0.5638501,-4.054542,-1.7989721,-7.8213654
1273,0.49018416,-4.2340508,-2.1302733,-8.2443
1274,0.62638813,-3.4660475,-1.4408544,-7.14593
1275,0.57747155,-3.9773185,-1.8227369,-7.5924706
1276,0.5796357,-3.9467633,-1.8211269,-7.509705
1277,0.5816705,-3.9204662,-1.8250289,-7.432058
1278,0.60156393,-3.7146375,-1.3658048,-6.839889
1279,0.6047047,-3.6230571,-1.2998334,-6.5581417
1280,0.6019039,-3.5587568,-1.2721746,-6.363219
1281,0.6016073,-3.4985151,-1.2465628,-6.1883607
1282,0.59762245,-3.4523544,-1.2358015,-6.0480843
1283,0.59987414,-3.4196494,-1.235379,-5.942141
1284,0.5968334,-3.3973186,-1.2456523,-5.867576
1285,0.5978245,-3.3890114,-1.2666584,-5.8300223
1286,0.5949475,-3.3877318,-1.2994659,-5.8171477
1287,0.57002294,-3.421848,-1.3511915,-5.8961906
1288,0.5902416,-3.4188995,-1.3925308,-5.8599305
1289,0.60665375,-2.9680393,-0.5558018,-5.3140664
1290,0.5985059,-3.60085,-1.9433593,-6.4366193
1291,0.59931386,-3.5812454,-1.9477664,-6.360723
1292,0.59955436,-3.5576694,-1.9486517,-6.286083
1293,0.6021199,-3.5361462,-1.9497706,-6.211336
1294,0.60269415,-3.5145843,-1.9543637,-6.136046
1295,0.6033636,-3.4941483,-1.9551035,-6.062404
1296,0.602798,-3.4732282,-1.9579047,-5.989809
1297,0.60543877,-3.449938,-1.9597849,-5.9168243
1298,0.60587025,-3.4317987,-1.9628544,-5.844622
1299,0.60675,-3.4101264,-1.9617735,-5.7721133
1300,0.6070721,-3.38997,-1.9645733,-5.7016983
1301,0.60919875,-3.3699303,-1.96282,-5.6303387
1302,0.57774377,-3.2191184,-1.5662394,-5.1292243
1303,0.57276696,-3.149698,-1.4784347,-4.922769
1304,0.5736104,-3.101785,-1.447519,-4.777451
1305,0.5758004,-3.0633585,-1.4311236,-4.6354604
1306,0.5748298,-3.0303485,-1.4284934,-4.51693
1307,0.57382137,-3.0068932,-1.4298211,-4.4276867
1308,0.57239467,-2.9891055,-1.441577,-4.3618464
1309,0.5744043,-2.9807367,-1.4601103,-4.325892
1310,0.575119,-2.9771633,-1.4879595,-4.315468
1311,0.5773779,-2.9794295,-1.5263385,-4.325898
1312,0.5784554,-2.981849,-1.5735117,-4.3412156
1313,0.5804605,-3.013703,-1.6738607,-4.428103
1314,0.61276823,-3.1201916,-2.0380619,-4.7387524
1315,0.61424184,-3.1021192,-2.037993,-4.671971
1316,0.6125918,-3.0838852,-2.0392485,-4.6066656
1317,0.611769,-3.0675414,-2.0382292,-4.5400205
1318,0.611815,-3.0502043,-2.0402992,-4.4755387
1319,0.6100339,-3.032319,-2.0396562,-4.4095874
1320,0.6120372,-3.0189478,-2.0376499,-4.3456335
1321,0.6114508,-3.0013807,-2.0381405,-4.2785125
1322,0.6101957,-2.9840357,-2.0407534,-4.2124
1323,0.610424,-2.969818,-2.0429423,-4.153521
1324,0.6079138,-2.9529457,-2.046161,-4.091747
1325,0.6087571,-2.9391315,-2.0493636,-4.030841
1326,0.5807126,-2.7942362,-1.736199,-3.611742
1327,0.57016253,-2.7450695,-1.6595302,-3.4258308
1328,0.5654393,-2.714655,-1.6279756,-3.3003843
1329,0.5607177,-2.6821404,-1.6022302,-3.1762884
1330,0.5559242,-2.655942,-1.5906476,-3.0808382
1331,0.55427295,-2.6350052,-1.5903128,-3.0071707
1332,0.5549205,-2.6206923,-1.6006583,-2.9566681
1333,0.55547464,-2.615546,-1.6235042,-2.930729
1334,0.55693245,-2.6154726,-1.6569077,-2.9263413
1335,0.560716,-2.6196122,-1.6990333,-2.9415133
1336,0.5659732,-2.6242573,-1.7433972,-2.9586546
1337,0.57664824,-2.6487615,-1.8314856,-3.0349462
1338,0.6049051,-2.7472725,-2.1205804,-3.282441
1339,0.60512614,-2.734927,-2.1206567,-3.2309682
1340,0.60422313,-2.719659,-2.1231356,-3.1732235
1341,0.60261744,-2.7060826,-2.1235268,-3.1198547
1342,0.60188466,-2.692557,-2.1243892,-3.0658913
1343,0.6011264,-2.6790836,-2.127023,-3.01338
1344,0.5996951,-2.665114,-2.1263678,-2.959899
1345,0.5995485,-2.6533267,-2.1290667,-2.9073694
1346,0.5978014,-2.6389103,-2.132301,-2.8563423
1347,0.5970555,-2.6254075,-2.1343918,-2.8043664
1348,0.59556824,-2.6134422,-2.1357195,-2.7548158
1349,0.593916,-2.600229,-2.1380198,-2.7033484
1350,0.5624471,-2.49386,-1.8841347,-2.3848307
1351,0.5466165,-2.4414246,-1.818604,-2.2322323
1352,0.5392814,-2.411023,-1.7965094,-2.139125
1353,0.5329171,-2.3832574,-1.7804866,-2.0430386
1354,0.5302107,-2.361963,-1.7713805,-1.9679955
1355,0.52601033,-2.3426807,-1.7717632,-1.9105186
1356,0.525623,-2.3338063,-1.7827044,-1.869968
1357,0.5270386,-2.3303316,-1.804978,-1.8473535
1358,0.52777123,-2.3329155,-1.8342398,-1.841106
1359,0.5316543,-2.3419144,-1.8693081,-1.8492016
1360,0.53614324,-2.3519533,-1.9078398,-1.8599205
1361,0.55153257,-2.3799655,-1.9705998,-1.9125576
1362,0.58089536,-2.4595263,-2.1976752,-2.093476
1363,0.5801888,-2.448371,-2.1980934,-2.0466366
1364,0.5784593,-2.4389226,-2.1994293,-1.9995846
1365,0.5770706,-2.4286466,-2.2005265,-1.9539886
1366,0.57654375,-2.4183235,-2.1996567,-1.9081411
1367,0.5755946,-2.4098206,-2.2000434,-1.8635015
1368,0.5752919,-2.3991578,-2.2015173,-1.820559
1369,0.5738561,-2.3885453,-2.2029014,-1.776
1370,0.5738082,-2.3796365,-2.202919,-1.7348045
1371,0.5734307,-2.3693306,-2.2034647,-1.691299
1372,0.57296145,-2.3604195,-2.202842,-1.6503458
1373,0.572054,-2.351477,-2.2025607,-1.6076409
1374,0.53103465,-2.252778,-2.021987,-1.3798097
1375,0.51302254,-2.2141209,-1.9796554,-1.2490834
1376,0.5058437,-2.1851854,-1.9630996,-1.1606736
1377,0.49648395,-2.155201,-1.9465461,-1.0704144
1378,0.489221,-2.130161,-1.9343992,-1.0010403
1379,0.48547384,-2.1144793,-1.9304482,-0.94856167
1380,0.48345852,-2.1068313,-1.9373673,-0.91636306
1381,0.48579156,-2.1099355,-1.9577366,-0.9021365
1382,0.4922104,-2.1190076,-1.9870024,-0.90305877
1383,0.49781382,-2.1346543,-2.019525,-0.92099303
1384,0.5055957,-2.1469364,-2.0501163,-0.93852854
1385,0.5186253,-2.1712327,-2.1004622,-0.98627037
1386,0.5617998,-2.242377,-2.245907,-1.1176605
1387,0.5623085,-2.23433,-2.2463548,-1.0815946
1388,0.5594941,-2.2249277,-2.2470558,-1.044202
1389,0.55811167,-2.2177474,-2.2469532,-1.0083139
1390,0.55785054,-2.2089796,-2.2484043,-0.97314626
1391,0.55596995,-2.2022648,-2.2474406,-0.9370118
1392,0.55516535,-2.1928456,-2.2486694,-0.90186524
1393,0.55410296,-2.1850173,-2.2479956,-0.8662134
1394,0.55373496,-2.177777,-2.24865,-0.8311112
1395,0.55266947,-2.1686728,-2.249323,-0.79677063
1396,0.5521246,-2.161547,-2.2487986,-0.7632322
1397,0.5507853,-2.153643,-2.248339,-0.7293518
1398,0.50420725,-2.0697548,-2.122471,-0.53535765
1399,0.48525405,-2.0279696,-2.073258,-0.42025796
1400,0.48003945,-2.0002127,-2.0466697,-0.34453687
1401,0.47157547,-1.9719248,-2.020892,-0.2680569
1402,0.46278024,-1.9489228,-2.0062351,-0.21103013
1403,0.45885015,-1.938295,-2.0014956,-0.17027628
1404,0.4576496,-1.9322519,-2.0078094,-0.14138167
1405,0.4613779,-1.9313803,-2.0203884,-0.12405833
1406,0.4683962,-1.9391365,-2.041012,-0.12339735
1407,0.47443506,-1.9545492,-2.071318,-0.13743888
1408,0.47922817,-1.969245,-2.104493,-0.15426074
1409,0.49224398,-1.9969548,-2.1605546,-0.20883389
1410,0.5393575,-2.0660536,-2.2780628,-0.3284634
1411,0.5395175,-2.061607,-2.2762825,-0.2968159
1412,0.5389145,-2.053664,-2.274699,-0.2680409
1413,0.53637034,-2.0469482,-2.2733848,-0.23825085
1414,0.53619176,-2.0399384,-2.2741096,-0.20911984
1415,0.5356944,-2.033617,-2.272598,-0.18148692
1416,0.5350992,-2.0269759,-2.2705595,-0.15195115
1417,0.5464614,-1.4892274,-1.7695526,0.393026
1418,0.5021915,-1.4097372,-1.5786942,-0.029846707
1419,0.5065398,-1.2078722,-1.6928214,-1.4589821
1420,0.34898996,-1.082996,-3.902037,-0.4340023
1421,0.45736957,-1.4556059,-3.174393,-0.40318632
1422,0.5110925,-1.0253518,-1.2804765,-0.09855139
1423,0.49992397,-1.8720404,-1.963837,-0.38706687
1424,0.4836149,-1.8422531,-1.9667436,-0.080633186
1425,0.47032937,-1.8169159,-1.9670305,0.080683924
1426,0.4613771,-1.7996563,-1.9676732,0.16549926
1427,0.45505452,-1.7898651,-1.9681749,0.21189912
1428,0.4531556,-1.7857479,-1.9749126,0.24058425
1429,0.45743835,-1.7861296,-1.9845566,0.2541304
1430,0.46239996,-1.790512,-2.002401,0.25635055
1431,0.4700557,-1.7995564,-2.023716,0.24252804
1432,0.47706437,-1.8118973,-2.0510042,0.22696084
1433,0.4903158,-1.840995,-2.0968845,0.16931035
1434,0.53607196,-1.9033369,-2.2001731,0.06228896
1435,0.53514117,-1.8959175,-2.19964,0.087498106
1436,0.53473455,-1.8895067,-2.1972802,0.11059305
1437,0.53481793,-1.8839127,-2.1942604,0.13349123
1438,0.53235286,-1.8772606,-2.1927166,0.15872163
1439,0.5325269,-1.871198,-2.1904242,0.18177825
1440,0.53155535,-1.8643643,-2.1886823,0.20604499
1441,0.5305138,-1.8586477,-2.1856344,0.22952229
1442,0.52898943,-1.8520101,-2.184227,0.25314096
1443,0.5298514,-1.8470742,-2.1811905,0.27548274
1444,0.5291415,-1.8402328,-2.178705,0.29831266
1445,0.5271227,-1.8342701,-2.1766174,0.32150254
1446,0.4787135,-1.7615405,-2.0693924,0.48538437
1447,0.462294,-1.7214466,-2.0234358,0.5842498
1448,0.4514898,-1.7022549,-2.0047405,0.6419961
1449,0.43698576,-1.6824483,-1.9812822,0.68923324
1450,0.42682758,-1.6687852,-1.9654269,0.7271088
1451,0.4210888,-1.6589713,-1.9582602,0.75397825
1452,0.41966164,-1.6545925,-1.958571,0.7731378
1453,0.42417622,-1.6558704,-1.9687905,0.7842617
1454,0.4331192,-1.6629362,-1.9867281,0.7854013
1455,0.44603553,-1.6745335,-2.0116615,0.7753048
1456,0.45650533,-1.6831466,-2.035836,0.76342756
1457,0.47337213,-1.7108234,-2.0758598,0.7118306
1458,0.51958716,-1.7711959,-2.17505,0.6012177
1459,0.5192266,-1.7669468,-2.1709805,0.6215511
1460,0.518287,-1.7608048,-2.1678293,0.64333254
1461,0.5183614,-1.7551202,-2.162538,0.6636059
1462,0.51746005,-1.749287,-2.1615076,0.6860016
1463,0.5167263,-1.7450342,-2.1569817,0.7062168
1464,0.5157538,-1.7401391,-2.1520653,0.72745323
1465,0.51635975,-1.7347999,-2.148678,0.74844474
1466,0.51603,-1.7288052,-2.1447773,0.76947576
1467,0.5149602,-1.7235794,-2.1413748,0.7892607
1468,0.5144827,-1.7167187,-2.1371434,0.8091696
1469,0.51540774,-1.7117043,-2.132179,0.8280792
1470,0.47104016,-1.6398057,-2.0295897,0.96580726
1471,0.45226264,-1.6053206,-1.9786425,1.037759
1472,0.44071278,-1.5849739,-1.9534918,1.0830728
1473,0.4280331,-1.5657043,-1.9276295,1.123772
1474,0.41864595,-1.5509974,-1.9084545,1.1556195
1475,0.4135408,-1.5423403,-1.90004,1.1776506
1476,0.41396573,-1.5389591,-1.8998766,1.1919782
1477,0.41579366,-1.540947,-1.9076799,1.2014126
1478,0.42411304,-1.5485674,-1.925016,1.201501
1479,0.43569398,-1.5603727,-1.9489393,1.190673
1480,0.5654822,-1.3429505,-1.7292002,1.0722699
1481,0.44820657,-1.1996173,-1.165541,1.0736874
1482,-0.077570304,-1.4665012,-2.270128,1.2690619
1483,0.14220947,-1.7449398,-2.1704485,1.1243373
1484,0.33110508,-1.6842245,-2.1611643,1.0698428
1485,0.43668166,-1.6495746,-2.1204922,1.1056322
1486,0.4746633,-1.6344723,-2.1002734,1.1314386
1487,0.48663655,-1.6247927,-2.091201,1.150781
1488,0.4883562,-1.6194605,-2.0861118,1.1706699
1489,0.49032703,-1.6133369,-2.0811386,1.1885333
1490,0.4883457,-1.6078043,-2.0754354,1.2062979
1491,0.48878393,-1.6028475,-2.070226,1.223207
1492,0.48823103,-1.5973886,-2.0663679,1.2400287
1493,0.48929998,-1.5921221,-2.0608358,1.2558342
1494,0.45214,-1.5403458,-1.9800845,1.3320547
1495,0.4362997,-1.5173317,-1.9397278,1.3831815
1496,0.42749843,-1.5025929,-1.9136505,1.4139799
1497,0.4177815,-1.4882084,-1.8912534,1.4411701
1498,0.4117775,-1.4762188,-1.8774076,1.4664865
1499,0.4090267,-1.4692861,-1.8669361,1.4835879
1500,0.57176113,-1.219278,-1.4595551,1.5969976
1501,0.54244024,-1.17021,-1.4585224,1.642777
1502,0.5106274,-1.31584,-1.4774686,1.6211113
1503,0.2562432,-1.4154592,-1.6753654,1.5311141
1504,0.28604233,-1.4253979,-1.6417335,1.5470747
1505,0.47682098,-1.4147447,-1.7559794,1.4170681
1506,0.47093603,-1.3584146,-1.8929319,1.5007491
1507,0.45857105,-1.5450512,-2.0513132,1.3734751
1508,0.47357234,-1.530426,-2.0274398,1.4219629
1509,0.47879592,-1.5223541,-2.0134585,1.4483639
1510,0.47940683,-1.5158992,-2.0059266,1.4691168
1511,0.47974026,-1.5106192,-2.000188,1.4850103
1512,0.48122397,-1.5046697,-1.9956642,1.5005016
1513,0.48018935,-1.4996139,-1.9895722,1.5144649
1514,0.47981834,-1.4941763,-1.9852219,1.5296974
1515,0.4803494,-1.4900755,-1.9788523,1.5453148
1516,0.7817097,-1.354544,-1.7166823,1.1133021
1517,0.53410065,-1.166843,-2.8369267,1.130416
1518,0.34430835,-1.3789798,-3.3569682,-0.16903217
1519,0.25541994,-2.5319223,-4.4828906,-2.1411512
1520,-0.7105562,-3.1310232,-6.5603333,-6.5474744
1521,-1.9836346,-4.262469,-7.6357245,-6.5101833
1522,-1.1916658,-5.0133324,-11.510354,-10.6633415
1523,-1.2709597,-9.395723,-0.31936216,-10.920331
1524,-0.72523475,-5.1636386,-3.5490494,-3.9688408
1525,-0.56368023,-9.54258,0.97122496,-12.797299
1526,-0.87222236,-1.6031065,-1.380545,11.561351
1527,0.44647217,-7.523112,8.284618,-8.520085
1528,0.36413017,-6.219694,-5.8523965,-16.43392
1529,0.6280687,-2.959583,-1.5593306,-9.40397
1530,0.5728418,-3.793249,-1.430044,-9.187338
1531,0.5823883,-3.500557,-1.2736237,-8.275704
1532,0.57765055,-3.4238367,-1.2604504,-8.002246
1533,0.57569355,-3.404702,-1.2629026,-7.9086227
1534,0.5717172,-3.395645,-1.2623789,-7.869452
1535,0.5711818,-3.3893785,-1.2616032,-7.8401284
1536,0.569832,-3.385978,-1.2584134,-7.8172355
1537,0.5717887,-3.3797958,-1.2567931,-7.7922153
1538,0.5709348,-3.3754876,-1.2555414,-7.769632
1539,0.56929153,-3.366657,-1.256173,-7.7414517
1540,0.5683008,-3.3632238,-1.2540025,-7.7165217
1541,0.5684133,-3.355919,-1.252299,-7.6889863
1542,0.6187174,-3.1365106,-0.967792,-7.149772
1543,0.62849265,-3.0559635,-0.8730383,-6.886158
1544,0.631227,-3.0026052,-0.835167,-6.7175403
1545,0.6299328,-2.952482,-0.8057937,-6.5561905
1546,0.6284193,-2.9158134,-0.78809524,-6.4354386
1547,0.6274771,-2.8921108,-0.7797192,-6.3516927
1548,0.6272581,-2.8811166,-0.7789194,-6.305155
1549,0.6261705,-2.8826702,-0.7875433,-6.2981277
1550,0.62103695,-2.8973663,-0.80648565,-6.326111
1551,0.42703152,-3.0423872,-0.981389,-6.857525
1552,0.5923194,-1.892261,-0.4609199,-4.29822
1553,0.62549037,-2.2672153,0.5301121,-5.254397
1554,0.5682058,-3.219464,-1.269488,-7.208866
1555,0.5137003,-1.2565317,-0.016515613,-4.4019184
1556,0.53093654,-2.267834,-0.22155826,-5.934316
1557,0.5672494,-3.1858933,-1.2513311,-7.1291656
1558,0.5644739,-3.177285,-1.2479793,-7.073143
1559,0.564097,-3.1660757,-1.2424227,-7.024915
1560,0.5631332,-3.1546834,-1.238257,-6.982767
1561,0.56161475,-3.1433961,-1.2326059,-6.937296
1562,0.56143314,-3.1335278,-1.2255169,-6.897138
1563,0.5608813,-3.1223338,-1.2197882,-6.8550906
1564,0.5612569,-3.1101322,-1.209451,-6.8115115
1565,0.5601713,-3.0987732,-1.2039363,-6.7688065
1566,0.574933,-2.8827715,-0.8107601,-6.075764
1567,0.5821883,-2.7948058,-0.7381796,-5.8095613
1568,0.5826809,-2.7400322,-0.7140768,-5.6358204
1569,0.619488,-2.2581563,0.17699604,-4.1855474
1570,0.58328533,-2.6512938,-0.6671276,-5.3396626
1571,0.30146247,-2.2249126,0.34213528,-4.6010823
1572,0.55029863,-1.3100699,-0.03518629,-2.0189831
1573,0.64915013,-1.766173,0.2733733,-2.7373505
1574,0.65293443,-1.6498308,-0.11373928,-3.0097256
1575,0.5759194,-2.6792905,-0.7190542,-5.350195
1576,0.56921023,-2.6944036,-0.74031204,-5.4009876
1577,0.56301594,-2.750519,-0.8093664,-5.573891
1578,0.55444044,-2.922347,-1.1844596,-6.1509094
1579,0.5553278,-2.9097812,-1.1756686,-6.101089
1580,0.5560253,-2.896341,-1.1675085,-6.0529556
1581,0.554871,-2.8822668,-1.1628561,-6.0035286
1582,0.5528534,-2.8676574,-1.1536907,-5.955417
1583,0.5534255,-2.855443,-1.1464925,-5.9067726
1584,0.5534952,-2.841408,-1.1412147,-5.8586273
1585,0.51298374,-3.05647,-1.3257275,-6.371294
1586,0.5515525,-2.813618,-1.1256529,-5.762095
1587,0.55197334,-2.7992933,-1.1188887,-5.712734
1588,0.3698326,-2.4481673,-0.93557245,-5.5451527
1589,0.5417598,-1.4961281,-0.09321555,-3.8548272
1590,0.5527427,-2.618119,-0.7648737,-5.0891647
1591,0.54734564,-2.090747,-0.17389755,-4.6059914
1592,-0.5111118,-1.7581142,2.04511,-2.3798923
1593,-1.2654568,-1.7649401,-1.7298914,0.25597277
1594,-0.82206696,-13.043845,-0.4465892,-11.478516
1595,0.13796861,-5.479744,-3.1861713,-11.749145
1596,0.42953262,-2.9920604,-0.9850852,-6.9883714
1597,0.5126113,-3.1346905,-0.6015498,-6.3126874
1598,0.3866606,-3.046735,-0.685646,-6.252199
1599,0.6044603,-1.7967678,0.15759845,-3.6022768
1600,0.14290603,-3.4905012,-0.92205715,-6.739001
1601,-0.34840223,-2.4840543,-0.39402542,-3.562496
1602,-0.1718365,-3.2111895,-1.2805357,-6.520073
1603,0.16926306,-3.562506,-1.4832665,-6.8703275
1604,0.30192876,-3.510337,-1.4493049,-6.8710046
1605,0.35780668,-3.4801323,-1.430983,-6.8442025
1606,0.37714157,-3.4590664,-1.4176463,-6.8031044
1607,0.3826953,-3.4447632,-1.4080578,-6.7590957
1608,0.43284264,-2.6054332,-0.67444474,-5.617291
1609,0.38651887,-3.4120512,-1.3879033,-6.6668935
1610,0.38667282,-3.3963747,-1.378347,-6.6207104
1611,0.38810134,-3.3800294,-1.3702294,-6.5733256
1612,0.38941517,-3.3639896,-1.360854,-6.527866
1613,0.38945046,-3.34906,-1.3530718,-6.481705
1614,0.40795985,-3.2066572,-1.0451459,-5.994965
1615,0.41199255,-3.1524012,-0.97849464,-5.783642
1616,0.4144503,-3.1089103,-0.9434826,-5.637188
1617,0.41434515,-3.0658329,-0.9204609,-5.4937344
1618,0.41544023,-3.030269,-0.9037531,-5.388021
1619,0.54519874,-2.0484843,0.22962296,-2.969752
1620,0.39725694,-3.076514,-0.95347404,-5.3735986
1621,0.40474153,-3.0246427,-0.9194805,-5.2949405
1622,0.40518215,-3.0069761,-0.9167419,-5.271576
1623,0.40591332,-3.0120926,-0.9254567,-5.2917438
1624,0.402755,-3.020704,-0.9518795,-5.3277287
1625,0.400484,-3.0447485,-1.0056049,-5.4461346
1626,0.39064702,-3.1480875,-1.3078835,-5.867534
1627,0.39196578,-3.1315281,-1.3001182,-5.8182416
1628,0.39222214,-3.1148536,-1.2934029,-5.769092
1629,0.39301822,-3.0980504,-1.2828455,-5.718836
1630,0.39448038,-2.4314697,-0.13964243,-4.611835
1631,0.39303768,-3.0629406,-1.2610564,-5.61478
1632,0.36124018,-2.6346943,-0.63612324,-5.3371067
1633,0.37683046,-3.1062553,-1.2452291,-5.5755844
1634,0.3948927,-3.0114336,-1.2328666,-5.4583306
1635,0.3956724,-2.9934752,-1.2230453,-5.409643
1636,0.39489123,-2.9777162,-1.2134472,-5.357363
1637,0.39640173,-2.960266,-1.2038316,-5.305826
1638,0.33384737,-2.8758419,-0.8124542,-4.8492446
1639,0.3082446,-2.7594042,-0.6679496,-4.460737
1640,0.3923523,-2.728718,-0.77868825,-4.429314
1641,0.39157113,-2.6889954,-0.7473865,-4.2908783
1642,0.39018798,-2.658931,-0.7284663,-4.1837745
1643,0.38739347,-2.6339836,-0.7198,-4.1056614
1644,0.38387647,-2.6189618,-0.72020525,-4.058436
1645,0.3854026,-2.6097076,-0.72726756,-4.036446
1646,0.3889983,-2.608204,-0.74538517,-4.04711
1647,0.38898477,-2.6147366,-0.77295566,-4.0926504
1648,0.38941935,-2.623686,-0.80090404,-4.131629
1649,0.3937713,-2.6507394,-0.87096506,-4.247801
1650,0.3902003,-2.7329552,-1.1373829,-4.633194
1651,0.39025056,-2.7166474,-1.1270378,-4.584251
1652,0.38946643,-2.6995041,-1.1192466,-4.5342755
1653,0.39104223,-2.68599,-1.1137716,-4.48625
1654,0.3905164,-2.6703374,-1.1061784,-4.4358315
1655,0.3905932,-2.6555727,-1.099212,-4.3866363
1656,0.39014497,-2.6393988,-1.0913743,-4.338761
1657,0.38955238,-2.6254778,-1.0861951,-4.2905974
1658,0.3903774,-2.6121547,-1.0785741,-4.243241
1659,0.39069307,-2.5965097,-1.0728778,-4.196671
1660,0.38838005,-2.5816715,-1.0654601,-4.1476564
1661,0.3898166,-2.5673103,-1.0590212,-4.1038074
1662,0.3964342,-2.455503,-0.79897237,-3.650793
1663,0.39136472,-2.398289,-0.72873455,-3.442726
1664,0.3831704,-2.3651981,-0.70582396,-3.3256865
1665,0.37217343,-2.3377314,-0.69054896,-3.2187097
1666,0.36523497,-2.3161595,-0.68619466,-3.1407833
1667,0.36198243,-2.2982748,-0.68395656,-3.0821466
1668,0.36182144,-2.2845943,-0.6888807,-3.0450122
1669,0.3645916,-2.2752535,-0.69754004,-3.02553
1670,0.3690238,-2.2718189,-0.71183014,-3.0281725
1671,0.37913084,-2.2686617,-0.72856754,-3.0483878
1672,0.38832858,-2.2729485,-0.75115633,-3.0768862
1673,0.39953873,-2.294973,-0.8116207,-3.178524
1674,0.39213416,-2.381828,-1.0583595,-3.5160074
1675,0.3931699,-2.3680832,-1.0596504,-3.4747736
1676,0.39259124,-2.3554525,-1.0585324,-3.4343748
1677,0.39308608,-2.3430684,-1.0588882,-3.3914585
1678,0.39149618,-2.3301008,-1.0594203,-3.3499868
1679,0.39296976,-2.3170233,-1.0582379,-3.310094
1680,0.39199173,-2.305456,-1.0592134,-3.270579
1681,0.39240646,-2.2936664,-1.0593783,-3.230902
1682,0.39271903,-2.2834728,-1.0613173,-3.1907623
1683,0.391798,-2.2706668,-1.0614216,-3.153445
1684,0.39214528,-2.2594485,-1.0618186,-3.1151912
1685,0.34975472,-1.8787543,-0.5624595,-2.819851
1686,0.39344525,-2.1313174,-0.7905808,-2.682388
1687,0.37848607,-2.0926917,-0.7486662,-2.5372097
1688,0.37016833,-2.0643342,-0.735677,-2.432373
1689,0.36182252,-2.0374577,-0.7283446,-2.3242137
1690,0.35588703,-2.0158179,-0.7231624,-2.235869
1691,0.35408998,-1.9999633,-0.7258363,-2.1740608
1692,0.3542751,-1.9887985,-0.73276454,-2.1371741
1693,0.35604095,-1.9832908,-0.7483964,-2.1274147
1694,0.36085284,-1.9840436,-0.76942044,-2.1371915
1695,0.3688279,-1.9897633,-0.7956562,-2.1705487
1696,0.3747015,-1.9974333,-0.82396656,-2.207051
1697,0.38640967,-2.0146725,-0.8643696,-2.2911859
1698,0.3892648,-2.1073372,-1.1090827,-2.5772574
1699,0.38814345,-2.0970848,-1.1081452,-2.5403292
1700,0.3894794,-2.0879347,-1.1088144,-2.5035162
1701,0.38889006,-2.0781076,-1.1089386,-2.4674664
1702,0.38951376,-2.0676143,-1.1091511,-2.4322116
1703,0.38742712,-2.0584314,-1.1084987,-2.3942492
1704,0.38818336,-2.0495486,-1.1096252,-2.3588386
1705,0.38758516,-2.0389316,-1.1099975,-2.3216455
1706,0.3884457,-2.0291708,-1.1118845,-2.2844186
1707,0.38717195,-2.0204113,-1.1133746,-2.244802
1708,0.38712373,-2.0117006,-1.113742,-2.2077653
1709,0.38656643,-2.0028193,-1.1146458,-2.169464
1710,0.37638554,-1.8912191,-0.91135335,-1.8366932
1711,0.36378884,-1.8570927,-0.8779498,-1.6898023
1712,0.35662803,-1.833869,-0.8639278,-1.595437
1713,0.34731582,-1.8114805,-0.85417634,-1.5039744
1714,0.34222165,-1.7935791,-0.8462379,-1.4357947
1715,0.3402278,-1.7798862,-0.84531754,-1.3869168
1716,0.33825603,-1.7722974,-0.85387725,-1.3558427
1717,0.34090853,-1.7686852,-0.8695953,-1.3433825
1718,0.3462946,-1.7699803,-0.89147705,-1.351271
1719,0.35220468,-1.7768912,-0.917217,-1.3757807
1720,0.35832667,-1.7843832,-0.9433612,-1.4020462
1721,0.3705,-1.8013042,-0.98822,-1.4710484
1722,0.38099787,-1.8933414,-1.1814145,-1.6937523
1723,0.37926984,-1.8846484,-1.1839184,-1.6585337
1724,0.37956193,-1.8777322,-1.1856164,-1.6239413
1725,0.3785906,-1.8694792,-1.1882582,-1.5901798
1726,0.37866458,-1.8614012,-1.1893984,-1.5580472
1727,0.37692073,-1.8531691,-1.1904545,-1.5242343
1728,0.37815592,-1.8459963,-1.1927171,-1.4912125
1729,0.5378998,-1.9519991,-1.0775491,-1.6876459
1730,0.36551514,-1.5769428,-0.8059719,-0.8886382
1731,0.2699045,-0.92042094,-0.41316906,-0.5230064
1732,0.45524168,-1.6518025,-1.0050851,-1.1859963
1733,0.3035967,-1.4072832,-0.9610031,-1.1420083
1734,0.4051038,-1.27939,-0.5173593,-0.45464826
1735,0.4093944,-1.2719914,-0.63053614,-0.6227048
1736,0.35009596,-1.6566796,-0.96302176,-0.8988404
1737,0.37458733,-1.434814,-0.8538101,-0.9992373
1738,0.2600867,-1.9388877,-1.0108868,-0.37003627
1739,0.15537843,-3.42927,-0.9713504,-1.3229642
1740,0.10164723,-1.9806112,-0.5091615,-0.55429786
1741,0.24545215,-1.5715365,-0.5591009,-1.2837268
1742,0.3564961,-1.3549837,-0.034979362,-0.9696126
1743,0.47485384,-0.8624733,0.177316,-1.695407
1744,0.3443049,-1.8903203,0.15137522,-0.76209325
1745,0.27220425,-1.0166267,0.03302729,-0.9490335
1746,0.37457857,-1.6802764,-0.5055619,-1.2447643
1747,0.34299967,-1.5531758,-0.54897827,-1.0356227
1748,0.37343553,-1.2768791,-0.42585102,-0.86167485
1749,0.27410254,-1.4029974,-0.63550603,-1.0057719
1750,0.33536756,-1.2056352,-0.50730526,-1.1574613
1751,0.3407725,-1.497691,-0.91708225,-1.4150158
1752,0.36856687,-1.9202379,-1.105107,-1.6925755
1753,0.38774404,-1.578236,-0.9501564,-1.4335655
1754,0.367599,-1.9008013,-1.110055,-1.6201671
1755,0.36728966,-1.8913683,-1.1111506,-1.5884527
1756,0.36656368,-1.884945,-1.1133236,-1.5602616
1757,0.36617804,-1.8782396,-1.1133825,-1.5324372
1758,0.35845378,-1.7709789,-0.9343107,-1.2634281
1759,0.34580657,-1.7368535,-0.89532113,-1.1351547
1760,0.33727884,-1.7141547,-0.8795224,-1.0565583
1761,0.32476473,-1.6923715,-0.78562254,-0.8680584
1762,0.22947092,-1.2453238,-0.706393,-0.7107946
1763,0.30883595,-0.85583216,-0.15117128,0.039287966
1764,0.3630744,-1.380516,-0.7073006,-0.6108955
1765,0.31513542,-1.6661425,-0.8770304,-0.86517525
1766,0.32210678,-1.6667012,-0.89603144,-0.8663172
1767,0.3261293,-1.6647648,-0.82875997,-0.764059
1768,0.347322,-1.1951967,-0.43161476,-0.2554091
1769,0.3533217,-1.6930016,-0.9007465,-0.8717887
1770,0.35714403,-1.7921933,-1.1644627,-1.1701664
1771,0.35742852,-1.785904,-1.1647497,-1.1433372
1772,0.35711136,-1.7790146,-1.1653205,-1.1165794
1773,0.35717526,-1.7724237,-1.1653842,-1.0896496
1774,0.35733572,-1.7660899,-1.166777,-1.0637698
1775,0.35787633,-1.7601328,-1.1665946,-1.0384294
1776,0.3579419,-1.7536496,-1.1671236,-1.0118418
1777,0.3569474,-1.7473392,-1.1679194,-0.98436546
1778,0.35716495,-1.7406573,-1.169199,-0.9594105
1779,0.35750756,-1.7341863,-1.1708361,-0.9307864
1780,0.35573956,-1.7277856,-1.1715399,-0.9048396
1781,0.35708347,-1.7221974,-1.1729096,-0.8778258
1782,0.3453348,-1.6229647,-1.0171324,-0.6636861
1783,0.33166596,-1.5892415,-0.9764035,-0.56071883
1784,0.32031992,-1.568451,-0.9610066,-0.48996022
1785,0.31074968,-1.5479598,-0.9492769,-0.4228537
1786,0.30299103,-1.5319151,-0.9462972,-0.36846974
1787,0.29943773,-1.520177,-0.9456715,-0.33043393
1788,0.29971775,-1.5142227,-0.95191664,-0.30820265
1789,0.3019249,-1.5149783,-0.9655118,-0.2995894
1790,0.30826288,-1.5200759,-0.98321867,-0.30651405
1791,0.3183535,-1.5282072,-1.0044991,-0.32372513
1792,0.32952932,-1.5382066,-1.030041,-0.34336495
1793,0.34218577,-1.560255,-1.0783705,-0.390754
1794,0.3536196,-1.6430087,-1.2205364,-0.5186531
1795,0.35271573,-1.6368665,-1.2205864,-0.49242258
1796,0.3521885,-1.6309513,-1.2211205,-0.46478593
1797,0.35284936,-1.6248535,-1.2211163,-0.44155407
1798,0.35279322,-1.618125,-1.2225422,-0.41584602
1799,0.35273135,-1.6116513,-1.2222928,-0.3900187
1800,0.3520447,-1.6059681,-1.2232658,-0.366401
1801,0.35248804,-1.6011419,-1.2254627,-0.34076428
1802,0.35229233,-1.5940458,-1.2242435,-0.31730226
1803,0.35192505,-1.5893439,-1.2256178,-0.29262307
1804,0.3520334,-1.5818968,-1.2262608,-0.26770398
1805,0.3522185,-1.5775522,-1.2268544,-0.24384739
1806,0.33689785,-1.4889036,-1.0998015,-0.09206772
1807,0.32106638,-1.4515963,-1.0584031,0.0006638567
1808,0.42783272,-1.2647839,-0.7681877,0.17260313
1809,0.29912445,-1.4141649,-1.0299356,0.12300241
1810,0.29076943,-1.4010011,-1.0203664,0.17186213
1811,0.3538247,-0.9128146,-0.41544524,0.7101901
1812,0.30058825,-0.8709733,-0.39213705,0.76260716
1813,0.30288067,-1.1439999,-0.53816205,0.6364306
1814,0.36398053,-1.0582627,-0.476477,0.72301656
1815,0.4690101,-1.1840715,-0.39760485,0.30910933
1816,0.291765,-1.0575842,-0.8305587,0.32769224
1817,0.33386263,-1.4445953,-1.139069,0.13261907
1818,0.35076663,-1.5177822,-1.2600213,0.040294666
1819,0.34994265,-1.5108858,-1.2622167,0.06723764
1820,0.35034743,-1.5055841,-1.2621313,0.09168371
1821,0.35159972,-1.4996763,-1.2611542,0.11250818
1822,0.35123184,-1.4941726,-1.2605081,0.13584335
1823,0.3507878,-1.4894146,-1.2607921,0.15698344
1824,0.35174835,-1.4837648,-1.2601461,0.17965998
1825,0.35240057,-1.476935,-1.2587774,0.20067735
1826,0.35149112,-1.471714,-1.2585561,0.2230715
1827,0.3526528,-1.4664053,-1.2555016,0.24376248
1828,0.35283616,-1.4605886,-1.2558011,0.26518238
1829,0.35264906,-1.4548484,-1.254878,0.28779233
1830,0.33704448,-1.3832617,-1.1536144,0.40392327
1831,0.32251325,-1.3513156,-1.115624,0.46845964
1832,0.3133373,-1.3322304,-1.0976048,0.5169921
1833,0.3033348,-1.3141187,-1.0795721,0.56660885
1834,0.29987693,-1.2994288,-1.0657963,0.60600823
1835,0.29678664,-1.2890049,-1.060078,0.6383864
1836,0.29613772,-1.2848049,-1.0623157,0.6561387
1837,0.29943338,-1.2871605,-1.072688,0.66366565
1838,0.30369782,-1.2930532,-1.0907606,0.6625605
1839,0.310804,-1.3033333,-1.1119486,0.6502214
1840,0.31854177,-1.3141185,-1.134922,0.64215153
1841,0.33407247,-1.3338314,-1.1735104,0.62453693
1842,0.35554054,-1.3909159,-1.2629119,0.5617816
1843,0.35703525,-1.3863007,-1.2611779,0.58344847
1844,0.3574339,-1.3810511,-1.2589842,0.60215366
1845,0.35689965,-1.3761886,-1.2571391,0.6226032
1846,0.3575169,-1.3703914,-1.2557143,0.6438162
1847,0.35716972,-1.3661853,-1.2544972,0.6633249
1848,0.35729578,-1.360664,-1.2534119,0.6826964
1849,0.35885227,-1.3567652,-1.2514101,0.70009327
1850,0.35792089,-1.3507113,-1.2493855,0.7191723
1851,0.35891303,-1.346229,-1.2475376,0.7390244
1852,0.35935232,-1.340967,-1.2461809,0.757174
1853,0.3587116,-1.3353271,-1.2444421,0.77671766
1854,0.33852684,-1.2769556,-1.1679994,0.8531277
1855,0.3252276,-1.2558851,-1.1380209,0.8919256
1856,0.31741798,-1.2395067,-1.1191267,0.92494863
1857,0.31217235,-1.2248001,-1.1002593,0.9640169
1858,0.30802786,-1.2112441,-1.0881621,0.9979486
1859,0.3044555,-1.2034096,-1.082828,1.0247651
1860,0.3050832,-1.1985317,-1.0825061,1.0402099
1861,0.30837765,-1.1990882,-1.0889589,1.0471205
1862,0.31218603,-1.2035297,-1.1014194,1.0467529
1863,0.31775513,-1.2114468,-1.1196624,1.0434908
1864,0.32509243,-1.2190263,-1.1389682,1.0444859
1865,0.3371097,-1.2321649,-1.1714711,1.0360748
1866,0.35899794,-1.2762942,-1.237189,1.0078125
1867,0.35817376,-1.2719765,-1.2363454,1.0255189
1868,0.36020043,-1.2668488,-1.2340322,1.040824
1869,0.35940588,-1.2626871,-1.2323676,1.0573007
1870,0.36033425,-1.2579287,-1.2295009,1.0721282
1871,0.36060473,-1.2530028,-1.2265934,1.0885944
1872,0.360063,-1.2481213,-1.2252182,1.1048096
1873,0.36020386,-1.2435985,-1.2231313,1.1193476
1874,0.36057866,-1.2394494,-1.2210457,1.1350721
1875,0.360646,-1.2345451,-1.2187157,1.1504817
1876,0.36052907,-1.2290143,-1.2177259,1.1654584
1877,0.36062488,-1.2252496,-1.213653,1.1808821
1878,0.31065193,-0.85144067,-0.98142076,1.2309474
1879,0.3087513,-0.6438622,-0.56040376,1.6034588
1880,0.3159418,-1.1652744,-1.1082487,1.2741379
1881,0.3246052,-0.8405049,-0.8334787,1.4466524
1882,0.37261644,-1.111525,-0.9555666,1.3583351
1883,0.48232594,-0.89487886,-0.6792578,1.039069
1884,0.22913785,-0.56247085,-0.57633656,1.4382205
1885,0.35146713,-0.64639205,-0.5206036,1.6087517
1886,0.3124971,-1.1220313,-1.0745863,1.3725795
1887,0.31947374,-1.1260635,-1.0936342,1.384724
1888,0.32725132,-1.1311355,-1.1101339,1.3896351
1889,0.33730626,-1.1430374,-1.1407741,1.3811216
1890,0.3610293,-1.1736382,-1.1980692,1.3602091
1891,0.3625164,-1.1700741,-1.1955181,1.375141
1892,0.3624554,-1.1652516,-1.1936009,1.3894577
1893,0.36394945,-1.161268,-1.1899194,1.4035298
1894,0.36369637,-1.1572741,-1.1875356,1.418612
1895,0.3641785,-1.1535722,-1.1846133,1.4327397
1896,0.5724335,-0.8580053,-0.7623319,1.9735018
1897,0.3648955,-1.1440281,-1.179576,1.4604484
1898,0.36521506,-1.1403458,-1.1768293,1.4759983
1899,0.36628547,-1.1376647,-1.1738149,1.4889816
1900,0.36569914,-1.1323389,-1.17182,1.5031873
1901,0.50184244,-0.97741956,-1.0910748,1.4278189
1902,0.33933032,-1.0937692,-1.1068376,1.5633554
1903,0.32591775,-1.072114,-1.0740536,1.6047205
1904,0.31754634,-1.0574423,-1.057351,1.6312609
1905,0.31188673,-1.0438366,-1.0411413,1.6595001
1906,0.30873463,-1.0339252,-1.031364,1.6841596
1907,0.30699947,-1.0268818,-1.0272369,1.7028732
1908,0.30603728,-1.0239044,-1.0278713,1.7160305
1909,0.30836785,-1.0247756,-1.0326122,1.720308
1910,0.31176862,-1.0290773,-1.0414394,1.7194372
1911,0.31819746,-1.0364294,-1.0542837,1.7166122
1912,0.32611942,-1.0441859,-1.0699043,1.7176156
1913,0.33830717,-1.0600218,-1.0969802,1.7041286
1914,0.36996663,-1.0786858,-1.145221,1.694334
1915,0.3692852,-1.0749277,-1.1425055,1.7089696
1916,0.3695595,-1.0716805,-1.137569,1.7217757
1917,0.3694279,-1.068233,-1.1338907,1.734589
1918,0.37018737,-1.0642849,-1.1301452,1.74817
1919,0.37102452,-1.0600239,-1.1262511,1.7613688
1920,0.37016475,-1.0572565,-1.1218678,1.7746619
1921,0.37146947,-1.0536536,-1.1193444,1.7881666
1922,0.37092307,-1.050218,-1.1151842,1.8010174
1923,0.37105235,-1.0467544,-1.1104354,1.8135986
1924,0.37172768,-1.0435044,-1.1070918,1.8266358
1925,0.372108,-1.0398775,-1.103225,1.839044
1926,0.3486972,-1.0124458,-1.0597688,1.8595454
1927,0.33925524,-0.9866131,-1.025569,1.8928019
1928,0.33358312,-0.9729118,-1.0103189,1.917593
1929,0.32663986,-0.95707464,-0.991175,1.9406892
1930,0.32035542,-0.9424141,-0.9774936,1.9637718
1931,0.3173503,-0.9339299,-0.9677704,1.9808813
1932,0.3196042,-0.93074244,-0.9676097,1.9906578
1933,0.31972918,-0.93266207,-0.97436136,1.9940401
1934,0.3247398,-0.94066876,-0.98607427,1.9919332
1935,0.33112252,-0.9529312,-1.0024148,1.9895625
1936,0.33973718,-0.96240395,-1.01465,1.9880224
1937,0.34868357,-0.9848874,-1.0389436,1.9840568
1938,0.37172452,-0.9982235,-1.0694498,1.9985538
1939,0.37301496,-0.99380374,-1.0652761,2.0094643
1940,0.37246498,-0.99019504,-1.0618135,2.0224295
1941,0.3733562,-0.9862912,-1.0579528,2.0334647
1942,0.3733162,-0.98274046,-1.0536202,2.0456297
1943,0.37436488,-0.97959787,-1.0496575,2.0566795
1944,0.37439394,-0.9751637,-1.045489,2.0684586
1945,0.37482986,-0.97102517,-1.0418657,2.0814068
1946,0.37487674,-0.96745133,-1.0380653,2.0927887
1947,0.37601092,-0.9628313,-1.0339907,2.1046329
1948,0.3765296,-0.9597468,-1.0294402,2.115715
1949,0.37588942,-0.9553501,-1.0258654,2.1286736
1950,0.34609213,-0.93898886,-0.98750424,2.1349592
1951,0.32887313,-0.9109233,-0.9564112,2.1503627
1952,0.31848606,-0.8910578,-0.9354124,2.168732
1953,0.309766,-0.8723297,-0.91466665,2.1936617
1954,0.30310652,-0.85585505,-0.8989447,2.2155192
1955,0.2999759,-0.84859085,-0.89186054,2.2301984
1956,0.29722252,-0.84544325,-0.891037,2.240493
1957,0.3022836,-0.85041326,-0.89415145,2.2432072
1958,0.3077207,-0.85909086,-0.90325004,2.2397912
1959,0.31548953,-0.8732579,-0.9188613,2.2362192
1960,0.32615364,-0.88624865,-0.9347532,2.2368002
1961,0.3446466,-0.9077204,-0.9609143,2.2403915
1962,0.37780318,-0.9093701,-0.9864747,2.2699983
1963,0.37793902,-0.9050453,-0.9824187,2.281561
1964,0.3780854,-0.9013219,-0.9777379,2.2912943
1965,0.37799206,-0.8969164,-0.97377235,2.3028803
1966,0.37923858,-0.89339024,-0.9690892,2.314391
1967,0.37865475,-0.8892328,-0.96514416,2.3256962
1968,0.3790582,-0.8853813,-0.96085244,2.3357608
1969,0.3794748,-0.88103485,-0.95570093,2.3464682
1970,0.38026974,-0.87748796,-0.9508775,2.3579855
1971,0.3801297,-0.87333614,-0.94717056,2.3677065
1972,0.38035974,-0.86945707,-0.9416604,2.3785334
1973,0.38091397,-0.86509633,-0.93879956,2.3891199
1974,0.34448066,-0.8575279,-0.8974969,2.3656933
1975,0.3257156,-0.8261984,-0.85989666,2.3850708
1976,0.31272033,-0.8073561,-0.8393163,2.4061224
1977,0.29904455,-0.78998834,-0.8229986,2.4268339
1978,0.28926963,-0.7774234,-0.8111331,2.4433105
1979,0.28402463,-0.76889914,-0.8055772,2.4567564
1980,0.2826769,-0.7667575,-0.8045318,2.4659731
1981,0.28624853,-0.7705412,-0.8075252,2.46956
1982,0.29491368,-0.77860117,-0.81566805,2.4685838
1983,0.30839154,-0.7917449,-0.8275299,2.4663246
1984,0.31893906,-0.8050017,-0.8428578,2.4612734
1985,0.3388029,-0.8307608,-0.8739602,2.4615278
1986,0.3784094,-0.8280305,-0.9072342,2.515499
1987,0.37802497,-0.8242708,-0.9028664,2.5255089
1988,0.37889615,-0.8208855,-0.89887494,2.5349905
1989,0.3790809,-0.81737405,-0.8937564,2.5450284
1990,0.3796978,-0.81362057,-0.88990283,2.5555763
1991,0.37959126,-0.8097723,-0.8858246,2.564523
1992,0.4178904,-0.782849,-0.83552676,2.6587155
1993,0.41764688,-0.7801191,-0.8314345,2.6678534
1994,0.37867412,-0.7991355,-0.87164277,2.5921395
1995,0.37948963,-0.79492426,-0.8674633,2.6020763
1996,0.41705084,-0.76866865,-0.8193707,2.6964524
1997,0.37821588,-0.7882034,-0.858078,2.622249
1998,0.33844844,-0.793022,-0.8275512,2.5789764
1999,0.3142067,-0.76426226,-0.79596215,2.5928364
2000,0.30208448,-0.7459691,-0.77716,2.6117907
2001,0.29099706,-0.7293499,-0.7617666,2.6290684
2002,0.2799414,-0.71738654,-0.7524499,2.6439755
2003,0.27420783,-0.70899314,-0.7464549,2.655814
2004,0.27531168,-0.70721513,-0.74440837,2.662565
2005,0.27915326,-0.7105725,-0.7474348,2.6672146
2006,0.28693104,-0.7179454,-0.7548048,2.667539
2007,0.29792815,-0.7303905,-0.7653899,2.6651757
2008,0.30849287,-0.7447753,-0.779887,2.6629372
2009,0.33291852,-0.76893646,-0.8048858,2.6655667
2010,0.3748395,-0.75205535,-0.8216947,2.729744
2011,0.3750374,-0.74936813,-0.8165732,2.7388718
2012,0.37414253,-0.7455179,-0.81302315,2.748111
2013,0.37483072,-0.7424395,-0.80723804,2.7568104
2014,0.37454233,-0.738734,-0.8033405,2.7650607
2015,0.3751682,-0.73612475,-0.79957914,2.7740152
2016,0.37593272,-0.7324665,-0.7949546,2.7822502
2017,0.37463954,-0.7296205,-0.7904065,2.7910688
2018,0.37537763,-0.7262192,-0.78644896,2.7989922
2019,0.37529036,-0.72287863,-0.78160715,2.8080037
2020,0.3757348,-0.71993905,-0.7774094,2.8151162
2021,0.375881,-0.7172503,-0.7735625,2.8235893
2022,0.33149657,-0.7321873,-0.75874573,2.7686121
2023,0.2803484,-0.621857,-0.51184994,2.677184
2024,0.29845336,-0.687082,-0.7147002,2.7966678
2025,0.28711942,-0.6694991,-0.6999221,2.812561
2026,0.28074667,-0.65932626,-0.68908006,2.8252819
2027,0.27523264,-0.6510208,-0.6841075,2.8357832
2028,0.2747697,-0.64929134,-0.682864,2.84187
2029,0.27820018,-0.65273625,-0.68620515,2.8466198
2030,0.28613153,-0.660937,-0.6923817,2.846734
2031,0.29481548,-0.67390925,-0.705319,2.8454578
2032,0.30347762,-0.6891117,-0.71751195,2.8415604
2033,0.32477948,-0.70985633,-0.73935086,2.846646
2034,0.3695202,-0.6878955,-0.7366905,2.9221437
2035,0.3695719,-0.6845126,-0.7326662,2.9296064
2036,0.36982715,-0.68237305,-0.72842646,2.936943
2037,0.3693231,-0.6789115,-0.7253637,2.9448557
2038,0.36938873,-0.676503,-0.72057754,2.951955
2039,0.36895368,-0.67439526,-0.7161796,2.9584014
2040,0.36747825,-0.6711797,-0.712547,2.9658954
2041,0.3674707,-0.6683499,-0.70829636,2.9728673
2042,0.36834893,-0.6657073,-0.7040164,2.9803555
2043,0.36717007,-0.6627272,-0.7013772,2.9878314
2044,0.36746073,-0.6598354,-0.69688916,2.9940097
2045,0.36673427,-0.65763307,-0.6931896,3.0013397
2046,0.32181814,-0.6775229,-0.6972894,2.943185
2047,0.2997876,-0.6556094,-0.67703724,2.9496887
2048,0.29105023,-0.6393108,-0.6633099,2.9629095
2049,0.2788976,-0.62190247,-0.6466442,2.9787903
2050,0.2708887,-0.6111743,-0.6372342,2.988905
2051,0.26613775,-0.60344404,-0.6313388,2.997799
2052,0.2656237,-0.6020747,-0.63053316,3.0049179
2053,0.2688615,-0.605843,-0.6324002,3.0071545
2054,0.27436516,-0.6130121,-0.6397947,3.0098975
2055,0.28167787,-0.62680215,-0.65183455,3.0080492
2056,0.29160306,-0.6382796,-0.66140336,3.0068328
2057,0.31121314,-0.65399,-0.67616504,3.0143487
2058,0.35854617,-0.63104695,-0.6597067,3.085253
2059,0.35763434,-0.6287098,-0.65564823,3.0916736
2060,0.3580936,-0.6253508,-0.6521804,3.0990314
2061,0.356909,-0.623061,-0.6486601,3.1055164
2062,0.35618976,-0.619834,-0.64532524,3.112997
2063,0.35657367,-0.6178754,-0.64139074,3.11964
2064,0.35592255,-0.61491036,-0.6371853,3.1263819
2065,0.35602036,-0.61193275,-0.63400716,3.1322908
2066,0.35533032,-0.6091835,-0.6308882,3.1391847
2067,0.35515884,-0.6074223,-0.62667274,3.146485
2068,0.39060485,-0.58851045,-0.5976129,3.2417676
2069,0.35439643,-0.60153216,-0.62022376,3.15862
2070,0.30798742,-0.61851174,-0.631602,3.0977566
2071,0.2870022,-0.5999957,-0.612876,3.1011279
2072,0.27835718,-0.5806878,-0.59482837,3.1143122
2073,0.2684169,-0.56270015,-0.5786125,3.127121
2074,0.2619116,-0.54981124,-0.565309,3.1354544
2075,0.2566726,-0.5422083,-0.55795187,3.143953
2076,0.25572434,-0.54071575,-0.5564348,3.1494548
2077,0.2585591,-0.5428825,-0.5588987,3.153101
2078,0.2651551,-0.55255187,-0.567245,3.1540442
2079,0.2722857,-0.56647253,-0.58046657,3.1530907
2080,0.27896294,-0.57966,-0.59417236,3.1516035
2081,0.29614606,-0.5984043,-0.6045459,3.1584778
2082,0.34380212,-0.5774591,-0.5905375,3.2328842
2083,0.34426296,-0.5735069,-0.58733815,3.239851
2084,0.3439622,-0.5717061,-0.58240515,3.245827
2085,0.34312537,-0.5681178,-0.5785665,3.252987
2086,0.34247687,-0.56421185,-0.5750519,3.2583354
2087,0.3429815,-0.56242263,-0.5708023,3.264455
2088,0.48114052,-0.52828074,-0.49638882,3.362315
2089,0.44362584,-0.49151453,-0.48944822,3.3198328
2090,0.4771372,-0.47737813,-0.3228398,3.2752254
2091,0.46420982,-0.468001,-0.33553115,3.2108746
2092,0.18673785,-0.35096,-0.3251579,2.9193
2093,0.13407637,-0.49132285,-0.45057145,3.0077484
2094,0.23442626,-0.46194234,-0.315398,3.101618
2095,0.21846046,-0.4285678,-0.29111147,3.084626
2096,0.23598476,-0.3813131,-0.34780678,3.2650602
2097,0.19512005,-0.35476097,-0.48794094,3.1869676
2098,0.15431982,-0.29668579,-0.3125417,3.2972686
2099,0.24314626,-0.3738568,-0.35375857,3.1984665
2100,0.20172791,-0.32615066,-0.36861435,3.1389408
2101,0.09986497,-0.35212174,-0.865279,3.116556
2102,0.080227315,-0.17573309,-1.1833752,2.9426758
2103,0.2561891,-0.2975388,-0.6188934,2.863329
2104,-0.05449438,-0.24507868,-1.5179721,2.2778711
2105,0.013364802,-0.19893038,-1.9048299,2.6287699
2106,0.0057668486,-0.6865334,-2.5646074,1.8432035
2107,0.15943365,-0.65512216,-2.3324869,1.1720623
2108,0.13360904,-0.67085665,-2.3605216,1.787723
2109,0.060341597,-0.3416449,-2.229023,1.3457794
2110,0.032862443,-0.5477502,-2.7357557,1.772456
2111,0.16136171,-0.31928444,-2.924844,0.9514106
