timestep,K2064010,V4145210,V5004030,V5015210
0,0.268301,-1.2018167,-2.5098326,5.226588
1,0.28560188,-1.0080904,-2.310229,5.166352
2,0.42785618,-1.1203337,-2.1450217,4.9819875
3,0.37639332,-1.0008698,-1.8526725,4.7980027
4,0.058190774,-1.0250186,-1.9127547,4.815784
5,0.05821805,-1.0246485,-1.9115769,4.8163657
6,0.14334567,-0.9256873,-1.7580651,4.910538
7,0.42331848,-1.0163101,-1.7350734,4.806241
8,0.18055181,-0.88275415,-1.7228227,4.943707
9,0.19806509,-0.88038325,-1.7257344,4.9505067
10,0.3948648,-1.0154762,-1.7551214,4.8078685
11,0.37904057,-0.5512938,-1.4909387,5.048391
12,0.17890756,-0.5270164,-1.586637,4.9884777
13,0.77204317,-0.7142177,-2.2765558,5.369636
14,0.3161712,-0.44425488,-1.7895346,5.0648503
15,0.22183882,-0.71156454,-1.4952554,5.6327596
16,0.17799209,-0.73456025,-1.5732397,5.5314612
17,0.044395227,-0.38851497,-1.5796622,4.9491057
18,0.06745645,-1.0049759,-1.8858432,4.830349
19,0.06755608,-1.0021186,-1.8842953,4.8319454
20,0.06758517,-1.0012904,-1.883646,4.832535
21,0.067596726,-1.0008947,-1.883185,4.8328543
22,0.06760785,-1.0005833,-1.8827614,4.83311
23,0.06761678,-1.0002886,-1.8823441,4.8333488
24,0.06762662,-0.99999624,-1.8819281,4.8335853
25,0.0676352,-0.9997044,-1.8815113,4.8338194
26,0.06764426,-0.99941397,-1.8810959,4.8340545
27,0.067654766,-0.9991231,-1.8806804,4.8342896
28,0.06766317,-0.99883175,-1.8802644,4.8345227
29,0.067672394,-0.99853754,-1.879848,4.8347583
30,0.15260679,-0.8987167,-1.7223471,4.9258037
31,0.1746761,-0.8705303,-1.6953207,4.9491534
32,0.18877979,-0.86006594,-1.6890173,4.956072
33,0.20580207,-0.8575631,-1.6937984,4.9612947
34,0.2163428,-0.85620326,-1.6994845,4.9628367
35,0.22195573,-0.85616326,-1.7039498,4.9640203
36,0.22161527,-0.8569316,-1.7041098,4.9646106
37,0.21532519,-0.8584323,-1.6999335,4.9646397
38,0.20420046,-0.86087966,-1.6939949,4.9642186
39,0.18768866,-0.86366314,-1.6885628,4.9614315
40,0.17352629,-0.8741866,-1.6941633,4.956085
41,0.15127091,-0.9018202,-1.7208624,4.9341817
42,0.06716392,-1.0037049,-1.8823519,4.846276
43,0.067165375,-1.0034391,-1.8819462,4.8464904
44,0.06716663,-1.0031722,-1.88154,4.8467016
45,0.067169435,-1.0029062,-1.8811349,4.846916
46,0.06717072,-1.00264,-1.8807287,4.8471265
47,0.067172624,-1.0023738,-1.8803234,4.847338
48,0.067174666,-1.002109,-1.8799176,4.847553
49,0.06717601,-1.0018424,-1.8795123,4.8477635
50,0.0671772,-1.0015761,-1.8791062,4.847977
51,0.06717984,-1.0013105,-1.8787006,4.848189
52,0.06718082,-1.0010434,-1.8782959,4.8484025
53,0.06718262,-1.0007777,-1.8778912,4.848615
54,0.14069869,-0.90762377,-1.7250062,4.9310083
55,0.15862043,-0.87898654,-1.69489,4.953954
56,0.16864069,-0.8674819,-1.6858407,4.963424
57,0.17948379,-0.86094636,-1.6839975,4.968125
58,0.18792415,-0.8599038,-1.6871134,4.9707766
59,0.19269614,-0.85985416,-1.6899668,4.971483
60,0.1925052,-0.8603735,-1.6899959,4.9720426
61,0.18730302,-0.86151344,-1.6871444,4.9723363
62,0.17922278,-0.8632474,-1.684106,4.97163
63,0.168202,-0.8704221,-1.6853161,4.968287
64,0.15805449,-0.88193923,-1.6935152,4.9598293
65,0.14021544,-0.9102102,-1.7238154,4.93857
66,0.067509346,-1.0049077,-1.8788413,4.858269
67,0.067512594,-1.0046414,-1.8784283,4.858483
68,0.06751577,-1.0043734,-1.8780141,4.8586965
69,0.06751869,-1.0041049,-1.8776007,4.858911
70,0.06752213,-1.0038381,-1.8771893,4.8591247
71,0.067524076,-1.0035686,-1.8767763,4.8593373
72,0.06752779,-1.0033015,-1.8763629,4.859552
73,0.067531936,-1.0030336,-1.8759509,4.8597636
74,0.06753411,-1.0027657,-1.8755366,4.8599772
75,0.06753645,-1.0024978,-1.8751239,4.860191
76,0.25748864,-0.96872306,-2.0776126,4.8895645
77,0.35768843,-1.0504107,-1.8739063,4.7911334
78,0.48642746,-0.91154104,-2.010914,4.968127
79,0.4155641,-0.85141134,-2.0178692,5.163942
80,0.56928104,-0.8918283,-1.9117656,4.9627876
81,0.13147362,-0.25437596,-1.7260399,5.0852857
82,0.22322738,-0.7525628,-1.7884527,5.1273193
83,0.20880072,-0.85784936,-1.6811867,4.9801445
84,0.20847408,-0.85827494,-1.6812916,4.981094
85,0.2070368,-0.5117932,-1.7288047,5.0159
86,0.28558573,-0.47186843,-1.7223052,5.025431
87,0.18046673,-0.8674822,-1.6694072,4.9739547
88,0.16783786,-0.8778308,-1.6769651,4.970249
89,0.14700577,-0.9046158,-1.706328,4.952833
90,0.06862036,-1.0016091,-1.8662509,4.873346
91,0.0223519,-0.90807074,-1.6862053,4.904301
92,0.068655394,-1.0008438,-1.8654504,4.8743014
93,0.0686572,-1.0005342,-1.8650141,4.8745666
94,0.068658866,-1.0002314,-1.86459,4.874805
95,0.06866005,-0.9999337,-1.8641723,4.8750353
96,0.068659306,-0.99963313,-1.8637575,4.8752637
97,0.06865942,-0.9993318,-1.8633419,4.8754916
98,0.06866089,-0.99903136,-1.8629265,4.8757176
99,0.068660736,-0.99873084,-1.8625125,4.875946
100,0.06866012,-0.99843425,-1.8620806,4.8761725
101,0.06865919,-0.9981353,-1.8616486,4.8764014
102,0.14899695,-0.9004,-1.7003008,4.957305
103,0.17063458,-0.87310165,-1.6705503,4.9779935
104,0.18385382,-0.86202866,-1.6632266,4.986669
105,0.19622213,-0.85740185,-1.6644931,4.988416
106,0.20564954,-0.85714275,-1.6695415,4.9881988
107,0.21061485,-0.856469,-1.6725626,4.9888597
108,0.21019655,-0.85704833,-1.6726618,4.9895015
109,0.20439021,-0.858785,-1.6698219,4.990105
110,0.19468586,-0.8602478,-1.6654291,4.991804
111,0.18191189,-0.8654893,-1.6639942,4.9913025
112,0.16839401,-0.87699455,-1.6706114,4.983969
113,0.1462792,-0.90514046,-1.7004431,4.9651504
114,0.06793278,-1.0017241,-1.862368,4.885182
115,0.06793389,-1.0014323,-1.8619348,4.88541
116,0.06793776,-1.0011405,-1.8615028,4.885637
117,0.06794106,-1.0008485,-1.8610711,4.8858624
118,0.06794355,-1.000557,-1.8606383,4.886089
119,0.067944326,-1.0002652,-1.8602079,4.886313
120,0.06794575,-0.9999755,-1.859783,4.8865395
121,0.06794698,-0.99968386,-1.8593591,4.886764
122,0.067948826,-0.99939346,-1.8589331,4.886989
123,0.06794924,-0.9991004,-1.8585075,4.887214
124,0.0679515,-0.9988103,-1.8580837,4.887438
125,0.067951076,-0.9985201,-1.8576595,4.8876634
126,0.14748651,-0.90789217,-1.7015777,4.9638743
127,0.16972093,-0.8789143,-1.6687831,4.982508
128,0.1822954,-0.8676603,-1.659934,4.991612
129,0.1956548,-0.85953456,-1.6568583,4.996645
130,0.20379746,-0.85880643,-1.6598209,4.9962983
131,0.20777206,-0.8586917,-1.6614286,4.9958835
132,0.20735393,-0.85919577,-1.6615648,4.9965467
133,0.20259799,-0.8603968,-1.6603336,4.9983253
134,0.1937506,-0.8619178,-1.6575384,4.9998736
135,0.17993693,-0.8705743,-1.660451,4.9961333
136,0.16671695,-0.88265467,-1.6692514,4.9881434
137,0.14429925,-0.9119018,-1.7017509,4.9715323
138,0.0660037,-1.0013983,-1.8582188,4.8957763
139,0.06600669,-1.0011044,-1.8577757,4.896
140,0.06600838,-1.0008096,-1.8573332,4.8962235
141,0.06600985,-1.0005156,-1.8568894,4.8964453
142,0.06601295,-1.0002195,-1.8564469,4.896669
143,0.06601507,-0.9999257,-1.8560039,4.8968925
144,0.06601614,-0.9996305,-1.8555607,4.8971157
145,0.0660173,-0.9993356,-1.855117,4.89734
146,0.06602129,-0.99904186,-1.8546737,4.8975625
147,0.066022016,-0.99874663,-1.8542303,4.8977857
148,0.06602418,-0.9984522,-1.853787,4.898008
149,0.06602693,-0.9981579,-1.8533436,4.8982315
150,0.14543234,-0.9046595,-1.6914687,4.9770875
151,0.16835935,-0.8756995,-1.6607226,4.9952397
152,0.18196665,-0.8637831,-1.6527327,5.0037775
153,0.1949026,-0.85913205,-1.6543702,5.0057063
154,0.20281316,-0.8578994,-1.6570569,5.004392
155,0.20735814,-0.8573661,-1.6593586,5.0042963
156,0.20678186,-0.8579602,-1.6594739,5.004909
157,0.2014823,-0.8596554,-1.6575221,5.0064216
158,0.19295913,-0.86186033,-1.6553426,5.009174
159,0.17935121,-0.8669655,-1.6534292,5.008502
160,0.16523607,-0.8798642,-1.6619877,5.001127
161,0.14176692,-0.9099464,-1.6932243,4.9847984
162,0.063975126,-1.0019892,-1.8547536,4.9065776
163,0.0639739,-1.0017015,-1.854321,4.906797
164,0.06397149,-1.0014126,-1.8538893,4.9070163
165,0.06397141,-1.001124,-1.8534569,4.9072375
166,0.06397026,-1.0008353,-1.8530241,4.9074574
167,0.06396839,-1.0005472,-1.8525923,4.907678
168,0.06396937,-1.0002589,-1.8521587,4.9078956
169,0.06396684,-0.9999714,-1.8517269,4.908117
170,0.06396646,-0.9996818,-1.8512954,4.908335
171,0.42665705,-1.0965286,-1.8864993,4.7598157
172,0.0050312974,-0.9013166,-1.6591063,4.927456
173,0.02195386,-0.94115144,-1.89748,5.076759
174,0.14391942,-0.90584475,-1.6866208,4.986996
175,0.168117,-0.8759485,-1.6553515,5.0039
176,0.18230169,-0.8637452,-1.6469842,5.0120807
177,0.22089548,-0.5015806,-1.7284609,5.0948796
178,0.16594262,-0.40945077,-1.6522928,5.234841
179,0.46020898,-1.0083873,-1.6871556,4.830052
180,0.52509207,-0.8115802,-1.9988075,5.180987
181,0.6394707,-0.8707907,-2.2583175,5.6160483
182,0.72990924,-0.6631711,-2.1606634,4.974907
183,0.7726145,-0.8849461,-2.1934893,4.770657
184,0.41351807,-0.9503138,-1.6975864,4.9656677
185,0.51116425,-1.1537753,-2.1480093,4.674579
186,0.4464629,-1.1855195,-2.4040549,4.993752
187,0.22490929,-1.2499315,-2.4150217,5.067678
188,0.26321515,-1.0892519,-2.4626052,5.187943
189,0.1834415,-1.3267239,-2.3956819,5.064817
190,0.3244567,-1.2470025,-2.6200736,4.4737477
191,0.41978928,-1.2723786,-2.3757162,3.8363857
192,-0.16695118,-0.9669623,-1.8722578,4.6862216
193,5.6107838e-05,-0.7392871,-1.7682742,4.5773435
194,0.075715475,-1.0087067,-1.7764088,4.779136
195,0.082749695,-0.9687516,-1.7396363,4.881129
196,0.08526179,-0.95394164,-1.7261852,4.9198422
197,0.08605678,-0.9490544,-1.7216166,4.9325757
198,0.15782954,-0.8613799,-1.5634876,5.0114274
199,0.17927511,-0.8320516,-1.5336369,5.0284305
200,0.19052017,-0.8215699,-1.5270759,5.034735
201,0.21643396,-0.7459569,-1.4309303,5.153551
202,0.20820646,-0.8159967,-1.5322906,5.032619
203,0.21241589,-0.81549376,-1.5351783,5.0327106
204,0.21191156,-0.81603223,-1.5352317,5.0335994
205,0.20702069,-0.81764627,-1.5326067,5.0353875
206,0.19997545,-0.82019734,-1.5292739,5.0390434
207,0.19247143,-0.809387,-1.6540233,4.9788594
208,0.18902616,-0.76662105,-1.6969442,5.0021024
209,0.098210774,-0.8061769,-1.5064573,5.061703
210,0.37900367,-0.95559305,-1.871559,5.305183
211,0.33072865,-1.1061883,-1.8551935,4.725084
212,0.06857753,-0.9520049,-1.7163792,4.9452114
213,0.07625001,-0.9503367,-1.7149967,4.948157
214,0.027083168,-0.8877905,-1.814741,5.038095
215,-0.0037594337,-0.7996154,-1.6738658,5.1749477
216,0.08394878,-0.9487124,-1.7136887,4.9489837
217,0.084212355,-0.94811606,-1.7129531,4.9503503
218,0.084287144,-0.94769,-1.7123977,4.951096
219,0.0131629305,-0.55865806,-1.6111283,4.962446
220,0.0843527,-0.947474,-1.7116987,4.9516478
221,0.084353834,-0.94669944,-1.7110453,4.952013
222,0.11549281,-0.41321468,-1.6155316,5.181433
223,0.41221762,-0.8945074,-1.5046158,5.0460505
224,0.36044368,-0.86428434,-1.5361805,5.020815
225,0.2349251,-0.7423573,-1.4130238,5.19562
226,0.20571047,-0.81453913,-1.5269438,5.0448556
227,0.21052511,-0.813797,-1.5313187,5.0457044
228,0.37887195,-0.858071,-1.5421433,5.0224023
229,0.2040445,-0.8166649,-1.5276092,5.047329
230,0.196644,-0.81956404,-1.5226473,5.050773
231,0.18543263,-0.82448274,-1.5184404,5.0539994
232,0.17390843,-0.8335493,-1.5218953,5.0524826
233,0.15198717,-0.86295485,-1.5501527,5.0400896
234,0.08218842,-0.9510488,-1.7128891,4.962559
235,0.082179576,-0.95075727,-1.7124518,4.962794
236,0.0821696,-0.95047086,-1.712026,4.963013
237,0.08215799,-0.950186,-1.7116045,4.963222
238,0.082145534,-0.94990236,-1.7111839,4.963432
239,0.082134895,-0.94962114,-1.7107643,4.9636383
240,0.08212236,-0.9493353,-1.7103435,4.963845
241,0.08211141,-0.9490521,-1.7099246,4.9640517
242,0.08209887,-0.94876814,-1.7095052,4.9642587
243,0.082087845,-0.9484851,-1.7090849,4.9644656
244,0.082075685,-0.9482004,-1.7086657,4.9646726
245,0.08206523,-0.9479165,-1.7082472,4.9648795
246,0.1509091,-0.86562234,-1.5513506,5.039721
247,0.17189662,-0.8364895,-1.5210725,5.0527663
248,0.18249746,-0.8262136,-1.5127522,5.0566783
249,0.19374548,-0.82103044,-1.5140553,5.0575385
250,0.20004086,-0.81882,-1.5180718,5.055945
251,0.37188983,-0.8601053,-1.5387439,5.0292335
252,0.36902547,-0.861702,-1.5385495,5.0312734
253,0.19865589,-0.8209029,-1.5188495,5.0582714
254,0.19166768,-0.8245008,-1.5150987,5.0612817
255,0.179756,-0.8305978,-1.5141717,5.0617237
256,0.16862269,-0.8413053,-1.522699,5.059461
257,0.14771862,-0.87051004,-1.552618,5.0486555
258,0.07948061,-0.9519723,-1.7102035,4.9741263
259,0.07947033,-0.9516862,-1.709786,4.9743447
260,0.079459615,-0.9514039,-1.7093753,4.9745517
261,0.07944656,-0.951122,-1.7089673,4.974753
262,0.07943495,-0.9508402,-1.7085601,4.974953
263,0.07942358,-0.9505594,-1.7081532,4.975153
264,0.079410695,-0.95027685,-1.7077469,4.975353
265,0.07939872,-0.9499955,-1.7073399,4.9755535
266,0.079388,-0.9497147,-1.7069336,4.9757524
267,0.0793752,-0.94943315,-1.7065264,4.9759526
268,0.07936414,-0.949152,-1.7061205,4.9761524
269,0.07935146,-0.9488705,-1.7057147,4.976352
270,0.14194812,-0.8731386,-1.5543327,5.0496917
271,0.16047174,-0.84386355,-1.5233811,5.0620227
272,0.17018272,-0.8330088,-1.5131559,5.066329
273,0.17977904,-0.82512003,-1.5092139,5.069092
274,0.18627703,-0.8230755,-1.5109204,5.068888
275,0.18884905,-0.82243496,-1.5129925,5.0683103
276,0.1884435,-0.8230205,-1.5132775,5.0689588
277,0.18513285,-0.82484674,-1.5117841,5.0708375
278,0.17779915,-0.8278883,-1.511002,5.072332
279,0.16792631,-0.8366285,-1.5153955,5.0708895
280,0.1579135,-0.8476529,-1.52516,5.0681243
281,0.13921413,-0.8772356,-1.5557376,5.0572414
282,0.07703853,-0.95230603,-1.7074975,4.984173
283,0.07702488,-0.9520262,-1.707079,4.9843807
284,0.07701013,-0.9517484,-1.7066671,4.984581
285,0.076994695,-0.9514716,-1.7062551,4.9847775
286,0.07698003,-0.9511942,-1.705845,4.984974
287,0.07696458,-0.9509178,-1.7054363,4.985168
288,0.07694828,-0.9506405,-1.7050253,4.9853644
289,0.07693285,-0.95036453,-1.7046164,4.9855595
290,0.07691709,-0.9500887,-1.7042164,4.985755
291,0.0769021,-0.9498108,-1.7038201,4.985949
292,0.07688573,-0.9495333,-1.7034236,4.986145
293,0.076871045,-0.94925743,-1.7030282,4.9863415
294,0.13723622,-0.87700385,-1.5545996,5.05839
295,0.1554691,-0.8476861,-1.5234923,5.0701966
296,0.16470025,-0.8369941,-1.5128039,5.0742764
297,0.37990287,-0.9246146,-1.5296992,4.9885273
298,0.36334357,-1.2293288,-1.7976805,4.156871
299,0.052080452,-1.050311,-1.9970751,4.942552
300,0.38674736,-0.8819203,-2.3189995,4.773128
301,0.036455322,-0.4450651,-1.7678593,4.830215
302,0.13888358,-0.86514306,-1.6282835,4.8930144
303,0.15678139,-0.8385983,-1.5295242,5.007431
304,0.15651876,-0.83588094,-1.4962482,5.0537333
305,0.42822242,-0.9714668,-1.5544332,4.9226384
306,0.39750418,-1.0270292,-1.8943138,5.141912
307,0.43711486,-1.0567824,-1.8934073,5.065819
308,0.44010857,-0.71490526,-1.9132313,5.371525
309,-0.021259516,-0.7296131,-1.6286124,5.29081
310,0.31143343,-1.3360567,-2.2065718,5.106871
311,0.29773378,-1.2386662,-2.1819146,4.8597713
312,-0.2073458,-1.3780636,-1.5005773,5.316596
313,0.017548392,-0.6825359,-1.6926664,4.8090725
314,0.08795319,-0.9569211,-1.6901665,4.9154115
315,0.091704555,-0.91630346,-1.64373,4.9697356
316,0.09300894,-0.9032323,-1.6272036,4.990026
317,0.09343354,-0.89932585,-1.6215969,4.9967422
318,0.15023378,-0.8298018,-1.4717102,5.067715
319,0.16696517,-0.8017655,-1.4412915,5.0789695
320,0.17566998,-0.7917617,-1.4320564,5.082222
321,0.18395142,-0.78287363,-1.42735,5.0847654
322,0.44668445,-0.92222285,-1.47439,4.9248695
323,0.1914758,-0.77983475,-1.4294416,5.0837884
324,0.1911128,-0.7803264,-1.4297594,5.084618
325,0.18825455,-0.781735,-1.4285067,5.0873795
326,0.33743182,-0.7881956,-1.3721136,5.1489997
327,0.38559595,-0.8992059,-1.475351,4.9820027
328,0.16457902,-0.80481106,-1.4416236,5.0863175
329,0.1478519,-0.83242154,-1.4711157,5.0774307
330,0.091717966,-0.8950737,-1.6183949,5.009062
331,0.09171484,-0.8947499,-1.6179309,5.009298
332,0.09170542,-0.89443445,-1.6175003,5.0095043
333,-0.14351402,-0.11888353,-1.6447517,5.148068
334,0.0912484,-0.89628583,-1.616303,5.0020275
335,0.09145244,-0.89479727,-1.6159896,5.0059605
336,0.09158078,-0.8937122,-1.6156639,5.0086093
337,0.091629945,-0.8930631,-1.6152916,5.0098796
338,0.09163943,-0.8926336,-1.6148955,5.010449
339,0.091634564,-0.89228874,-1.6144918,5.010754
340,0.0916213,-0.89197,-1.6140858,5.0109754
341,0.09161061,-0.8916604,-1.6136775,5.0111737
342,0.15096228,-0.82736665,-1.4635137,5.0798507
343,0.16834529,-0.799704,-1.434063,5.089231
344,0.1776727,-0.78981185,-1.4259676,5.0918965
345,0.18618624,-0.78221554,-1.4224733,5.0937676
346,0.19189982,-0.78006244,-1.4243389,5.092823
347,0.1942663,-0.77899617,-1.4264306,5.091815
348,0.19390507,-0.77952534,-1.4267207,5.092728
349,0.1908195,-0.78165895,-1.4251329,5.095537
350,0.18456423,-0.7846789,-1.4236594,5.097849
351,0.17569216,-0.7929432,-1.4269563,5.0976815
352,0.1235528,-0.4518361,-1.4433168,5.188315
353,0.11889773,-0.63678074,-1.6110028,5.540385
354,0.08981228,-0.9096537,-1.62719,4.9922957
355,0.09056735,-0.8951018,-1.6160351,5.008187
356,0.09097021,-0.88840896,-1.6102694,5.0164337
357,0.09112286,-0.8859079,-1.6079735,5.0197263
358,0.091165334,-0.8849592,-1.6070274,5.020902
359,0.09117087,-0.88448024,-1.6064878,5.0213647
360,0.091164134,-0.88412696,-1.6060524,5.021618
361,0.091153204,-0.8838026,-1.6056436,5.021818
362,0.09114238,-0.8834858,-1.6052375,5.022003
363,0.09113117,-0.88316995,-1.6048337,5.0221863
364,0.091119915,-0.8828545,-1.6044294,5.022368
365,0.091109775,-0.8825404,-1.6040245,5.022549
366,0.15006968,-0.8214082,-1.451994,5.0919685
367,0.16689812,-0.79463696,-1.4242929,5.099898
368,0.17623608,-0.7842812,-1.4166521,5.1023602
369,0.18429686,-0.77855873,-1.4166588,5.103662
370,0.18935353,-0.7761491,-1.4203157,5.1009774
371,0.19149293,-0.77496314,-1.4228153,5.099836
372,0.19107445,-0.775584,-1.4229044,5.100818
373,0.18809068,-0.77796715,-1.4212961,5.1036334
374,0.18204738,-0.7815073,-1.4189774,5.107406
375,0.17370653,-0.78804135,-1.419292,5.1075397
376,0.16415982,-0.7987416,-1.4270424,5.1065116
377,0.14707382,-0.8250602,-1.4539715,5.100033
378,0.088792376,-0.8802819,-1.6057447,5.0319066
379,0.088781714,-0.8799527,-1.6053041,5.0321193
380,0.08876398,-0.87963057,-1.6048888,5.032309
381,0.08874819,-0.87931186,-1.6044822,5.0324883
382,0.08873027,-0.87899494,-1.6040827,5.0326657
383,0.0887137,-0.8786781,-1.603682,5.0328426
384,0.088696904,-0.8783617,-1.6032816,5.0330186
385,0.08867967,-0.8780441,-1.6028819,5.033195
386,0.08866324,-0.877728,-1.6024827,5.0333695
387,0.08864519,-0.8774106,-1.6020828,5.0335464
388,0.088628024,-0.8770934,-1.6016833,5.0337214
389,0.08861041,-0.8767767,-1.6012856,5.0338974
390,0.14972381,-0.81959516,-1.4467233,5.1026344
391,0.1675059,-0.7939598,-1.4208628,5.109513
392,0.17681086,-0.78383946,-1.4139622,5.111344
393,0.18534409,-0.7791393,-1.4135698,5.11224
394,0.1905262,-0.77623063,-1.4167315,5.1096263
395,0.19329192,-0.77482224,-1.4184018,5.1095586
396,0.19285756,-0.7755076,-1.4185491,5.1106496
397,0.18898885,-0.7783556,-1.4171534,5.112429
398,0.182867,-0.78246504,-1.4141222,5.1167274
399,0.17356364,-0.78834057,-1.4148455,5.116908
400,0.16393135,-0.7990326,-1.4239435,5.1161704
401,0.14562786,-0.8253806,-1.4514074,5.110742
402,0.08549955,-0.87452316,-1.603993,5.0428843
403,0.08548624,-0.874202,-1.6035733,5.043083
404,0.085467875,-0.8738857,-1.6031727,5.043266
405,0.08545206,-0.87357134,-1.60278,5.043442
406,0.08543432,-0.87325925,-1.6023909,5.043616
407,0.08541755,-0.8729453,-1.6020039,5.0437913
408,0.08539951,-0.8726328,-1.6016141,5.043966
409,0.08538201,-0.8723202,-1.6012243,5.044139
410,0.08536416,-0.87200624,-1.6008353,5.044313
411,0.08534672,-0.8716952,-1.600448,5.0444856
412,0.08532827,-0.87138224,-1.600059,5.04466
413,0.08531246,-0.8710704,-1.5996704,5.044834
414,0.14434366,-0.82102746,-1.446194,5.114069
415,0.16197866,-0.79515344,-1.4183551,5.1205425
416,0.17058639,-0.785419,-1.4105941,5.122549
417,0.17850728,-0.7810152,-1.4106445,5.1230216
418,0.18381721,-0.77784497,-1.4145035,5.121156
419,0.18701498,-0.7762442,-1.4169728,5.122125
420,0.18652797,-0.7771907,-1.4177651,5.1231804
421,0.18234222,-0.7805457,-1.4163078,5.124299
422,0.1758039,-0.7854586,-1.4133369,5.1275105
423,0.16710722,-0.79127294,-1.4138976,5.127954
424,0.30711827,-0.83395284,-1.4556919,5.1213026
425,0.07530438,-0.41425237,-1.5422498,5.154955
426,0.22768438,-0.98658776,-1.5866295,5.124964
427,-0.011863798,-0.7730622,-1.6151396,5.2533965
428,0.082119584,-0.8753469,-1.6176442,5.032294
429,0.08277887,-0.869994,-1.6083847,5.0445557
430,0.08302488,-0.867495,-1.6024653,5.0505223
431,0.08310162,-0.8663737,-1.5993766,5.053004
432,0.08311069,-0.86579514,-1.5978793,5.0539775
433,0.08309672,-0.8654025,-1.597093,5.0543976
434,0.08307656,-0.8650674,-1.596578,5.0546374
435,0.083052635,-0.86474895,-1.5961515,5.0548244
436,0.25849345,-0.9209245,-1.6420774,5.061022
437,0.08299434,-0.86412096,-1.5953642,5.0551643
438,0.14241411,-0.82106113,-1.4415787,5.124021
439,0.16035415,-0.7964423,-1.4122072,5.1293826
440,0.16885383,-0.7873489,-1.4058148,5.1311812
441,0.17737967,-0.78298473,-1.4078137,5.132049
442,0.18388283,-0.7792712,-1.4127417,5.1314273
443,0.18716343,-0.7778173,-1.4164128,5.1323695
444,0.18661349,-0.7787271,-1.4172645,5.1334705
445,0.18228538,-0.78149086,-1.4149584,5.134749
446,0.17464125,-0.7864583,-1.4111794,5.1370807
447,0.16480882,-0.79208344,-1.4088591,5.137068
448,0.15577276,-0.8022764,-1.4156256,5.1363063
449,0.13762508,-0.82666445,-1.4443064,5.1326556
450,0.07905006,-0.86263686,-1.5990572,5.0635533
451,0.079024255,-0.8623193,-1.598611,5.0637403
452,0.0789989,-0.862006,-1.5981797,5.0639186
453,0.07897127,-0.86169416,-1.5977513,5.0640893
454,0.07894311,-0.8613829,-1.5973274,5.06426
455,0.07891374,-0.86107045,-1.5969044,5.0644293
456,0.07888711,-0.86076075,-1.5964804,5.064599
457,0.07885762,-0.8604484,-1.5960566,5.0647697
458,0.07883134,-0.8601373,-1.5956329,5.064939
459,0.07880253,-0.85982513,-1.5952082,5.0651073
460,0.07877457,-0.85951537,-1.5947838,5.0652776
461,0.07874715,-0.85920495,-1.5943607,5.0654464
462,0.13675174,-0.8225927,-1.4388366,5.134579
463,0.15404792,-0.7989822,-1.4103137,5.138826
464,0.16195151,-0.7896714,-1.4047772,5.140819
465,0.17098911,-0.7843434,-1.4075756,5.1428056
466,0.17754324,-0.7802751,-1.4122354,5.142754
467,0.18076825,-0.7786581,-1.415739,5.143786
468,0.18021877,-0.7792277,-1.4163903,5.1449513
469,0.17594337,-0.78190994,-1.4140363,5.1461596
470,0.16827421,-0.78683835,-1.4103559,5.147776
471,0.15801613,-0.79369336,-1.408494,5.1471977
472,0.14933996,-0.80421406,-1.4138409,5.1458836
473,0.13197812,-0.82667154,-1.4404126,5.1432533
474,0.07428651,-0.85824746,-1.5956268,5.074269
475,0.07425841,-0.85793346,-1.5951959,5.0744514
476,0.074228816,-0.8576212,-1.5947752,5.074625
477,0.07419757,-0.85731107,-1.5943551,5.0747957
478,0.074168675,-0.857001,-1.5939398,5.0749664
479,0.07413819,-0.85669094,-1.5935225,5.0751348
480,0.07410725,-0.85638016,-1.5931058,5.0753045
481,0.07407674,-0.8560708,-1.5926915,5.0754743
482,0.07404647,-0.8557615,-1.5922756,5.075644
483,0.074015595,-0.8554513,-1.591858,5.075813
484,0.07398403,-0.85514253,-1.5914407,5.0759807
485,0.07395435,-0.8548319,-1.5910254,5.0761504
486,0.12702481,-0.8252659,-1.4388757,5.1458755
487,0.1417594,-0.80306536,-1.4117414,5.1502213
488,0.14884922,-0.7930519,-1.4054909,5.153023
489,0.15582438,-0.78660506,-1.4067911,5.1556582
490,0.16222814,-0.78226024,-1.4111527,5.156685
491,0.16495913,-0.7807533,-1.4140763,5.1573195
492,0.16449188,-0.78130513,-1.414743,5.158371
493,0.16081618,-0.7839541,-1.4130954,5.1597867
494,0.15360536,-0.78932333,-1.409665,5.160276
495,0.14542039,-0.7973814,-1.4093891,5.1586933
496,0.13768949,-0.8083491,-1.4168617,5.1569853
497,0.12270077,-0.8297096,-1.4419967,5.153393
498,0.06969642,-0.8542797,-1.5942382,5.084266
499,0.06966835,-0.85396814,-1.593811,5.084442
500,0.06963856,-0.85365963,-1.5933887,5.0846114
501,0.06960755,-0.8533518,-1.5929707,5.0847797
502,0.06957632,-0.8530434,-1.5925535,5.084947
503,0.06954571,-0.8527344,-1.5921359,5.085113
504,0.06951574,-0.85242724,-1.5917192,5.0852795
505,0.06948361,-0.85211927,-1.5913028,5.0854473
506,0.069453366,-0.8518111,-1.5908853,5.0856133
507,0.06942258,-0.851504,-1.5904676,5.085781
508,0.069392,-0.8511965,-1.5900513,5.085947
509,0.06936178,-0.8508878,-1.5896341,5.0861144
510,0.122071184,-0.830987,-1.4435726,5.1534715
511,0.1368638,-0.8099049,-1.4167823,5.1574492
512,0.14455149,-0.79996866,-1.4089013,5.1606946
513,0.15151522,-0.7922945,-1.4062568,5.163367
514,0.1569509,-0.7873604,-1.4077129,5.1657405
515,0.16010152,-0.78562695,-1.4106144,5.166759
516,0.15954977,-0.7861874,-1.4115404,5.1676555
517,0.1553436,-0.78902787,-1.4103862,5.168285
518,0.14894544,-0.79515237,-1.4102601,5.1674385
519,0.14075802,-0.80395794,-1.4142064,5.165795
520,0.13245295,-0.81463605,-1.4230952,5.1635766
521,0.11733458,-0.8348825,-1.4489914,5.1602826
522,0.06504956,-0.8501031,-1.5921578,5.093519
523,0.065017305,-0.8497967,-1.5917444,5.0936885
524,0.06498488,-0.8494897,-1.5913363,5.093855
525,0.06495275,-0.8491845,-1.5909309,5.0940194
526,0.06492015,-0.8488798,-1.5905252,5.0941834
527,0.0154698985,-0.42462483,-1.4553246,5.0999045
528,0.064856865,-0.8482762,-1.5897154,5.094509
529,0.04093806,-0.87131125,-1.6743876,5.185133
530,0.06479218,-0.8476648,-1.5888958,5.0948076
531,0.020715514,-0.8452924,-1.6468903,5.189111
532,0.36982727,-0.9699897,-1.6457939,5.0306263
533,0.53996116,-1.0683681,-1.8849535,5.173199
534,0.50080985,-0.9808232,-1.8205985,5.195974
535,0.509178,-1.0404538,-2.0231018,5.4405723
536,0.46555552,-1.0017978,-2.172889,5.419609
537,0.09582325,-0.34608272,-1.6592821,5.2425256
538,0.46556807,-0.9377783,-1.5686299,5.147948
539,0.62766266,-0.57956654,-1.9112635,5.25907
540,0.540767,-0.8609294,-1.9095039,4.5905757
541,0.4138566,-0.7308214,-1.9878359,5.2819715
542,0.3943191,-0.8461087,-2.2299438,5.1823177
543,0.35607722,-0.8829172,-2.0673635,5.0499506
544,0.273328,-0.84505314,-2.2570322,5.243837
545,0.3295734,-0.9283019,-1.8657676,5.261345
546,0.018561175,-0.8448728,-1.6243263,5.0638423
547,0.5307284,-1.070232,-1.9414983,5.12468
548,0.37591755,-0.97630125,-1.4971337,5.068466
549,0.41409627,-1.0053986,-1.7873045,5.2244797
550,0.4597905,-0.98067063,-1.8278013,5.0844016
551,-0.14553921,-0.3936546,-1.4104775,5.201658
552,-0.14272189,-0.5110238,-1.7156733,5.2265406
553,-0.12564833,-0.5973424,-1.6690892,5.187641
554,-0.15506084,-0.26828077,-1.3882824,5.1488442
555,-0.099980615,-0.360536,-1.2918499,5.3652415
556,0.07529146,-0.831865,-1.5369296,5.072908
557,-0.05684358,-0.63587195,-1.7792878,5.2611313
558,0.019451618,-0.52261764,-1.522883,5.275169
559,0.4395478,-0.8898923,-1.4774572,5.2292447
560,0.3153486,-0.9369374,-1.4313108,5.1837163
561,0.13716583,-0.7851317,-1.1535987,5.285274
562,0.13016447,-0.7657979,-1.3534136,5.167457
563,0.15053098,-0.7602264,-1.3521428,5.1766586
564,0.15743777,-0.7592985,-1.3497897,5.1812267
565,0.15638773,-0.7617481,-1.3465185,5.1836185
566,0.1513207,-0.7684298,-1.3425446,5.184219
567,0.14294527,-0.7775631,-1.3409346,5.1816907
568,0.13529308,-0.78877515,-1.3489436,5.179878
569,0.1211155,-0.8059211,-1.3718017,5.175259
570,0.07192861,-0.81477255,-1.5097961,5.111669
571,0.07189834,-0.8144612,-1.509324,5.1118655
572,0.071860135,-0.81415826,-1.5088962,5.112035
573,0.0718227,-0.8138593,-1.5084883,5.1121936
574,0.07178185,-0.8135621,-1.5080853,5.112348
575,0.07174105,-0.8132648,-1.5076871,5.1125016
576,0.071700595,-0.8129668,-1.5072875,5.1126556
577,0.07165927,-0.81266946,-1.5068887,5.1128087
578,0.07161876,-0.812373,-1.5064908,5.112963
579,0.07157844,-0.81207514,-1.5060936,5.1131153
580,0.07153773,-0.81177855,-1.5056949,5.1132693
581,0.07149589,-0.8114814,-1.5052963,5.113421
582,0.120509796,-0.80245686,-1.3709836,5.1770816
583,0.13400386,-0.7888515,-1.3470259,5.182071
584,0.14080806,-0.77903587,-1.3389796,5.185133
585,0.14855224,-0.7702486,-1.3375577,5.189468
586,0.15350768,-0.7647986,-1.3408307,5.192362
587,0.15543734,-0.76218563,-1.3432937,5.193815
588,0.1547616,-0.76277095,-1.3439792,5.1948733
589,0.1518531,-0.7665394,-1.3428878,5.195481
590,0.14601214,-0.7730686,-1.3407683,5.1943564
591,0.13712777,-0.7831232,-1.3429068,5.191219
592,0.12947068,-0.79356307,-1.3513298,5.18939
593,0.1159498,-0.80296487,-1.376215,5.185409
594,0.067516334,-0.8111611,-1.5075312,5.121591
595,0.06748294,-0.8108597,-1.5070976,5.1217647
596,0.06744501,-0.81056434,-1.5066963,5.1219177
597,0.067406625,-0.81027156,-1.5063087,5.122066
598,0.06736794,-0.8099799,-1.5059261,5.122209
599,0.06732807,-0.80968934,-1.5055453,5.1223526
600,0.06728902,-0.8093982,-1.5051675,5.1224957
601,0.06724761,-0.80910796,-1.5047938,5.122641
602,0.06720722,-0.80881596,-1.5044209,5.122788
603,0.06716775,-0.808526,-1.5040463,5.1229324
604,0.06712663,-0.8082349,-1.5036741,5.123077
605,0.06708609,-0.8079464,-1.5033008,5.1232247
606,0.11532122,-0.7989997,-1.374467,5.18638
607,0.12758231,-0.7928222,-1.3488663,5.1905217
608,0.13436632,-0.7836208,-1.3409537,5.1934114
609,0.14209554,-0.774231,-1.3373283,5.1976295
610,0.14678119,-0.7691369,-1.3396589,5.200928
611,0.14839973,-0.7664325,-1.3418242,5.202627
612,0.14774437,-0.76700133,-1.3425908,5.2035675
613,0.1448736,-0.77079105,-1.3418955,5.203719
614,0.13933654,-0.7769833,-1.3408755,5.2020354
615,0.13063361,-0.78741425,-1.3452749,5.1988335
616,0.12295746,-0.7972086,-1.3539329,5.1970043
617,0.11058319,-0.79969746,-1.3804153,5.1936326
618,0.06289848,-0.80814534,-1.5069352,5.130583
619,0.06286141,-0.80785537,-1.5065314,5.130743
620,0.062820636,-0.8075688,-1.5061508,5.130892
621,0.062779754,-0.8072831,-1.5057783,5.1310353
622,0.06273689,-0.80699795,-1.5054102,5.1311765
623,0.06269431,-0.80671436,-1.5050435,5.1313167
624,0.06265309,-0.80643004,-1.5046788,5.131458
625,0.06261104,-0.8061445,-1.5043154,5.131598
626,0.062568285,-0.80586195,-1.503955,5.131739
627,0.06252673,-0.80557567,-1.5035919,5.1318793
628,0.062484533,-0.8052922,-1.5032305,5.1320205
629,0.06244253,-0.8050073,-1.5028664,5.1321607
630,0.108587146,-0.797118,-1.3808517,5.1956434
631,0.12933917,-0.55113906,-1.4149066,5.272797
632,0.06893289,-0.43647647,-1.2608788,5.4204364
633,0.05790745,-0.2675409,-1.0900699,5.238119
634,0.13830094,-0.78144866,-1.341334,5.1940618
635,0.1404299,-0.77162856,-1.3396963,5.2053475
636,0.13999139,-0.7691925,-1.339343,5.2107444
637,0.13716634,-0.7714658,-1.3390058,5.2119985
638,0.131572,-0.7779781,-1.3401991,5.2102857
639,0.123983614,-0.7877715,-1.3462423,5.207473
640,0.116005845,-0.793232,-1.3556043,5.2050433
641,0.10576611,-0.79332334,-1.382974,5.200543
642,0.060100894,-0.80043906,-1.5029573,5.138748
643,0.060062427,-0.80013394,-1.5025662,5.1389046
644,0.060020607,-0.79983354,-1.5021915,5.139047
645,0.059975684,-0.79953307,-1.501824,5.1391883
646,0.05993207,-0.7992337,-1.5014602,5.139326
647,0.059888404,-0.79893523,-1.5010947,5.1394634
648,0.059845567,-0.79863596,-1.5007296,5.139601
649,0.059801262,-0.7983369,-1.5003673,5.1397386
650,0.059758067,-0.7980383,-1.5000039,5.139877
651,0.05971415,-0.79773945,-1.4996392,5.140015
652,0.059670668,-0.79743975,-1.4992756,5.1401505
653,0.059627045,-0.7971428,-1.498912,5.1402874
654,0.1069508,-0.7898763,-1.3796822,5.2012753
655,0.11755105,-0.7893266,-1.3524495,5.206419
656,0.12509593,-0.786038,-1.34387,5.209783
657,0.1325584,-0.7770312,-1.3384973,5.214174
658,0.13736643,-0.77085686,-1.337842,5.219149
659,0.13911666,-0.7686035,-1.339003,5.221976
660,0.1384413,-0.7691155,-1.3398248,5.2230296
661,0.1353796,-0.77238363,-1.3402845,5.222197
662,0.12930356,-0.77947885,-1.3423465,5.2183795
663,0.120359145,-0.7894903,-1.349126,5.214123
664,0.11234819,-0.7900786,-1.3583232,5.2115917
665,0.1020588,-0.7908044,-1.3860372,5.205729
666,0.054997683,-0.79713225,-1.5030879,5.146403
667,0.05495583,-0.79683083,-1.5027043,5.146549
668,0.054912716,-0.7965333,-1.5023346,5.1466904
669,0.054867815,-0.79623723,-1.5019708,5.146826
670,0.054822396,-0.79594064,-1.5016102,5.14696
671,0.054777104,-0.79564404,-1.501249,5.147095
672,0.054731965,-0.79534835,-1.5008901,5.1472297
673,0.05468558,-0.7950514,-1.5005307,5.147363
674,0.05464064,-0.79475516,-1.5001712,5.1474986
675,0.054594178,-0.7944591,-1.4998113,5.147633
676,0.05454875,-0.7941642,-1.4994508,5.1477666
677,0.054504376,-0.7938668,-1.4990921,5.147901
678,0.09833291,-0.7871518,-1.3855262,5.2064514
679,0.10621396,-0.7854635,-1.3581294,5.2141185
680,0.112695985,-0.78625387,-1.3491274,5.2178497
681,0.1192655,-0.7806899,-1.3430457,5.2229514
682,0.1237323,-0.7743893,-1.3411207,5.228458
683,0.12555678,-0.7720022,-1.3416759,5.2314067
684,0.12491673,-0.77248144,-1.3425242,5.2323127
685,0.121844254,-0.77582103,-1.3435963,5.23114
686,0.116274424,-0.78294903,-1.3470277,5.2271137
687,0.10842669,-0.78728384,-1.3543054,5.2215633
688,0.10098385,-0.7863114,-1.3643299,5.2185287
689,0.093485445,-0.7883625,-1.3925366,5.210159
690,0.050058167,-0.7943659,-1.503518,5.1529813
691,0.05000939,-0.7940791,-1.5031514,5.1531157
692,0.049959075,-0.7937924,-1.502793,5.1532445
693,0.04990984,-0.79350716,-1.5024403,5.1533713
694,0.049859107,-0.79322386,-1.502087,5.1534963
695,0.04980756,-0.79293936,-1.5017352,5.1536217
696,0.049757283,-0.7926564,-1.5013838,5.1537476
697,0.049705606,-0.792371,-1.5010322,5.153872
698,0.049654502,-0.7920864,-1.5006795,5.153998
699,0.049604636,-0.7918021,-1.5003289,5.154123
700,0.049554516,-0.7915179,-1.4999771,5.1542473
701,0.04950441,-0.7912348,-1.4996251,5.1543717
702,0.0888961,-0.7845451,-1.389286,5.2126975
703,0.09457112,-0.78217334,-1.3616604,5.2226295
704,0.10015976,-0.7830522,-1.3525876,5.2274456
705,0.105935305,-0.7811144,-1.3468469,5.234195
706,0.109933846,-0.77461773,-1.3448893,5.2400775
707,0.111364245,-0.7724335,-1.3455948,5.2429223
708,0.11078154,-0.77289844,-1.3464903,5.24379
709,0.10822015,-0.7760301,-1.3475176,5.242634
710,0.10313636,-0.782697,-1.3511362,5.2382073
711,0.095869035,-0.7841534,-1.3584371,5.232195
712,0.089963496,-0.78354484,-1.3687648,5.227201
713,0.08395973,-0.78602886,-1.3968111,5.216087
714,0.045292985,-0.78868985,-1.5045642,5.1591454
715,0.04524058,-0.78832906,-1.504208,5.1592793
716,0.045188654,-0.7879694,-1.503857,5.159408
717,0.045134366,-0.7876094,-1.5035104,5.1595345
718,0.045079898,-0.78725153,-1.5031656,5.15966
719,0.045026165,-0.78689337,-1.5028208,5.159786
720,0.04497255,-0.7865353,-1.5024753,5.159912
721,0.0449184,-0.7861777,-1.502131,5.1600375
722,0.044866115,-0.7858191,-1.5017862,5.1601634
723,0.044810373,-0.785461,-1.5014434,5.160289
724,0.044757742,-0.7851038,-1.5010971,5.1604156
725,0.044704694,-0.78474385,-1.5007519,5.1605415
726,0.08251399,-0.7822364,-1.3928617,5.217235
727,0.08790967,-0.77968806,-1.3654032,5.2297206
728,0.0927325,-0.78029877,-1.3559685,5.2356973
729,0.099097855,-0.7786986,-1.3498455,5.243263
730,0.10302916,-0.77486825,-1.3479489,5.2490478
731,0.10451993,-0.77258927,-1.34878,5.252024
732,0.103948124,-0.7730816,-1.3497223,5.252901
733,0.101267956,-0.77647835,-1.3508161,5.251472
734,0.096157275,-0.7794909,-1.3543802,5.2472177
735,0.088438116,-0.7815518,-1.3621368,5.240456
736,0.08326283,-0.78123504,-1.3728924,5.2358623
737,0.07717123,-0.7839585,-1.400148,5.2205124
738,0.040265817,-0.78149587,-1.5061725,5.165257
739,0.04020695,-0.7811348,-1.5058211,5.165386
740,0.040146966,-0.7807744,-1.505477,5.165512
741,0.35597095,-0.9849181,-1.313585,5.272707
742,0.4166635,-1.0063039,-1.4699721,4.8002877
743,-0.03473519,-1.0222124,-1.8938221,5.1239567
744,0.06770716,-1.1010798,-1.9292315,5.011798
745,-0.22581862,-0.5264631,-1.3030761,5.1080146
746,-0.12459398,-0.7498283,-1.3165866,5.1068196
747,0.030335685,-0.80242187,-1.5301431,5.092915
748,0.039512794,-0.7781501,-1.4906627,5.141966
749,0.042202014,-0.76945275,-1.4759783,5.1600266
750,0.08492914,-0.769824,-1.3643613,5.2193904
751,0.09207076,-0.7671459,-1.3357474,5.2360115
752,0.024681091,-0.49245512,-1.009519,5.528158
753,0.090614535,-0.40756878,-1.2524863,5.318508
754,0.11285765,-0.76195836,-1.3185023,5.2574787
755,0.14203317,-0.56982774,-1.0415677,5.6099086
756,0.16123544,-0.4589037,-1.240282,5.4197955
757,0.11191528,-0.7675662,-1.3238376,5.2584205
758,0.10548505,-0.7642379,-1.323526,5.2556686
759,0.096104026,-0.7652366,-1.3302746,5.249068
760,0.020492652,-0.3956503,-0.9706951,5.393452
761,0.05732872,-0.6457236,-1.163378,5.5268726
762,0.290215,-0.36626223,-1.3551601,5.2014427
763,0.29089227,-0.8075946,-1.5068578,5.2247453
764,0.04003331,-0.7545224,-1.4684752,5.173035
765,0.039984126,-0.7534899,-1.4678451,5.1737537
766,0.039928336,-0.7529275,-1.4674095,5.1740737
767,0.039868116,-0.7524891,-1.4670161,5.174252
768,0.039809268,-0.75207955,-1.4666328,5.174388
769,0.039747965,-0.7516775,-1.4662498,5.174513
770,0.03968684,-0.7512762,-1.4658681,5.1746364
771,0.03962782,-0.7508761,-1.4654869,5.174756
772,0.03956631,-0.7504758,-1.4651037,5.174875
773,0.039506417,-0.7500756,-1.4647235,5.174997
774,0.076007605,-0.7606964,-1.3629667,5.228333
775,0.081462115,-0.7579866,-1.3370959,5.2472596
776,0.08656457,-0.7576348,-1.3272129,5.2531853
777,0.09387153,-0.75562936,-1.3207154,5.261488
778,0.09830444,-0.75407535,-1.3180364,5.267803
779,0.10026728,-0.7536983,-1.3180075,5.2708964
780,0.09959123,-0.7537002,-1.3188516,5.2717953
781,0.096420534,-0.75460726,-1.3206941,5.2705226
782,0.09071555,-0.756515,-1.3248788,5.2657294
783,0.082078755,-0.75823647,-1.3326155,5.2585177
784,0.07628665,-0.7583309,-1.3434454,5.253937
785,0.070215404,-0.75913334,-1.3670732,5.234274
786,0.034633297,-0.74248475,-1.4665743,5.1803784
787,0.034581054,-0.74208164,-1.4661826,5.1805153
788,0.03452332,-0.7416827,-1.465803,5.1806436
789,0.03446747,-0.741285,-1.4654287,5.180769
790,0.034408003,-0.7408878,-1.465055,5.1808944
791,0.034348685,-0.74049205,-1.4646825,5.1810174
792,0.03428951,-0.7400958,-1.4643105,5.1811404
793,0.03423046,-0.73969954,-1.4639387,5.1812644
794,0.03417303,-0.7393027,-1.4635671,5.1813884
795,0.034114778,-0.73890567,-1.463193,5.181513
796,0.03405701,-0.73850936,-1.4628215,5.1816316
797,0.033999324,-0.73811656,-1.4624468,5.1817517
798,0.07205951,-0.75719315,-1.3677543,5.23192
799,0.078869164,-0.75500184,-1.3464526,5.250629
800,0.08307192,-0.75473183,-1.3344183,5.257164
801,0.20522292,-0.7739899,-1.3155836,5.356211
802,0.09582739,-0.75212413,-1.3212475,5.270342
803,0.09811293,-0.7508536,-1.318986,5.2738757
804,0.04858045,-0.20375651,-1.0746719,5.3033385
805,0.093822084,-0.7517133,-1.3215377,5.2727437
806,0.08740208,-0.7529014,-1.3270482,5.268114
807,0.07920755,-0.75347805,-1.3370072,5.262304
808,0.073800184,-0.75328565,-1.3501415,5.25533
809,0.06611637,-0.753284,-1.3711473,5.2370834
810,0.029041788,-0.7311118,-1.4637858,5.186663
811,0.028986821,-0.73072654,-1.4633616,5.186791
812,0.18295662,-0.76804376,-1.5243796,5.232725
813,0.028865874,-0.7299647,-1.4625233,5.187034
814,0.028805465,-0.72958344,-1.4621111,5.1871505
815,0.028747678,-0.72920495,-1.4616995,5.1872654
816,0.02868712,-0.7288253,-1.4612904,5.187381
817,0.02862697,-0.72844434,-1.460878,5.1874986
818,0.028567651,-0.72806334,-1.4604654,5.1876163
819,0.028508922,-0.72768253,-1.4600539,5.1877327
820,0.028449923,-0.72730047,-1.45964,5.187851
821,0.028390786,-0.7269204,-1.4592277,5.1879673
822,0.065950155,-0.74870247,-1.3650185,5.239801
823,0.073265076,-0.7495392,-1.3416835,5.259308
824,0.078612335,-0.7494807,-1.327919,5.266681
825,0.08648933,-0.7482421,-1.318019,5.2746825
826,0.091982014,-0.74563694,-1.3129116,5.280889
827,0.09416627,-0.7427626,-1.3106865,5.2841735
828,0.09342136,-0.7424764,-1.3108302,5.284971
829,0.08976831,-0.74482936,-1.313301,5.283243
830,0.0829284,-0.74778414,-1.3187776,5.2785397
831,0.07442444,-0.74942493,-1.3293968,5.2719874
832,0.068074346,-0.7497751,-1.343072,5.2640996
833,0.05969143,-0.74516517,-1.3673235,5.24515
834,0.023008773,-0.7203476,-1.4600478,5.192835
835,0.022952488,-0.71996146,-1.4596233,5.192959
836,0.02289463,-0.7195797,-1.4592043,5.1930766
837,0.022833884,-0.7191979,-1.4587893,5.193192
838,0.022774845,-0.7188174,-1.4583772,5.1933084
839,0.022714546,-0.7184367,-1.4579636,5.1934237
840,0.022656003,-0.71805716,-1.4575524,5.19354
841,0.022595694,-0.7176757,-1.45714,5.193655
842,0.022536,-0.7172958,-1.4567275,5.193769
843,0.022476504,-0.71691483,-1.4563154,5.193884
844,0.022417078,-0.7165343,-1.4559029,5.193999
845,0.022355368,-0.7161548,-1.4554906,5.194114
846,0.060180098,-0.743027,-1.3567921,5.2516136
847,0.06928476,-0.7464283,-1.3286011,5.2742257
848,0.076420926,-0.74460965,-1.315615,5.2816787
849,0.08544973,-0.73794794,-1.3065773,5.291268
850,0.09034053,-0.73308724,-1.3040601,5.296821
851,0.09197638,-0.72976756,-1.3036582,5.3001404
852,0.09109396,-0.72944456,-1.3039063,5.301056
853,0.08775712,-0.732143,-1.304856,5.2994914
854,0.081299104,-0.7366898,-1.3078346,5.2954535
855,0.07089317,-0.7444652,-1.3175814,5.2873945
856,0.063455604,-0.746702,-1.3313099,5.2800317
857,0.052965026,-0.7406976,-1.3589277,5.2576046
858,0.015943179,-0.70965546,-1.4583145,5.1991773
859,0.01588294,-0.7092791,-1.4578996,5.1992946
860,0.015820086,-0.7089017,-1.4574939,5.1994076
861,0.015757114,-0.70852566,-1.4570934,5.1995163
862,0.015693197,-0.7081515,-1.456693,5.1996307
863,0.015631756,-0.7077756,-1.4562927,5.1997647
864,0.015568644,-0.707401,-1.4558929,5.1999016
865,0.015507211,-0.707026,-1.4554944,5.2000365
866,0.015443633,-0.70665044,-1.4550942,5.200171
867,0.015381028,-0.7062761,-1.4546928,5.2003064
868,0.015316467,-0.70590156,-1.4542915,5.200442
869,0.015253256,-0.70552593,-1.4538918,5.2005787
870,0.049521476,-0.7372182,-1.3513207,5.2619963
871,0.05849393,-0.7430472,-1.3230044,5.2861085
872,0.065492146,-0.73910373,-1.3097067,5.2951646
873,0.073837645,-0.72936076,-1.3012147,5.3042984
874,0.07795603,-0.7234629,-1.2994109,5.310264
875,0.07928461,-0.71990174,-1.2983631,5.31385
876,0.07839081,-0.71961355,-1.2986163,5.3147798
877,0.07532152,-0.72258306,-1.3003945,5.3129807
878,0.069634385,-0.72813106,-1.3027903,5.3085537
879,0.059768707,-0.7378607,-1.3120443,5.300651
880,0.05258717,-0.74160415,-1.3264632,5.291599
881,0.04231733,-0.7351293,-1.3544048,5.267765
882,0.008247544,-0.69943124,-1.4580851,5.20758
883,0.00818478,-0.6990598,-1.4576831,5.2077165
884,0.008118738,-0.6986916,-1.4572874,5.2078495
885,0.0080537,-0.6983242,-1.4568924,5.20798
886,0.007987986,-0.69795495,-1.4565,5.2081103
887,0.007923077,-0.697587,-1.4561081,5.208243
888,0.007857363,-0.69722,-1.4557166,5.208371
889,0.007791221,-0.696852,-1.455325,5.2085004
890,0.0077265897,-0.69648546,-1.4549332,5.20863
891,0.007661442,-0.696119,-1.454542,5.2087593
892,0.007595539,-0.69574976,-1.4541501,5.2088876
893,0.007529398,-0.6953837,-1.4537573,5.2090187
894,0.042220723,-0.7314618,-1.3481058,5.269474
895,0.052417297,-0.7368081,-1.3198268,5.2944894
896,0.058983136,-0.7323254,-1.3053422,5.304405
897,0.06755099,-0.72237366,-1.2966801,5.3135753
898,0.07151908,-0.71590847,-1.2942028,5.319758
899,0.07268438,-0.71261257,-1.292296,5.323219
900,0.07171223,-0.71239877,-1.2925342,5.3241196
901,0.06876316,-0.71520185,-1.2951341,5.322483
902,0.06310769,-0.7215983,-1.2987279,5.3177447
903,0.053090144,-0.7298328,-1.3081993,5.3098493
904,0.046305757,-0.73380995,-1.3237283,5.30026
905,0.03474447,-0.7292094,-1.3514771,5.274979
906,-7.201234e-05,-0.6904853,-1.4569669,5.2157454
907,-0.00013920665,-0.6901739,-1.4565059,5.2158732
908,-0.00020774205,-0.6898627,-1.4560485,5.2159996
909,-0.0002775093,-0.68955404,-1.4555936,5.216122
910,-0.00034763417,-0.68924516,-1.4551405,5.2162447
911,-0.00041555366,-0.688935,-1.4546889,5.21637
912,-0.00048569837,-0.68862647,-1.454236,5.216493
913,-0.000556608,-0.6883178,-1.4537829,5.216616
914,-0.0006241103,-0.68800855,-1.4533297,5.21674
915,-0.0006943643,-0.6877005,-1.452877,5.216862
916,-0.00076346594,-0.6873924,-1.452425,5.216986
917,-0.00083268684,-0.68708396,-1.4519701,5.21711
918,0.02661246,-0.72255343,-1.3519641,5.274016
919,0.033495694,-0.7287515,-1.3275716,5.2964683
920,0.037364285,-0.7277803,-1.3139149,5.310307
921,0.042449176,-0.72213763,-1.3018264,5.319329
922,0.04685417,-0.71806294,-1.2961317,5.3256283
923,0.048384953,-0.71532816,-1.294074,5.329157
924,0.047623027,-0.71517414,-1.2943984,5.3299146
925,0.044629585,-0.71658915,-1.297083,5.327829
926,0.038939368,-0.7198191,-1.3038825,5.3226886
927,0.033132065,-0.724698,-1.3167872,5.313973
928,0.028478077,-0.7267038,-1.330815,5.300801
929,0.020421514,-0.7204849,-1.3547901,5.2787185
930,-0.00704659,-0.68376327,-1.4523602,5.222725
931,-0.0071172714,-0.68345165,-1.4519048,5.222849
932,-0.007189115,-0.68314046,-1.4514551,5.222973
933,-0.007260064,-0.68283033,-1.4510075,5.2230945
934,-0.0073329606,-0.6825184,-1.4505595,5.2232175
935,-0.0074059963,-0.68220735,-1.4501098,5.2233396
936,-0.0074781976,-0.68189687,-1.4496635,5.2234597
937,-0.0075507066,-0.6815869,-1.4492162,5.2235813
938,-0.007622441,-0.68127614,-1.448769,5.223703
939,-0.0076960525,-0.68096495,-1.4483222,5.2238255
940,-0.007768651,-0.6806557,-1.4478737,5.223946
941,-0.007840395,-0.6803457,-1.4474276,5.2240663
942,0.015775362,-0.7151239,-1.3516207,5.278871
943,0.021454364,-0.7222921,-1.3292317,5.2998414
944,0.024829736,-0.7204624,-1.3167695,5.3133664
945,0.02765437,-0.715405,-1.3035752,5.3251147
946,0.031289548,-0.7111338,-1.2963271,5.33135
947,0.032789458,-0.70881724,-1.2932838,5.3348694
948,0.032127786,-0.7083517,-1.2935938,5.335537
949,0.029348522,-0.70976406,-1.297219,5.333307
950,0.024893343,-0.71330065,-1.3057599,5.3280854
951,0.020841083,-0.7177546,-1.319471,5.3166184
952,0.016880682,-0.72025245,-1.3322229,5.3039327
953,0.010248105,-0.71332675,-1.3540659,5.2830954
954,-0.013673137,-0.6768692,-1.4475609,5.2293534
955,-0.013745706,-0.6765328,-1.4470911,5.2294927
956,-0.013816942,-0.67619944,-1.4466261,5.2296305
957,-0.013889492,-0.675864,-1.4461621,5.2297683
958,-0.01396203,-0.6755311,-1.4456972,5.2299047
959,-0.014032801,-0.67519623,-1.4452333,5.230041
960,-0.014106889,-0.67486125,-1.4447707,5.230177
961,-0.0141789615,-0.6745272,-1.4443064,5.230313
962,-0.014250815,-0.6741941,-1.4438418,5.2304506
963,-0.01432385,-0.6738598,-1.4433789,5.230587
964,-0.014395992,-0.673526,-1.4429148,5.2307224
965,-0.01446877,-0.6731917,-1.4424502,5.2308593
966,0.009101043,-0.70844775,-1.3506004,5.2820096
967,0.13681291,-0.79662436,-1.385605,5.3565536
968,0.17510553,-0.8673456,-1.4115165,5.317463
969,0.021576613,-0.70904905,-1.3068426,5.3264523
970,0.023360947,-0.7050964,-1.2980539,5.334198
971,0.024901817,-0.70257664,-1.2939907,5.337733
972,0.02425311,-0.7021339,-1.2942597,5.3383555
973,0.08947126,-0.81469655,-0.8600418,5.4891343
974,0.018826207,-0.7070592,-1.3087312,5.3287587
975,0.0146255195,-0.7113297,-1.3213722,5.31755
976,0.0106270015,-0.71369714,-1.3330332,5.3054643
977,-0.03611362,-0.15832202,-1.1276221,5.3115597
978,-0.047801048,-0.14266513,-1.2378144,5.261417
979,-0.02012091,-0.6681223,-1.440194,5.236583
980,-0.042066664,-0.3506545,-1.3947402,5.475509
981,-0.3564841,-0.86036277,-1.2316418,5.7457128
982,-0.05267774,-0.16114013,-1.2396339,5.2490973
983,-0.039166976,-0.16345246,-1.2536899,5.24617
984,-0.015310447,-0.66127706,-1.4349127,5.232509
985,-0.015372127,-0.6550285,-1.430672,5.23613
986,-0.015431802,-0.6529379,-1.4291244,5.237512
987,-0.015499731,-0.6521361,-1.4283835,5.2380357
988,-0.015571336,-0.65169185,-1.427855,5.238277
989,-0.015643457,-0.65133566,-1.4273801,5.238437
990,0.009486586,-0.6914609,-1.3386968,5.289213
991,0.008371492,-0.73886824,-1.4087528,5.3722725
992,0.02799789,-0.7043042,-1.4226909,5.331099
993,0.023754468,-0.6880357,-1.2915275,5.3310833
994,0.026424924,-0.6825649,-1.2811679,5.341315
995,0.03129388,-0.71635896,-1.3385235,5.417286
996,0.024030736,-0.30674645,-0.97635525,5.48854
997,0.024386695,-0.68223935,-1.2811781,5.3400497
998,0.14672844,-0.78568095,-1.1444353,5.6373343
999,0.17202127,-0.922596,-1.3156327,5.5064406
1000,0.012194961,-0.6940699,-1.3203455,5.313082
1001,0.004219065,-0.69016856,-1.3390816,5.2924213
1002,-0.021196812,-0.64709973,-1.4233617,5.243926
1003,-0.021267831,-0.6467429,-1.4226962,5.2442245
1004,-0.021342507,-0.64641654,-1.4221677,5.2444015
1005,-0.021417558,-0.6461026,-1.4216763,5.2445426
1006,-0.021492789,-0.64579254,-1.4211923,5.2446704
1007,-0.0993304,-0.57912797,-1.1328639,5.5915284
1008,0.32568112,-0.86300963,-1.6242336,5.3511605
1009,0.36346436,-0.7965606,-1.7956027,5.169834
1010,0.33699593,-0.9270191,-1.6963924,5.1594768
1011,0.3348967,-0.87658995,-1.8271252,5.041218
1012,0.33431545,-1.153488,-1.6909088,4.95661
1013,0.3293277,-1.0548029,-1.6311178,5.091518
1014,0.31871575,-0.8069108,-1.3964862,5.2878118
1015,0.40978825,-1.0794772,-1.79559,5.2285886
1016,0.54896444,-0.9584949,-1.7139958,4.9987416
1017,0.37204123,-1.0314721,-1.5701824,4.9509673
1018,0.44952083,-1.136255,-1.9316992,5.186767
1019,0.40514407,-1.2179687,-2.887452,5.2478294
1020,0.52425075,-1.0742532,-2.7592516,4.855725
1021,0.19591033,-1.0250368,-2.9916217,5.4111876
1022,-0.066419296,-1.1226187,-8.407043,4.8454328
1023,0.23200107,-1.7843571,-15.936,-1.0583266
1024,-0.7938717,-2.537741,-7.1431956,-1.3546788
1025,-0.8614366,-2.8653564,-8.265053,-1.3553725
1026,-0.23883204,-4.0561504,-14.278309,-5.494555
1027,-0.99047685,-5.275358,-17.790459,-8.487073
1028,-3.2739403,-7.501272,-13.370865,-12.507617
1029,-3.239164,-7.7753625,-9.36348,-10.7151375
1030,-2.5208743,-9.107068,-9.658634,-15.573887
1031,-2.2296188,-8.916844,-12.172207,-16.685648
1032,-3.1786811,-8.8580475,-14.373741,-20.812326
1033,-1.976458,-11.286076,-6.027847,-19.52288
1034,-0.22626834,-10.703975,11.337224,-3.642971
1035,-0.21677177,-8.190938,-4.2841706,-14.914268
1036,0.12634137,-4.879508,-4.382527,-4.585032
1037,-0.0105169015,-3.3441226,-4.368856,0.03742526
1038,-0.033005167,-2.1351159,-3.2030964,2.2983255
1039,-0.04791559,-1.7158848,-2.6798706,3.0525544
1040,-0.050967086,-1.5586344,-2.4705627,3.3204396
1041,0.021676332,-1.4375955,-2.3069074,3.4766865
1042,0.04906958,-1.0557419,-2.3944185,3.5574481
1043,0.12772836,-1.158856,-2.1546264,3.7690296
1044,0.06114124,-1.3537236,-2.2245045,3.647609
1045,0.10532416,-1.088039,-2.017027,3.7855785
1046,-0.0086308615,-1.2224907,-2.0045702,3.7782924
1047,0.11529144,-1.2557906,-2.3659527,3.8831217
1048,0.6886533,-3.2101538,-6.740007,-0.64547825
1049,0.3942269,-6.240555,-2.6474986,-6.687799
1050,-1.9727827,-4.7313724,-7.54266,-1.783827
1051,-3.518426,-7.9097075,-10.044377,-5.479833
1052,-1.999175,-10.110588,-12.17588,-22.295868
1053,-1.3721098,-6.3158526,-3.6446908,-9.925186
1054,-0.55643433,-4.7177367,-4.3538313,-4.693902
1055,-0.21427274,-3.0724392,-4.2775235,-0.0018344918
1056,-0.08866172,-2.195022,-3.3958197,1.9577297
1057,-0.05077204,-1.8318377,-2.9085596,2.6498106
1058,-0.039386112,-1.7024068,-2.7227964,2.8815496
1059,0.0048492253,-1.5655361,-2.4827201,3.0474613
1060,-0.028767228,-1.6262598,-2.6188529,2.9933774
1061,-0.02567329,-1.5974678,-2.582235,3.0400841
1062,-0.02488006,-1.5523443,-2.5165408,3.07995
1063,-0.024944196,-1.5142807,-2.4664347,3.1188166
1064,0.060393374,-1.6071569,-2.4784813,3.0031135
1065,0.025227746,-1.5651913,-2.4313488,3.0722141
1066,-0.019013235,-1.4159765,-2.3562405,3.237777
1067,-0.016838005,-1.388752,-2.3255599,3.275113
1068,-0.014015585,-1.3658129,-2.2988527,3.3091774
1069,-0.010519336,-1.3484321,-2.2764568,3.3392022
1070,-0.006565253,-1.3348465,-2.2593427,3.3654099
1071,-0.0031232238,-1.3266819,-2.2484224,3.3859475
1072,-0.0007510185,-1.3207711,-2.2427783,3.4023445
1073,0.004776249,-1.3198972,-2.252412,3.4165542
1074,0.007977396,-1.3148782,-2.2908325,3.4136236
1075,0.0110371215,-1.3047903,-2.280548,3.4253426
1076,0.014037003,-1.2956204,-2.2711086,3.4358876
1077,0.016984543,-1.2869546,-2.2622368,3.4457228
1078,0.019854486,-1.2786555,-2.253828,3.4550788
1079,0.02266565,-1.2706704,-2.245899,3.4640133
1080,0.025420168,-1.2629706,-2.2383175,3.4725926
1081,0.028137615,-1.2555319,-2.2310636,3.4808502
1082,0.030800471,-1.2483572,-2.2241037,3.4887638
1083,0.03340267,-1.2414407,-2.2174473,3.4963582
1084,0.035952806,-1.2347516,-2.2110784,3.503642
1085,0.038446765,-1.2282993,-2.2049663,3.5106246
1086,0.040102374,-1.2191354,-2.1405716,3.5469844
1087,0.040695965,-1.1989523,-2.1084826,3.5638702
1088,0.045128405,-1.1820989,-2.085828,3.5823033
1089,0.047850776,-1.1639906,-2.0647035,3.6024914
1090,0.050185174,-1.1470581,-2.0460656,3.6213086
1091,0.05319469,-1.1330676,-2.030481,3.639059
1092,0.14420399,-0.86954874,-1.7144176,3.9022415
1093,0.37458074,-1.1723673,-2.2778933,3.4189193
1094,0.38891017,-1.1704472,-2.2808304,3.6633804
1095,0.40051606,-1.4566234,-2.5600002,2.9944668
1096,0.5312205,-2.0608606,-3.4466856,2.1269934
1097,0.44004527,-3.4685414,-5.9250884,1.0743818
1098,1.0720814,-7.39467,-11.56725,-5.3335624
1099,1.3791164,-7.864266,-14.1458435,-11.347255
1100,0.89789456,-6.848127,-15.0369005,-11.718978
1101,0.08953968,-4.987145,-7.0240645,-6.39236
1102,-0.28361356,-2.002065,-3.775876,-7.0772805
1103,0.018875115,-0.10119232,6.200521,-3.4600914
1104,-0.2572427,0.2552193,5.3560843,1.587025
1105,0.1671745,-4.2860675,5.597961,-11.501386
1106,-0.26171806,-2.0569737,4.442742,-7.038569
1107,-0.29561737,1.761542,5.2349887,5.8786163
1108,-0.6337331,1.9132127,6.590271,-0.051837683
1109,-0.28617695,2.2315228,7.432873,0.749578
1110,-0.27563632,-0.52515316,13.784894,-3.5854862
1111,-0.14751695,9.24608,24.593851,10.65953
1112,-0.3184633,12.22124,31.9367,26.080149
1113,-0.13286713,8.45211,18.602264,11.972692
1114,-0.11526009,8.888078,23.689795,16.227589
1115,0.20903617,5.096002,17.557137,8.136095
1116,0.05458938,6.6920114,15.398323,9.768046
1117,-0.033777684,7.4401016,15.83149,9.782354
1118,-0.14495441,11.34728,21.480886,12.7858095
1119,-0.18885612,12.470307,23.442495,14.641876
1120,-0.29991937,11.403672,22.103613,13.480033
1121,-0.41489443,11.974034,22.312355,15.1593275
1122,-0.6562184,12.469856,24.078865,15.905434
1123,-0.78236395,13.11615,25.389938,18.034254
1124,-0.52788246,10.835179,25.594114,12.001377
1125,-0.64744073,11.404513,30.069094,21.906013
1126,-0.8892967,9.50677,29.346148,22.118294
1127,-0.19000798,7.240467,20.791674,4.840295
1128,-0.35208702,10.474908,24.41359,13.345668
1129,-0.18141286,23.21821,51.293644,54.25926
1130,0.06658641,10.441276,22.37245,11.358688
1131,-0.5397831,17.813728,47.573032,41.467426
1132,-0.6963961,-8.838649,61.184692,-1.2946771
1133,-0.47996387,-18.016958,19.985239,12.218738
1134,0.531905,-23.098318,-9.460281,-42.837025
1135,0.58716184,-5.6155972,3.0707228,-18.85829
1136,0.87800854,-1.3154517,7.0026174,-11.870786
1137,1.1461715,-2.557645,5.767313,-13.029755
1138,1.2913522,-2.9772856,3.738725,-16.20993
1139,1.2966248,-2.2386072,5.651674,-13.980194
1140,0.9866894,-5.8866096,3.1911926,-18.718037
1141,0.9919338,-5.898166,3.2546837,-18.720135
1142,0.96888846,-5.9765964,3.2350838,-18.899012
1143,0.94467306,-6.092144,3.1926231,-19.18184
1144,0.9241255,-6.2101083,3.1406643,-19.483196
1145,0.90426403,-6.3654323,3.0268214,-19.930452
1146,0.85318404,-6.341871,3.3698728,-20.429977
1147,0.8395354,-6.4215674,3.2990181,-20.374369
1148,0.6469841,-6.8435264,3.5745633,-21.160341
1149,0.6676975,-5.907337,5.3466516,-19.26587
1150,0.6482081,-5.666783,8.56785,-15.946144
1151,0.81804895,-7.462118,4.4733644,-19.950615
1152,0.79993206,-5.64656,6.622116,-17.085342
1153,0.597585,-6.044913,6.077034,-17.714882
1154,-0.010433893,-4.9425263,6.721934,-15.6254835
1155,0.3210431,-5.8702083,4.7369113,-18.282911
1156,0.56861496,-4.715614,5.9563026,-15.5560875
1157,0.6036932,-7.669918,2.1333306,-20.351568
1158,0.6814433,-7.0895104,2.3635547,-19.239454
1159,0.6910534,-6.7235103,2.6760724,-18.58851
1160,0.68747896,-6.5440392,2.8156784,-18.200823
1161,0.68293554,-6.382374,2.9455109,-17.833498
1162,0.6765862,-6.2450194,3.0537407,-17.517916
1163,0.6684626,-6.1386395,3.1169157,-17.268076
1164,0.6588296,-6.0627213,3.142285,-17.080515
1165,0.6447671,-6.0250764,3.1172745,-16.966057
1166,0.62501997,-6.02918,3.0065641,-16.933218
1167,0.60063267,-6.0597796,2.862423,-16.953344
1168,0.5719356,-6.104546,2.6900527,-16.986774
1169,0.5244643,-6.232801,2.4060466,-17.166441
1170,0.36926183,-6.365668,2.4107034,-17.48588
1171,0.3487525,-6.346254,2.3180413,-17.349867
1172,0.33259028,-6.3268437,2.2287571,-17.212292
1173,0.3195611,-6.307447,2.142433,-17.073797
1174,0.30718675,-6.288817,2.0569515,-16.937168
1175,0.29560915,-6.266554,1.9745439,-16.800676
1176,0.28527483,-6.243853,1.8973919,-16.663122
1177,0.27645984,-6.2224603,1.8293117,-16.519798
1178,0.2679207,-6.201254,1.76501,-16.377579
1179,0.26063272,-6.1802154,1.7038072,-16.23674
1180,0.25331965,-6.1604366,1.6485453,-16.098976
1181,0.24673267,-6.14105,1.5944504,-15.962186
1182,0.36328432,-5.8664536,1.4773825,-15.422986
1183,0.4026316,-5.675921,1.5758266,-15.0518675
1184,0.4194647,-5.570925,1.576213,-14.804933
1185,0.16557956,-6.0138927,0.47148624,-15.51656
1186,0.25819767,-5.8769317,1.4666649,-14.594186
1187,0.27469823,-6.0833735,0.9441912,-14.977303
1188,-0.08669839,-6.040152,0.74683374,-14.973179
1189,0.29210275,-5.679085,0.62218857,-14.470493
1190,0.49418768,-5.1687927,1.2850493,-13.67977
1191,0.5217629,-4.25939,3.2782688,-12.204917
1192,0.4096644,-5.4031386,0.8686325,-14.005562
1193,0.37267375,-5.5418262,0.71323067,-14.082908
1194,0.22519405,-5.8087335,0.746552,-14.3468895
1195,0.22387286,-5.782742,0.69490427,-14.231873
1196,0.22319335,-5.7571883,0.6451203,-14.122386
1197,0.22333401,-5.731884,0.59859663,-14.014895
1198,0.22418809,-5.706251,0.55356497,-13.909677
1199,0.2259293,-5.681118,0.503786,-13.807133
1200,0.22875947,-5.655331,0.45671025,-13.701911
1201,0.2285862,-5.629852,0.410063,-13.595902
1202,0.2293374,-5.604548,0.36517063,-13.4887085
1203,0.23074307,-5.576498,0.32475784,-13.379228
1204,0.2326201,-5.549127,0.28539154,-13.270595
1205,0.23484325,-5.525425,0.24327059,-13.162952
1206,0.3592095,-5.287165,0.12450404,-12.74186
1207,0.4082506,-5.1372447,0.08222825,-12.47879
1208,0.43167695,-5.0573688,0.033877205,-12.299853
1209,0.45351002,-4.9834824,-0.020603208,-12.128736
1210,0.46289912,-4.9240093,-0.071697615,-11.980258
1211,0.4691418,-4.882524,-0.1251209,-11.861332
1212,0.47028527,-4.8594337,-0.17791517,-11.767613
1213,0.46643534,-4.8542066,-0.22826426,-11.700665
1214,0.4588592,-4.864839,-0.27412522,-11.657521
1215,0.44651127,-4.889788,-0.3126034,-11.636413
1216,0.4336666,-4.9233694,-0.36211333,-11.626537
1217,0.40781817,-5.0083575,-0.3860375,-11.675792
1218,0.2972741,-5.25958,-0.4884585,-11.915501
1219,0.30267408,-5.24091,-0.53639305,-11.833668
1220,0.3076156,-5.2248936,-0.583463,-11.754181
1221,0.31445456,-5.2110705,-0.6298683,-11.676997
1222,0.3222593,-5.197264,-0.67315406,-11.599267
1223,0.33090365,-5.1866508,-0.7196236,-11.526479
1224,0.33976403,-5.1773686,-0.765464,-11.453999
1225,0.34681797,-5.1669817,-0.8092454,-11.380478
1226,0.35269535,-5.1569743,-0.85456413,-11.308633
1227,0.35895297,-5.1464806,-0.8995654,-11.2378235
1228,0.36484525,-5.133283,-0.9396796,-11.166309
1229,0.37116155,-5.1197023,-0.9826565,-11.095269
1230,0.47101775,-4.8424907,-0.833199,-10.670096
1231,0.49042332,-4.7520413,-0.8881812,-10.485324
1232,0.49952188,-4.689614,-0.92723984,-10.34102
1233,0.5044422,-4.626918,-0.9493353,-10.18823
1234,0.51073885,-4.573164,-0.9698208,-10.049407
1235,0.5165197,-4.532128,-0.9860566,-9.929297
1236,0.52251726,-4.5078425,-1.0039418,-9.837272
1237,0.5287886,-4.500388,-1.0243479,-9.774884
1238,0.53431815,-4.5089073,-1.0519167,-9.74142
1239,0.5383926,-4.531447,-1.0957314,-9.740357
1240,0.54010826,-4.5566964,-1.1347046,-9.745124
1241,0.5362391,-4.6143446,-1.1966184,-9.821996
1242,0.4614481,-4.832822,-1.4691439,-10.111445
1243,0.46529183,-4.8096147,-1.4913936,-10.037026
1244,0.47015867,-4.785175,-1.5112205,-9.962234
1245,0.47566023,-4.7604175,-1.5298266,-9.887479
1246,0.4811988,-4.7358565,-1.5482202,-9.813507
1247,0.48668495,-4.712063,-1.567756,-9.740535
1248,0.49209186,-4.68828,-1.5871434,-9.668338
1249,0.4976127,-4.6634684,-1.6034428,-9.593186
1250,0.50316185,-4.6385865,-1.6181855,-9.516731
1251,0.5083756,-4.6134477,-1.6306092,-9.439602
1252,0.5131237,-4.587116,-1.6405185,-9.360047
1253,0.5177489,-4.560697,-1.6498998,-9.280804
1254,0.5879943,-4.280491,-1.2454787,-8.709884
1255,0.60167605,-4.166479,-1.1631249,-8.413907
1256,0.60613114,-4.088553,-1.1269398,-8.207645
1257,0.6084489,-4.013965,-1.1172222,-8.014335
1258,0.60908794,-3.9547746,-1.1263417,-7.855129
1259,0.6108282,-3.9115992,-1.1383423,-7.7338142
1260,0.61304015,-3.8863623,-1.1509659,-7.6528325
1261,0.61610633,-3.877969,-1.1629261,-7.6103864
1262,0.61975175,-3.884965,-1.17762,-7.600633
1263,0.6220638,-3.9058144,-1.2079262,-7.627334
1264,0.42568603,-4.075045,-1.6300697,-8.224103
1265,0.43171623,-3.3306472,-0.1308586,-6.1455293
1266,0.38606095,-3.8724377,-1.4856186,-7.6657815
1267,0.402856,-3.660659,-1.6777114,-7.4309335
1268,0.39075923,-3.8024952,-1.4766749,-7.408315
1269,0.37893018,-3.8488462,-1.2198769,-7.4132423
1270,0.57494897,-3.2862864,-0.49232173,-6.5056615
1271,0.56898737,-3.4101784,-0.5775076,-6.8138347
1272,0.5661858,-4.0531583,-1.7979693,-7.8208823
1273,0.4901534,-4.2315507,-2.128336,-8.244543
1274,0.62574893,-3.464996,-1.4399343,-7.144489
1275,0.5770264,-3.9773142,-1.8186647,-7.592201
1276,0.5794355,-3.9472325,-1.8211908,-7.5106354
1277,0.5811167,-3.9199743,-1.8240336,-7.43168
1278,0.60154974,-3.7132223,-1.3660399,-6.840155
1279,0.60488325,-3.6230767,-1.29842,-6.558689
1280,0.60373634,-3.5590003,-1.2703974,-6.3625216
1281,0.6012301,-3.4981203,-1.2461686,-6.1885285
1282,0.59967,-3.452653,-1.2343502,-6.0491843
1283,0.5986736,-3.4192877,-1.2352886,-5.9425063
1284,0.59764004,-3.3977273,-1.2443463,-5.8689857
1285,0.5969703,-3.3881967,-1.2639676,-5.828121
1286,0.59566957,-3.3887174,-1.2964177,-5.8152347
1287,0.57013804,-3.4210088,-1.3519396,-5.894956
1288,0.5910862,-3.4190273,-1.3925513,-5.860308
1289,0.6064639,-2.9670238,-0.5562902,-5.314281
1290,0.5987328,-3.6006052,-1.9447876,-6.4369645
1291,0.6001517,-3.5787742,-1.9467167,-6.361017
1292,0.6014867,-3.5571392,-1.9486119,-6.285933
1293,0.60263664,-3.5357065,-1.9509435,-6.2105174
1294,0.6037161,-3.514328,-1.9530044,-6.1356316
1295,0.6044157,-3.492945,-1.9552041,-6.0617394
1296,0.6050804,-3.4718025,-1.9575187,-5.9888916
1297,0.6057509,-3.450901,-1.9594947,-5.9166284
1298,0.60646373,-3.4301188,-1.9606024,-5.8444614
1299,0.60717523,-3.4095728,-1.9610645,-5.7726073
1300,0.60786295,-3.3892815,-1.9613575,-5.701456
1301,0.60848135,-3.3692477,-1.9613667,-5.6310554
1302,0.5782414,-3.2188652,-1.5651546,-5.1293736
1303,0.57221794,-3.1487513,-1.4782743,-4.92194
1304,0.57375604,-3.1009586,-1.4457983,-4.775
1305,0.5749572,-3.0615585,-1.4322177,-4.6336336
1306,0.5743044,-3.030635,-1.4270388,-4.5171432
1307,0.5732963,-3.0062466,-1.4298903,-4.4259877
1308,0.57323873,-2.9889643,-1.4412714,-4.362452
1309,0.57403636,-2.978941,-1.4602542,-4.326307
1310,0.57527095,-2.9761753,-1.4879199,-4.3156047
1311,0.57720023,-2.978222,-1.5259676,-4.3260045
1312,0.578344,-2.9823081,-1.5730141,-4.341043
1313,0.579866,-3.0119908,-1.6741453,-4.427035
1314,0.61358553,-3.1187322,-2.0348086,-4.7383075
1315,0.613229,-3.1012793,-2.0362594,-4.6713886
1316,0.6127642,-3.0841618,-2.0376513,-4.6054225
1317,0.6122835,-3.067095,-2.0384376,-4.540079
1318,0.61178464,-3.0501215,-2.0388703,-4.475251
1319,0.6112133,-3.0335464,-2.0385015,-4.4099355
1320,0.6106802,-3.0169594,-2.0380194,-4.344025
1321,0.6101442,-3.0005798,-2.0380874,-4.2768955
1322,0.60972637,-2.984432,-2.0399785,-4.2134075
1323,0.60936314,-2.9684823,-2.0430992,-4.1524506
1324,0.6089693,-2.9528039,-2.0464213,-4.0912275
1325,0.60847163,-2.937463,-2.0494003,-4.030923
1326,0.5808278,-2.7947161,-1.7347556,-3.6100855
1327,0.56945956,-2.7442913,-1.6585971,-3.4251368
1328,0.56497896,-2.7136621,-1.6272765,-3.3000634
1329,0.56078184,-2.6814811,-1.6013798,-3.1757715
1330,0.5568183,-2.6544702,-1.5908467,-3.079188
1331,0.5542961,-2.634282,-1.5897192,-3.006219
1332,0.55394673,-2.6208959,-1.6009673,-2.9564915
1333,0.5553027,-2.614484,-1.623649,-2.9297628
1334,0.5573213,-2.6153293,-1.65632,-2.9256878
1335,0.5607872,-2.6190777,-1.6977545,-2.9402673
1336,0.5661448,-2.6228964,-1.7427745,-2.959161
1337,0.57743895,-2.6485016,-1.8323798,-3.0344522
1338,0.60543865,-2.7472985,-2.1203368,-3.2828019
1339,0.6046726,-2.7334492,-2.1217089,-3.2280302
1340,0.6039635,-2.7195587,-2.1228952,-3.1734145
1341,0.603177,-2.705517,-2.1237528,-3.1190999
1342,0.6023729,-2.6917922,-2.1245863,-3.0658772
1343,0.6014196,-2.6781952,-2.1254706,-3.012827
1344,0.60032606,-2.6647875,-2.1273706,-2.9592273
1345,0.5992496,-2.65158,-2.1292255,-2.9068096
1346,0.5981699,-2.638605,-2.131187,-2.8551042
1347,0.5970761,-2.6258078,-2.1331267,-2.8040123
1348,0.5959404,-2.613147,-2.1353185,-2.7534506
1349,0.5946309,-2.600607,-2.1377985,-2.7033818
1350,0.5624963,-2.4935071,-1.8840004,-2.3852875
1351,0.5467369,-2.4408836,-1.8179513,-2.2329493
1352,0.53933525,-2.4100442,-1.7962259,-2.1378412
1353,0.53406185,-2.3825874,-1.7795643,-2.0425806
1354,0.52965766,-2.3598225,-1.7708899,-1.966772
1355,0.5266153,-2.3435028,-1.7709466,-1.9088098
1356,0.5253332,-2.3335536,-1.7821426,-1.8688502
1357,0.52590704,-2.3300552,-1.8037916,-1.8464456
1358,0.5280923,-2.332607,-1.833025,-1.8400749
1359,0.5320969,-2.3417647,-1.867673,-1.8495393
1360,0.53685516,-2.3523476,-1.905022,-1.8598738
1361,0.55069005,-2.380253,-1.9705473,-1.9130262
1362,0.5807238,-2.458742,-2.1961937,-2.093506
1363,0.5797544,-2.4485385,-2.197388,-2.0460422
1364,0.5787748,-2.438346,-2.1984003,-1.9994167
1365,0.57780975,-2.4281623,-2.1992176,-1.9534382
1366,0.57691926,-2.4180644,-2.1998718,-1.9080038
1367,0.5760922,-2.4081829,-2.2005174,-1.8631516
1368,0.5752816,-2.3984153,-2.2010872,-1.8194488
1369,0.57448053,-2.3887603,-2.2016087,-1.7764238
1370,0.5736992,-2.3792028,-2.2019398,-1.7338268
1371,0.5729076,-2.3695717,-2.202148,-1.6913681
1372,0.5722006,-2.35996,-2.2022765,-1.6491451
1373,0.57152337,-2.3504407,-2.202424,-1.6072807
1374,0.5304639,-2.252259,-2.0215478,-1.3786278
1375,0.5138936,-2.2124414,-1.9795098,-1.2489952
1376,0.5059139,-2.1841333,-1.9631103,-1.1606373
1377,0.49672985,-2.1538866,-1.9453684,-1.0707926
1378,0.48957622,-2.1301153,-1.9329028,-1.0006886
1379,0.48564187,-2.1137345,-1.929587,-0.94851285
1380,0.48453608,-2.106437,-1.9377257,-0.9151667
1381,0.48643637,-2.108636,-1.9579968,-0.900744
1382,0.49136856,-2.1183794,-1.9862171,-0.90293497
1383,0.49846712,-2.13389,-2.0185812,-0.92172956
1384,0.5062005,-2.1466205,-2.0492747,-0.9377749
1385,0.51942176,-2.170189,-2.1003199,-0.98620486
1386,0.56235844,-2.242005,-2.2456474,-1.1179485
1387,0.56129164,-2.2336776,-2.246237,-1.0811075
1388,0.56022865,-2.2254527,-2.2466667,-1.0446419
1389,0.55915755,-2.217296,-2.2471404,-1.0087494
1390,0.55809325,-2.209175,-2.2475264,-0.97322273
1391,0.5570271,-2.2010362,-2.2477589,-0.9376121
1392,0.55598027,-2.1928709,-2.247948,-0.90192765
1393,0.55501443,-2.1847622,-2.2481859,-0.8664742
1394,0.5540889,-2.1767612,-2.2483475,-0.83173704
1395,0.55313855,-2.1688974,-2.2484438,-0.7972291
1396,0.5522058,-2.1610024,-2.2484004,-0.7628348
1397,0.551294,-2.1530142,-2.2480338,-0.728398
1398,0.5034763,-2.068507,-2.1227057,-0.5347075
1399,0.4861785,-2.0267704,-2.0722873,-0.42071927
1400,0.4795269,-2.0004187,-2.0460033,-0.3449607
1401,0.471536,-1.9709841,-2.020559,-0.26764688
1402,0.4639376,-1.9495455,-2.0058115,-0.21105509
1403,0.45875552,-1.9370288,-2.0017905,-0.17007041
1404,0.4579796,-1.931306,-2.006895,-0.14135687
1405,0.4618529,-1.9313523,-2.0199766,-0.12447176
1406,0.46831158,-1.9390105,-2.0415714,-0.12175143
1407,0.4747653,-1.9547428,-2.0717077,-0.13586505
1408,0.47962943,-1.9688569,-2.1045742,-0.15392853
1409,0.4920576,-1.9965706,-2.160491,-0.20886837
1410,0.5398165,-2.0672991,-2.2766163,-0.32841492
1411,0.53886217,-2.0603707,-2.2757661,-0.29794523
1412,0.5378857,-2.053544,-2.274873,-0.26785353
1413,0.53693646,-2.0467184,-2.2738369,-0.23845519
1414,0.5359936,-2.0399706,-2.2727578,-0.20936757
1415,0.53508025,-2.033257,-2.2715483,-0.18050821
1416,0.5342193,-2.0264173,-2.2699542,-0.15180288
1417,0.54561776,-1.4897913,-1.768974,0.39337218
1418,0.5024311,-1.4100118,-1.5774196,-0.029341996
1419,0.5065038,-1.2080468,-1.6933336,-1.4587063
1420,0.34862828,-1.0819259,-3.9030006,-0.43402633
1421,0.4572948,-1.4547857,-3.1739266,-0.4046025
1422,0.51095897,-1.0256153,-1.279313,-0.09877658
1423,0.50054955,-1.8719712,-1.963899,-0.38681316
1424,0.48326382,-1.841813,-1.9670626,-0.08030963
1425,0.47050467,-1.8158628,-1.9670388,0.08058959
1426,0.4609028,-1.7999274,-1.9666352,0.16541529
1427,0.45494127,-1.7901093,-1.9679884,0.21238466
1428,0.45391262,-1.7853137,-1.9733521,0.24004889
1429,0.4574109,-1.785319,-1.984003,0.2542929
1430,0.46312335,-1.7902497,-2.001072,0.25632486
1431,0.46998644,-1.7988917,-2.023852,0.24326523
1432,0.47734225,-1.8116835,-2.0494335,0.22641118
1433,0.4903386,-1.8410159,-2.0960743,0.16885574
1434,0.536224,-1.9025577,-2.2007148,0.062321473
1435,0.53541225,-1.8960899,-2.1987073,0.08680651
1436,0.5345735,-1.8896335,-2.1966488,0.11102417
1437,0.5337334,-1.8832725,-2.1943858,0.13496464
1438,0.53294253,-1.8768402,-2.1921587,0.15878673
1439,0.5322106,-1.8704376,-2.189967,0.18260007
1440,0.53147817,-1.8640733,-2.1877558,0.2061707
1441,0.5307472,-1.857783,-2.185523,0.2295994
1442,0.5300694,-1.8515548,-2.1832783,0.25287798
1443,0.5293986,-1.8453999,-2.1810234,0.27609476
1444,0.528711,-1.8395878,-2.1785982,0.29905924
1445,0.5280156,-1.833779,-2.1762178,0.32185337
1446,0.47865987,-1.7610683,-2.0683966,0.48568594
1447,0.46207082,-1.7206608,-2.0231116,0.58530307
1448,0.45192015,-1.7022883,-2.0045874,0.6420273
1449,0.43734482,-1.6826835,-1.9811798,0.68974346
1450,0.42663607,-1.6676226,-1.9652451,0.72630167
1451,0.4210628,-1.6578163,-1.9576277,0.7538045
1452,0.4202722,-1.6536489,-1.9589372,0.7731342
1453,0.4243133,-1.6551533,-1.9687334,0.78429776
1454,0.43298647,-1.6620804,-1.9866743,0.7861205
1455,0.44544375,-1.6738796,-2.0121632,0.7753083
1456,0.4569949,-1.6833558,-2.0346406,0.762902
1457,0.47294965,-1.7104381,-2.0752227,0.71202105
1458,0.5197137,-1.7714647,-2.1741173,0.60041445
1459,0.5191144,-1.7660841,-2.170493,0.62188756
1460,0.5185103,-1.7607228,-2.1668525,0.64319116
1461,0.5179246,-1.7554048,-2.1632352,0.66437846
1462,0.51736134,-1.750117,-2.1596375,0.6855056
1463,0.51684713,-1.7447844,-2.1559856,0.7066014
1464,0.51634574,-1.7393242,-2.152191,0.7275632
1465,0.51586103,-1.7339026,-2.1483805,0.7483776
1466,0.51539755,-1.7284921,-2.1446955,0.76894027
1467,0.5149211,-1.7230525,-2.1408432,0.7893385
1468,0.51446706,-1.7174436,-2.1368258,0.80951685
1469,0.5140655,-1.7116779,-2.1326184,0.8293696
1470,0.47179604,-1.6395701,-2.0286653,0.96539205
1471,0.45202705,-1.6051111,-1.9783999,1.0390639
1472,0.44000617,-1.5851222,-1.953458,1.0832096
1473,0.42796028,-1.5650516,-1.927255,1.124144
1474,0.41879094,-1.5509323,-1.908399,1.1563373
1475,0.41361472,-1.5422128,-1.8996539,1.1774807
1476,0.41295657,-1.5390567,-1.899344,1.1922088
1477,0.4167224,-1.5407168,-1.9073178,1.2006725
1478,0.42446128,-1.547679,-1.9247464,1.2007939
1479,0.43529877,-1.5594031,-1.9488611,1.1911902
1480,0.5645776,-1.3419837,-1.7298422,1.0729259
1481,0.44741857,-1.1993104,-1.1650591,1.0749016
1482,-0.07659674,-1.4664842,-2.2693565,1.2692189
1483,0.14208157,-1.7449263,-2.1696749,1.1239318
1484,0.3308018,-1.6838999,-2.160519,1.0695258
1485,0.43570766,-1.6495782,-2.1197782,1.1058201
1486,0.47452378,-1.6334296,-2.1004899,1.131604
1487,0.48608148,-1.624823,-2.091034,1.152004
1488,0.48896646,-1.6186131,-2.0849178,1.1703831
1489,0.4894682,-1.6131077,-2.079835,1.1880192
1490,0.4894162,-1.6077814,-2.0750358,1.2054039
1491,0.48925456,-1.6024963,-2.0703268,1.2225257
1492,0.48913026,-1.5971686,-2.0657086,1.239478
1493,0.48913345,-1.5918285,-2.0609677,1.25629
1494,0.452301,-1.5405194,-1.979537,1.3316711
1495,0.43541172,-1.5173329,-1.9396725,1.3828527
1496,0.42713308,-1.5014563,-1.9139427,1.4157053
1497,0.41822198,-1.4877993,-1.8913461,1.4416995
1498,0.41203642,-1.4765425,-1.8756498,1.4648619
1499,0.40834203,-1.4690676,-1.8665609,1.4835787
1500,0.57144946,-1.2187306,-1.4591103,1.5968351
1501,0.5413745,-1.1698176,-1.4578277,1.6436701
1502,0.5096993,-1.315683,-1.4756047,1.6223348
1503,0.2562076,-1.4151412,-1.6750323,1.5312
1504,0.28541335,-1.4257127,-1.6406988,1.5457755
1505,0.4772183,-1.4150347,-1.7547714,1.4160589
1506,0.47118297,-1.3577404,-1.8920962,1.5021962
1507,0.4583142,-1.5445706,-2.0511043,1.3739532
1508,0.4736928,-1.530222,-2.02647,1.4213028
1509,0.47865775,-1.5221559,-2.013302,1.4493347
1510,0.48006192,-1.5160236,-2.0054266,1.4689292
1511,0.48042834,-1.5104016,-1.9995842,1.4853868
1512,0.48052073,-1.5049278,-1.9944191,1.500734
1513,0.48054302,-1.4995131,-1.9895035,1.5156847
1514,0.48055944,-1.4941506,-1.9846354,1.5303745
1515,0.48057237,-1.4888338,-1.9798197,1.5449476
1516,0.7816461,-1.3537396,-1.715918,1.1127236
1517,0.53384805,-1.1661721,-2.8362763,1.1309623
1518,0.3455023,-1.37793,-3.3563368,-0.17010355
1519,0.2558766,-2.5320218,-4.483559,-2.1417446
1520,-0.7099828,-3.1322825,-6.5603175,-6.5485597
1521,-1.9843134,-4.262132,-7.6350236,-6.5110784
1522,-1.1913813,-5.014176,-11.508908,-10.666112
1523,-1.2722973,-9.395021,-0.32101235,-10.9207735
1524,-0.72515416,-5.1647086,-3.549162,-3.9673026
1525,-0.56272864,-9.542127,0.9722356,-12.793945
1526,-0.87285024,-1.6041466,-1.3817395,11.5662
1527,0.4481814,-7.524639,8.281554,-8.523165
1528,0.3645377,-6.2203803,-5.851086,-16.432915
1529,0.6287481,-2.9570477,-1.5556946,-9.402847
1530,0.5736259,-3.792483,-1.4310375,-9.187425
1531,0.5818159,-3.4997995,-1.2739767,-8.274333
1532,0.57815677,-3.4238243,-1.2596599,-8.000926
1533,0.5750291,-3.4040039,-1.2619354,-7.9088383
1534,0.5734826,-3.3958042,-1.2622333,-7.8673816
1535,0.57254136,-3.3901598,-1.2611833,-7.840231
1536,0.57179344,-3.3849132,-1.2596911,-7.8162575
1537,0.5711861,-3.3795483,-1.2580827,-7.7921996
1538,0.57064617,-3.373978,-1.2563645,-7.7675495
1539,0.570106,-3.368269,-1.2546699,-7.742373
1540,0.5696667,-3.3621414,-1.2525197,-7.7160335
1541,0.569474,-3.3555958,-1.2498627,-7.688726
1542,0.61973995,-3.1369364,-0.9662633,-7.1495156
1543,0.6296894,-3.0559988,-0.8736449,-6.885586
1544,0.6308995,-3.0025966,-0.8370714,-6.71488
1545,0.6307033,-2.950924,-0.8064828,-6.554909
1546,0.629435,-2.9144967,-0.7871673,-6.4344964
1547,0.6278667,-2.8907306,-0.7787331,-6.349165
1548,0.62641007,-2.8795874,-0.7790696,-6.303076
1549,0.62515557,-2.8813674,-0.78840995,-6.2974553
1550,0.62354106,-2.8960307,-0.8066325,-6.3266525
1551,0.42632732,-3.0402038,-0.9809499,-6.854996
1552,0.59298384,-1.8901237,-0.46155033,-4.2961965
1553,0.6257182,-2.2664242,0.5285358,-5.2531896
1554,0.56756014,-3.2197075,-1.2695906,-7.2076287
1555,0.513841,-1.2554072,-0.012812018,-4.401163
1556,0.5316722,-2.268447,-0.220282,-5.9330974
1557,0.56679547,-3.1850023,-1.2500787,-7.129639
1558,0.5653719,-3.175865,-1.2466246,-7.071511
1559,0.5643135,-3.1654823,-1.2425205,-7.0249896
1560,0.5636263,-3.154765,-1.2368962,-6.981529
1561,0.5631348,-3.1438754,-1.2306861,-6.938843
1562,0.56270033,-3.1327698,-1.2243254,-6.8964386
1563,0.56226254,-3.1214933,-1.2179186,-6.854011
1564,0.561799,-3.1099212,-1.2112037,-6.8107705
1565,0.5613218,-3.0981648,-1.2043678,-6.767002
1566,0.57601815,-2.8811915,-0.81129545,-6.0748687
1567,0.58286667,-2.7936165,-0.73643595,-5.808491
1568,0.5838788,-2.7395327,-0.71244305,-5.6362834
1569,0.61994964,-2.2577617,0.17659135,-4.185039
1570,0.5835247,-2.6497107,-0.66480523,-5.3390136
1571,0.30229434,-2.2248132,0.34484962,-4.601443
1572,0.5501184,-1.3106432,-0.03313762,-2.019194
1573,0.6498521,-1.7662717,0.2761084,-2.7376652
1574,0.6531401,-1.6468447,-0.11349478,-3.0064042
1575,0.5763542,-2.6788206,-0.717189,-5.3503647
1576,0.570091,-2.6939843,-0.7387667,-5.4002495
1577,0.5629253,-2.7509854,-0.8084686,-5.573194
1578,0.55603904,-2.9226294,-1.1814435,-6.151468
1579,0.55545026,-2.9087832,-1.1746446,-6.101155
1580,0.55493826,-2.895118,-1.1676188,-6.0519614
1581,0.5544815,-2.8814936,-1.1604989,-6.003165
1582,0.5540568,-2.8678977,-1.1534004,-5.9546
1583,0.5536043,-2.8541176,-1.1461934,-5.906116
1584,0.55312043,-2.840395,-1.1389914,-5.858088
1585,0.51401657,-3.0557346,-1.3262372,-6.370149
1586,0.55206865,-2.8129752,-1.1249218,-5.7615037
1587,0.5514964,-2.79929,-1.1181356,-5.7131305
1588,0.3702097,-2.4476674,-0.9323694,-5.543649
1589,0.54275286,-1.4958123,-0.09197632,-3.8538053
1590,0.5524449,-2.6177433,-0.7635216,-5.088165
1591,0.54668474,-2.090243,-0.17280062,-4.6044364
1592,-0.5106645,-1.7576154,2.0482628,-2.3796232
1593,-1.2660993,-1.765004,-1.7266155,0.2560176
1594,-0.82254666,-13.04547,-0.44457352,-11.478699
1595,0.13700028,-5.47925,-3.1858425,-11.74733
1596,0.43104032,-2.9901676,-0.98595494,-6.987997
1597,0.5144681,-3.1333892,-0.60174495,-6.311091
1598,0.38827923,-3.0466967,-0.6849969,-6.2527733
1599,0.6031408,-1.7945637,0.15788682,-3.6021483
1600,0.14456578,-3.489743,-0.92115825,-6.7391505
1601,-0.34797373,-2.4821355,-0.39314136,-3.561204
1602,-0.17080538,-3.2095802,-1.2801512,-6.5204005
1603,0.16858768,-3.5619652,-1.4829521,-6.8703914
1604,0.30182397,-3.5095518,-1.4500717,-6.8698273
1605,0.35784483,-3.4791403,-1.4296913,-6.8432755
1606,0.3771886,-3.4589097,-1.4164215,-6.8031974
1607,0.38323358,-3.4422395,-1.4061533,-6.7585196
1608,0.43308672,-2.6054883,-0.6715527,-5.6174226
1609,0.38631037,-3.4109564,-1.3872253,-6.66717
1610,0.38685092,-3.3952239,-1.3783833,-6.6202087
1611,0.38739157,-3.379544,-1.369491,-6.573751
1612,0.3879141,-3.3639615,-1.3609004,-6.527372
1613,0.3885139,-3.348313,-1.3524331,-6.4808593
1614,0.408435,-3.2067459,-1.0448645,-5.9959903
1615,0.4124165,-3.151288,-0.979209,-5.7839036
1616,0.4141865,-3.1076524,-0.94250673,-5.637022
1617,0.4148352,-3.0650787,-0.9180682,-5.4937243
1618,0.41480544,-3.030181,-0.9024059,-5.386778
1619,0.54628223,-2.049515,0.23168795,-2.9693124
1620,0.398975,-3.0773752,-0.9503946,-5.373684
1621,0.4043508,-3.0248125,-0.9202704,-5.293761
1622,0.4054946,-3.0081463,-0.91537744,-5.271435
1623,0.40531826,-3.0115025,-0.92589384,-5.2895737
1624,0.40323415,-3.0194561,-0.95089334,-5.3268285
1625,0.3997399,-3.042436,-1.0058144,-5.444056
1626,0.39102766,-3.1469135,-1.3073335,-5.8656764
1627,0.39173794,-3.1308248,-1.2994045,-5.817606
1628,0.3923773,-3.1147146,-1.29125,-5.768778
1629,0.39275813,-3.0978367,-1.2821006,-5.718313
1630,0.39310488,-2.4306462,-0.13917597,-4.6109233
1631,0.3936379,-3.0625525,-1.2615225,-5.613991
1632,0.36105728,-2.635008,-0.636704,-5.3374333
1633,0.37680212,-3.1045513,-1.2449756,-5.5748687
1634,0.39471087,-3.0103567,-1.2322825,-5.459278
1635,0.3951114,-2.9930944,-1.2224413,-5.4080086
1636,0.39556742,-2.975957,-1.2126681,-5.3568006
1637,0.3958285,-2.9588664,-1.2027931,-5.305097
1638,0.3326497,-2.8734343,-0.81186825,-4.8488655
1639,0.30811968,-2.760145,-0.66514724,-4.461249
1640,0.39239645,-2.7278214,-0.7791062,-4.429298
1641,0.39125466,-2.6881897,-0.747184,-4.2903695
1642,0.38909438,-2.6567209,-0.72813314,-4.1814237
1643,0.38661817,-2.6337407,-0.7187825,-4.1038513
1644,0.38520312,-2.6180673,-0.7196134,-4.056684
1645,0.38628456,-2.609598,-0.7268882,-4.035916
1646,0.3881863,-2.6084402,-0.74416184,-4.048085
1647,0.38928327,-2.6146846,-0.77172965,-4.0904737
1648,0.39021528,-2.6227133,-0.80055255,-4.132465
1649,0.39439845,-2.64979,-0.8692939,-4.247683
1650,0.3907043,-2.7328947,-1.13606,-4.6334596
1651,0.390483,-2.7164764,-1.1276971,-4.5844493
1652,0.3902463,-2.7001095,-1.1194853,-4.5337853
1653,0.3902265,-2.684885,-1.1123135,-4.4840884
1654,0.3902792,-2.6697931,-1.1052822,-4.4348445
1655,0.3902861,-2.654811,-1.0983171,-4.3862996
1656,0.39028397,-2.639972,-1.091477,-4.338202
1657,0.39029822,-2.6251993,-1.0847172,-4.290445
1658,0.39035758,-2.6103537,-1.0779494,-4.242889
1659,0.3904184,-2.5956407,-1.0713264,-4.1957426
1660,0.39049506,-2.5809848,-1.06482,-4.1489806
1661,0.3905549,-2.5664163,-1.0584966,-4.1027026
1662,0.39682245,-2.454934,-0.79778713,-3.65205
1663,0.39157054,-2.3974602,-0.7280786,-3.4422848
1664,0.38308716,-2.3642476,-0.704446,-3.3247976
1665,0.3734559,-2.337025,-0.6893155,-3.2190812
1666,0.36605775,-2.3161433,-0.68428975,-3.1413262
1667,0.36208427,-2.298272,-0.684289,-3.0820105
1668,0.36166146,-2.2844615,-0.68876195,-3.0432112
1669,0.36431935,-2.2747989,-0.6975644,-3.024806
1670,0.36974302,-2.2694004,-0.71082586,-3.0266829
1671,0.37808052,-2.2686112,-0.728206,-3.048151
1672,0.3884172,-2.2712767,-0.75072736,-3.077144
1673,0.4004457,-2.295373,-0.8105367,-3.1788056
1674,0.39310107,-2.3812735,-1.059599,-3.5163777
1675,0.39306787,-2.3680751,-1.0577327,-3.474902
1676,0.3930644,-2.3549688,-1.0575819,-3.432953
1677,0.39301598,-2.342037,-1.0576733,-3.391486
1678,0.39288414,-2.3295786,-1.0580345,-3.3504026
1679,0.3927414,-2.3173084,-1.0584563,-3.309758
1680,0.3925977,-2.305268,-1.058924,-3.2696269
1681,0.3924512,-2.2933507,-1.0594363,-3.2301247
1682,0.39228475,-2.2815437,-1.0599123,-3.1910713
1683,0.39205,-2.2698708,-1.0604056,-3.1524384
1684,0.39183033,-2.2583277,-1.0610324,-3.1140778
1685,0.34942088,-1.878641,-0.56224567,-2.8198583
1686,0.39406553,-2.1314192,-0.7887495,-2.6831462
1687,0.37903568,-2.0912821,-0.74794626,-2.53703
1688,0.3704075,-2.0643528,-0.7359541,-2.432234
1689,0.36323893,-2.0373225,-0.7272611,-2.3228972
1690,0.3577443,-2.0156872,-0.7231807,-2.2362087
1691,0.3543762,-1.999649,-0.72491544,-2.1742363
1692,0.35397115,-1.9886799,-0.73329777,-2.137047
1693,0.35646605,-1.9831904,-0.74870473,-2.1252677
1694,0.3612614,-1.9833226,-0.7695896,-2.1360462
1695,0.3687707,-1.9897385,-0.7957287,-2.1693838
1696,0.37543377,-1.9965377,-0.8237689,-2.2069652
1697,0.38646445,-2.014165,-0.86468965,-2.290229
1698,0.38938317,-2.1064892,-1.1075467,-2.5771558
1699,0.38919723,-2.0967836,-1.1078827,-2.5400143
1700,0.38893747,-2.087158,-1.1082867,-2.503269
1701,0.38870403,-2.0775669,-1.1085876,-2.4668348
1702,0.38845602,-2.067919,-1.1088535,-2.430414
1703,0.3881987,-2.0583417,-1.1091033,-2.3940694
1704,0.38790283,-2.0488827,-1.1094352,-2.357812
1705,0.38761964,-2.0395107,-1.1100088,-2.3209262
1706,0.38740632,-2.0301511,-1.1108798,-2.2833328
1707,0.38726905,-2.0208354,-1.1120105,-2.245074
1708,0.38714114,-2.0115688,-1.1131334,-2.207091
1709,0.38701072,-2.002373,-1.1143662,-2.1693172
1710,0.3764286,-1.8920612,-0.9103362,-1.8373891
1711,0.36423865,-1.8570919,-0.8774929,-1.6894889
1712,0.35600826,-1.8330091,-0.86376053,-1.5937458
1713,0.34808326,-1.8106918,-0.8527284,-1.5046302
1714,0.34292135,-1.7929541,-0.84609437,-1.43577
1715,0.33928874,-1.7795349,-0.8452537,-1.3855648
1716,0.33846366,-1.7716957,-0.85333294,-1.3554134
1717,0.34107903,-1.7683641,-0.869267,-1.3437425
1718,0.34561482,-1.7695957,-0.89109606,-1.3506013
1719,0.3526697,-1.7754835,-0.9171111,-1.3756932
1720,0.3589922,-1.7837483,-0.9430921,-1.4011642
1721,0.37097335,-1.8005649,-0.9874997,-1.4713429
1722,0.38056684,-1.8930149,-1.1812928,-1.6925751
1723,0.37997842,-1.8848138,-1.1832103,-1.6583157
1724,0.3794309,-1.8767829,-1.1851093,-1.6242718
1725,0.3789533,-1.868867,-1.1869316,-1.5904274
1726,0.3784883,-1.8610669,-1.1887295,-1.5571219
1727,0.37803915,-1.8533016,-1.1905493,-1.5240498
1728,0.3775996,-1.8456005,-1.1923646,-1.4912711
1729,0.53790975,-1.950957,-1.0771363,-1.687004
1730,0.36481115,-1.5761461,-0.80593055,-0.88811827
1731,0.2701007,-0.9208335,-0.41113147,-0.5235472
1732,0.45448604,-1.6517591,-1.0040373,-1.1854866
1733,0.30381182,-1.4057926,-0.9604575,-1.1422095
1734,0.40588167,-1.2790192,-0.5172977,-0.4551433
1735,0.40889594,-1.2713301,-0.6293611,-0.6220892
1736,0.35045704,-1.6557258,-0.9627001,-0.8987651
1737,0.37296116,-1.4335331,-0.8530485,-0.9989877
1738,0.25956586,-1.9381078,-1.0114194,-0.368951
1739,0.15356,-3.4293506,-0.9713308,-1.3226007
1740,0.101240166,-1.9800773,-0.50708294,-0.5554054
1741,0.24530564,-1.5711088,-0.55947965,-1.281162
1742,0.3571777,-1.3535057,-0.034267068,-0.97030544
1743,0.4750273,-0.86154723,0.17716229,-1.6950613
1744,0.34399426,-1.8898044,0.15188111,-0.7621514
1745,0.27121612,-1.0151333,0.033753354,-0.949101
1746,0.37392387,-1.6804395,-0.50443584,-1.2447027
1747,0.34330535,-1.5526568,-0.5489697,-1.0353378
1748,0.37343535,-1.2772626,-0.42598787,-0.8621972
1749,0.2734113,-1.4027935,-0.63496405,-1.0047747
1750,0.33618915,-1.2043365,-0.50648814,-1.1569473
1751,0.33978915,-1.4974805,-0.91718835,-1.4143013
1752,0.3686056,-1.9206778,-1.1046472,-1.6926254
1753,0.38817748,-1.5779371,-0.9492491,-1.4328467
1754,0.36797702,-1.900232,-1.1107452,-1.6189295
1755,0.36778295,-1.8916645,-1.1114017,-1.5885743
1756,0.3673621,-1.884387,-1.1124207,-1.5601765
1757,0.36695337,-1.8774571,-1.1134936,-1.5324243
1758,0.35810736,-1.7709403,-0.9329577,-1.2626019
1759,0.34605744,-1.7365013,-0.89462334,-1.135876
1760,0.3366113,-1.7141811,-0.8788654,-1.0557474
1761,0.32456386,-1.6928749,-0.78493166,-0.8682737
1762,0.22939105,-1.2442487,-0.7065664,-0.70890474
1763,0.30945104,-0.8562823,-0.15131561,0.03992029
1764,0.36251163,-1.3808888,-0.70721954,-0.6106791
1765,0.31532598,-1.6658125,-0.87563616,-0.86553174
1766,0.3216086,-1.6653179,-0.8951624,-0.86648726
1767,0.32635194,-1.6634125,-0.8284631,-0.7641576
1768,0.34711754,-1.1946114,-0.43048477,-0.2543923
1769,0.3531324,-1.6924554,-0.9000957,-0.87217194
1770,0.35806194,-1.7919221,-1.1639724,-1.1708298
1771,0.35794744,-1.7851814,-1.1643974,-1.143592
1772,0.3578248,-1.7785648,-1.1647757,-1.1166698
1773,0.35769895,-1.7720445,-1.1652061,-1.0900215
1774,0.35752702,-1.7655945,-1.1659592,-1.0634798
1775,0.35737786,-1.759158,-1.1665683,-1.0372337
1776,0.3572618,-1.7527623,-1.1672263,-1.0109624
1777,0.3571458,-1.7464304,-1.1679668,-0.98478127
1778,0.35701144,-1.740126,-1.1686968,-0.9583471
1779,0.3568444,-1.7339102,-1.169703,-0.9315323
1780,0.3566698,-1.7277364,-1.1707546,-0.904867
1781,0.3564659,-1.7215503,-1.1720804,-0.8776695
1782,0.34489572,-1.6222525,-1.0176779,-0.6636865
1783,0.33166802,-1.5879196,-0.9769899,-0.5592386
1784,0.3203766,-1.5673128,-0.9614108,-0.4898367
1785,0.3099443,-1.5474796,-0.9497499,-0.42188692
1786,0.3026745,-1.5317307,-0.9451657,-0.3685567
1787,0.29898468,-1.5201765,-0.9454476,-0.32978782
1788,0.29867306,-1.5143975,-0.95221376,-0.30659756
1789,0.301656,-1.5147718,-0.96534604,-0.29924512
1790,0.30815098,-1.5194384,-0.98242164,-0.30541065
1791,0.31822482,-1.528244,-1.0038527,-0.3239647
1792,0.32822415,-1.5378774,-1.029498,-0.34247378
1793,0.3423456,-1.5599378,-1.0778311,-0.39072224
1794,0.35260138,-1.6429967,-1.2197592,-0.5180236
1795,0.35250023,-1.6366941,-1.2201713,-0.49200913
1796,0.3524188,-1.6304959,-1.2207583,-0.46638057
1797,0.3523414,-1.6243035,-1.2213069,-0.4410417
1798,0.35222033,-1.6180158,-1.2217766,-0.41586256
1799,0.3521463,-1.6117774,-1.2223402,-0.39065114
1800,0.35208607,-1.605743,-1.2230328,-0.36570832
1801,0.35204193,-1.599886,-1.223815,-0.34105507
1802,0.35201016,-1.5940841,-1.224559,-0.31663415
1803,0.35202873,-1.5883151,-1.2252365,-0.29218122
1804,0.35208932,-1.5824727,-1.2258683,-0.26759282
1805,0.35217485,-1.5766367,-1.2264608,-0.24305232
1806,0.3369297,-1.4881603,-1.0991622,-0.09225192
1807,0.32126084,-1.4507216,-1.0594598,0.0011778673
1808,0.42773974,-1.2640086,-0.7681816,0.17212737
1809,0.29863423,-1.4141473,-1.0297598,0.123293154
1810,0.29038754,-1.4003929,-1.0205616,0.17212434
1811,0.3536093,-0.91215116,-0.4144412,0.71057516
1812,0.30004135,-0.8701287,-0.3926631,0.76227015
1813,0.30253467,-1.142207,-0.538161,0.6368755
1814,0.36268783,-1.0575887,-0.47643054,0.7222748
1815,0.46901214,-1.1834189,-0.39642516,0.3090818
1816,0.29140905,-1.0573492,-0.83043456,0.32795113
1817,0.33415067,-1.444491,-1.1383725,0.13240598
1818,0.35058066,-1.5167861,-1.2604531,0.040958952
1819,0.35063598,-1.5107983,-1.2613527,0.066677086
1820,0.35076585,-1.5051273,-1.2614326,0.09034985
1821,0.35095605,-1.4995165,-1.2610792,0.11312399
1822,0.35115483,-1.4939507,-1.2605675,0.13529107
1823,0.351359,-1.4884454,-1.2599956,0.15714125
1824,0.35160914,-1.482934,-1.2592481,0.17895116
1825,0.35191092,-1.4771935,-1.2582494,0.20068677
1826,0.3522296,-1.4714146,-1.2571557,0.22238456
1827,0.35254955,-1.465747,-1.2560804,0.24401791
1828,0.35286942,-1.4601539,-1.2549928,0.26548433
1829,0.35318735,-1.4545245,-1.2537532,0.2869614
1830,0.33673847,-1.3829603,-1.1533302,0.40427288
1831,0.3220606,-1.3504845,-1.1149011,0.4689304
1832,0.31323138,-1.331612,-1.0962878,0.5166863
1833,0.30412072,-1.3130854,-1.0787882,0.5661654
1834,0.29942042,-1.2984606,-1.0659289,0.6075771
1835,0.29667532,-1.2885398,-1.0600414,0.6379907
1836,0.29660106,-1.2844406,-1.0623227,0.6570772
1837,0.2991541,-1.2861532,-1.0725449,0.66484
1838,0.3032932,-1.2928241,-1.0895149,0.66188794
1839,0.31085184,-1.3031212,-1.1116472,0.6505856
1840,0.3189471,-1.3140537,-1.1344409,0.64203024
1841,0.33406267,-1.3336791,-1.1723341,0.62491053
1842,0.35613677,-1.3909427,-1.2622267,0.5625304
1843,0.35654294,-1.3857945,-1.2605562,0.5828364
1844,0.3568624,-1.3806938,-1.2589084,0.6029239
1845,0.3571372,-1.375652,-1.257278,0.6229417
1846,0.357378,-1.3706347,-1.2555927,0.6427793
1847,0.3576312,-1.3656821,-1.2539324,0.66239166
1848,0.35788,-1.3606752,-1.2522837,0.68183804
1849,0.35815644,-1.3556811,-1.2506641,0.7011824
1850,0.3584217,-1.3506466,-1.2490023,0.7202341
1851,0.35866818,-1.3456559,-1.2473458,0.73919344
1852,0.35884047,-1.340669,-1.2456337,0.75790215
1853,0.3589681,-1.3357105,-1.2439494,0.7766332
1854,0.337611,-1.2767086,-1.1676406,0.8529665
1855,0.32454214,-1.2557148,-1.138034,0.89239496
1856,0.31733873,-1.2400764,-1.1190313,0.9251366
1857,0.31158486,-1.2238612,-1.1003639,0.96381015
1858,0.30780068,-1.2110558,-1.0876112,0.9978678
1859,0.30562985,-1.2025704,-1.0816517,1.0234245
1860,0.3056146,-1.1984929,-1.0821556,1.0397842
1861,0.30796322,-1.1989135,-1.0887955,1.0471491
1862,0.3119771,-1.2030101,-1.101262,1.0474312
1863,0.31782612,-1.210759,-1.1192167,1.0440651
1864,0.32476714,-1.2185222,-1.1384058,1.0439845
1865,0.33721074,-1.2315888,-1.1709591,1.035447
1866,0.35935318,-1.2763226,-1.2377499,1.0080519
1867,0.3595425,-1.2714857,-1.2355233,1.0245782
1868,0.3596901,-1.266784,-1.2334023,1.0408384
1869,0.3598028,-1.2621374,-1.2312679,1.0569215
1870,0.35992596,-1.2575332,-1.229147,1.0728751
1871,0.3600346,-1.252897,-1.226909,1.0887263
1872,0.36014476,-1.2482661,-1.2247638,1.1044065
1873,0.36024985,-1.2436275,-1.2226349,1.1199268
1874,0.36034426,-1.2390425,-1.2205232,1.135316
1875,0.3604299,-1.2343477,-1.2183813,1.1505525
1876,0.3604995,-1.2295951,-1.2162061,1.1657282
1877,0.36055896,-1.2249223,-1.2140223,1.1807843
1878,0.3099596,-0.8510804,-0.9817052,1.2314574
1879,0.30961493,-0.64323515,-0.5609351,1.6028835
1880,0.31659237,-1.1647252,-1.1088893,1.2745236
1881,0.32489896,-0.84025794,-0.83265644,1.446188
1882,0.37330458,-1.111262,-0.95507926,1.3579484
1883,0.48231962,-0.8944099,-0.6788972,1.0387591
1884,0.23032685,-0.5616876,-0.5764262,1.4377483
1885,0.35104012,-0.64630723,-0.52033967,1.6094948
1886,0.31253824,-1.1220664,-1.0742865,1.372667
1887,0.31962678,-1.1254784,-1.0927742,1.3843702
1888,0.32665583,-1.1305369,-1.109996,1.38997
1889,0.33700502,-1.1427292,-1.1406075,1.3810625
1890,0.36166143,-1.1735765,-1.1974839,1.3604698
1891,0.36207938,-1.169408,-1.1949615,1.3750659
1892,0.36253163,-1.165289,-1.1923481,1.3894776
1893,0.3629632,-1.1611987,-1.1897086,1.4038167
1894,0.36339477,-1.1570997,-1.1870631,1.41824
1895,0.36383155,-1.1530277,-1.1843963,1.4325662
1896,0.5712902,-0.8580506,-0.7618436,1.9739628
1897,0.36463046,-1.1448604,-1.1790028,1.460919
1898,0.36503723,-1.1407409,-1.1763018,1.4749628
1899,0.36542678,-1.136674,-1.173622,1.4888927
1900,0.3658752,-1.1325537,-1.1707507,1.5029396
1901,0.50167865,-0.9767797,-1.0913199,1.4277817
1902,0.33880043,-1.0932359,-1.1063925,1.5633911
1903,0.3268169,-1.0714232,-1.0737964,1.6048001
1904,0.31837904,-1.0567383,-1.056407,1.6313387
1905,0.31199038,-1.0433851,-1.0415487,1.6596304
1906,0.3083023,-1.0332364,-1.0318408,1.6842384
1907,0.30621463,-1.0263865,-1.027072,1.7034613
1908,0.30621102,-1.0233265,-1.0271567,1.7156843
1909,0.30823871,-1.0244888,-1.0321747,1.7206955
1910,0.31173247,-1.0288371,-1.0415431,1.7202641
1911,0.31853956,-1.0363361,-1.0548846,1.7171283
1912,0.32629576,-1.0439886,-1.0696858,1.716478
1913,0.3386135,-1.0591284,-1.0966266,1.704224
1914,0.3688577,-1.0784448,-1.1449744,1.6944402
1915,0.36918187,-1.0743414,-1.1414449,1.7080859
1916,0.36948657,-1.0708596,-1.137551,1.7215828
1917,0.36978647,-1.0674528,-1.1336318,1.7349542
1918,0.37008023,-1.0639462,-1.1297323,1.7482185
1919,0.37038305,-1.0603522,-1.1258467,1.7613707
1920,0.37067214,-1.056811,-1.1219734,1.7743832
1921,0.37092447,-1.0533022,-1.1180986,1.7873846
1922,0.37116516,-1.0498453,-1.1142697,1.8003184
1923,0.37141204,-1.0464181,-1.110449,1.8131281
1924,0.37165844,-1.0429423,-1.1065909,1.8258018
1925,0.37192526,-1.0394431,-1.1026949,1.838591
1926,0.34834266,-1.012953,-1.0580262,1.8588629
1927,0.33877897,-0.98606724,-1.0255402,1.8930483
1928,0.3328587,-0.9727953,-1.0091586,1.9162678
1929,0.32578722,-0.95621437,-0.9902074,1.9407574
1930,0.3209304,-0.942383,-0.9765577,1.9631294
1931,0.31810823,-0.93365604,-0.9680653,1.9809788
1932,0.31796166,-0.9304293,-0.96697634,1.9911753
1933,0.320244,-0.9327404,-0.9733033,1.994305
1934,0.32441902,-0.9405342,-0.98576784,1.9923254
1935,0.33102658,-0.95242167,-1.0019276,1.9887124
1936,0.3389081,-0.9626963,-1.0146958,1.9887058
1937,0.34929618,-0.9848871,-1.0383071,1.983292
1938,0.37212047,-0.99810314,-1.0691024,1.9972868
1939,0.3724791,-0.99418,-1.0651017,2.0095882
1940,0.37284935,-0.99028987,-1.0611182,2.0217874
1941,0.37321696,-0.98641557,-1.0571916,2.0337381
1942,0.37357906,-0.9825468,-1.0532498,2.0455563
1943,0.3739308,-0.9787037,-1.0493275,2.0572636
1944,0.37429404,-0.97487265,-1.045413,2.0689602
1945,0.37467742,-0.9709404,-1.0413909,2.0807085
1946,0.375078,-0.96702737,-1.0373424,2.0924447
1947,0.37549004,-0.9631174,-1.0332441,2.1042452
1948,0.3759068,-0.95919067,-1.0291773,2.115984
1949,0.37633848,-0.95515984,-1.0250875,2.1276176
1950,0.3465208,-0.9385793,-0.98716086,2.1347058
1951,0.328555,-0.9106369,-0.95619434,2.1508512
1952,0.31830323,-0.89099693,-0.9355828,2.1693628
1953,0.3096105,-0.8712976,-0.9143284,2.1934178
1954,0.30347133,-0.85639906,-0.8996497,2.2156694
1955,0.29867733,-0.8476774,-0.89233464,2.2310946
1956,0.29804647,-0.8455966,-0.8904955,2.240217
1957,0.30181965,-0.84952945,-0.8938996,2.2434409
1958,0.30755723,-0.85904294,-0.9028497,2.2399142
1959,0.3162484,-0.8724453,-0.9185485,2.2363873
1960,0.32623732,-0.8858869,-0.93440104,2.2372015
1961,0.34380975,-0.90780014,-0.960455,2.2408094
1962,0.3773538,-0.90879315,-0.9865014,2.2700899
1963,0.37770912,-0.9047913,-0.98202914,2.2811334
1964,0.37803623,-0.9008104,-0.9775552,2.2921827
1965,0.37833357,-0.8968308,-0.9731079,2.3032217
1966,0.3786566,-0.8928637,-0.96867394,2.3142326
1967,0.37897506,-0.8889387,-0.9642567,2.3251848
1968,0.37928542,-0.8850567,-0.9598622,2.3360434
1969,0.37960568,-0.88113976,-0.9554747,2.3468454
1970,0.3799131,-0.87723565,-0.9511196,2.3575478
1971,0.38020632,-0.8732638,-0.9467332,2.3682153
1972,0.38050547,-0.8693109,-0.9423526,2.3788342
1973,0.38081214,-0.8653818,-0.9380495,2.3893414
1974,0.34457025,-0.85716146,-0.8972222,2.365345
1975,0.32500988,-0.82546663,-0.859694,2.3845437
1976,0.31279874,-0.8069809,-0.8383464,2.4057465
1977,0.2988499,-0.7896963,-0.82207394,2.4270866
1978,0.288577,-0.7768693,-0.8111382,2.4440157
1979,0.28324553,-0.7682543,-0.8051569,2.4571383
1980,0.28256172,-0.76653737,-0.80398464,2.4654253
1981,0.28663114,-0.7704864,-0.80740637,2.4690793
1982,0.2956051,-0.77863836,-0.81560135,2.46927
1983,0.30808362,-0.79088044,-0.82771295,2.466276
1984,0.31898534,-0.80420345,-0.8427737,2.4622643
1985,0.33922347,-0.8303955,-0.8734176,2.461919
1986,0.37810317,-0.8276537,-0.9067777,2.5153017
1987,0.37832204,-0.8240753,-0.90247416,2.5252912
1988,0.3785353,-0.82049924,-0.8981702,2.535244
1989,0.37874493,-0.81697243,-0.8938966,2.545112
1990,0.3789877,-0.81333905,-0.8895585,2.555024
1991,0.37911144,-0.8097388,-0.88510734,2.5647056
1992,0.41753244,-0.782793,-0.83567667,2.6595457
1993,0.41751465,-0.7793091,-0.8313019,2.668709
1994,0.37922144,-0.7989971,-0.87145376,2.5930614
1995,0.3792328,-0.7953627,-0.86684805,2.6024215
1996,0.41741076,-0.76905036,-0.8183338,2.695897
1997,0.37919274,-0.78824997,-0.8578128,2.6209984
1998,0.338464,-0.7930479,-0.8274142,2.5798233
1999,0.31416804,-0.76381797,-0.7958412,2.592995
2000,0.3019596,-0.74570066,-0.77663416,2.6111832
2001,0.29008693,-0.7285633,-0.76199454,2.629318
2002,0.28068694,-0.71672934,-0.7521356,2.6439562
2003,0.2753484,-0.7091711,-0.7461417,2.6557531
2004,0.27468672,-0.70689076,-0.74455124,2.6634643
2005,0.278681,-0.70991355,-0.7472814,2.6670837
2006,0.28661326,-0.71747327,-0.75420064,2.6677227
2007,0.29727256,-0.73058796,-0.7652629,2.665759
2008,0.30811867,-0.744462,-0.77971554,2.6637337
2009,0.33188435,-0.7680814,-0.8047838,2.6659372
2010,0.37457302,-0.752094,-0.8211157,2.7298644
2011,0.37466788,-0.74876875,-0.81661206,2.738717
2012,0.37476668,-0.7454603,-0.81213933,2.7475052
2013,0.3748559,-0.74215454,-0.8076833,2.7562554
2014,0.37494192,-0.73889637,-0.80327016,2.764947
2015,0.37501407,-0.73571277,-0.79888946,2.7735612
2016,0.37506604,-0.73253936,-0.7945309,2.7820857
2017,0.37511444,-0.72939754,-0.7901705,2.790617
2018,0.3751693,-0.72626084,-0.78582543,2.7990735
2019,0.3752414,-0.7231305,-0.7814903,2.8074665
2020,0.37529746,-0.72003204,-0.77719337,2.8158286
2021,0.37534046,-0.7168961,-0.77285767,2.8241673
2022,0.33225802,-0.73156005,-0.75906724,2.7685812
2023,0.28022024,-0.62154585,-0.51131254,2.6771946
2024,0.29935166,-0.68708676,-0.714262,2.7961252
2025,0.2880835,-0.66962534,-0.6994788,2.8116543
2026,0.28007796,-0.6579496,-0.68955356,2.8253756
2027,0.2752032,-0.65113413,-0.6839327,2.8354282
2028,0.27456278,-0.649316,-0.6826723,2.8423727
2029,0.27816895,-0.65229124,-0.6854129,2.8464034
2030,0.28488174,-0.66016656,-0.6924062,2.8470743
2031,0.2947997,-0.674262,-0.7051072,2.8451445
2032,0.3032471,-0.688711,-0.71738607,2.842371
2033,0.32472256,-0.71009517,-0.7390111,2.846225
2034,0.36995998,-0.6877055,-0.7367523,2.922861
2035,0.3696629,-0.684923,-0.7326438,2.9301465
2036,0.36935344,-0.6821508,-0.7285101,2.9373963
2037,0.3690523,-0.6793928,-0.7244244,2.9445934
2038,0.36878458,-0.6765956,-0.7203393,2.9518344
2039,0.36852494,-0.6737917,-0.7162688,2.9590588
2040,0.36826888,-0.6710126,-0.71227676,2.9662168
2041,0.3680149,-0.66824585,-0.7083301,2.9733117
2042,0.36774775,-0.66556007,-0.70448655,2.9803092
2043,0.36748132,-0.66289705,-0.70069486,2.9872305
2044,0.3672122,-0.6602398,-0.6969104,2.9941375
2045,0.36693823,-0.65758985,-0.69314164,3.0010178
2046,0.32134905,-0.6769617,-0.69724965,2.943526
2047,0.2996058,-0.65554047,-0.6770775,2.9497461
2048,0.28978768,-0.6394113,-0.6625723,2.963998
2049,0.27855805,-0.62189096,-0.6469745,2.9787667
2050,0.27037248,-0.6104316,-0.63713187,2.989601
2051,0.2659218,-0.60358334,-0.631354,2.9983509
2052,0.26530135,-0.60186,-0.6300004,3.0046654
2053,0.26826736,-0.605281,-0.6329027,3.0080805
2054,0.2743697,-0.6132242,-0.63950014,3.0095177
2055,0.2829745,-0.62644494,-0.6512832,3.007511
2056,0.29179436,-0.63816017,-0.6612443,3.0072498
2057,0.31151795,-0.65374714,-0.6755934,3.0143235
2058,0.35826352,-0.6308205,-0.6596069,3.0856752
2059,0.35785854,-0.62806886,-0.6558104,3.0924847
2060,0.35747758,-0.6253281,-0.6521086,3.0992365
2061,0.35710964,-0.62260264,-0.64841914,3.1059415
2062,0.35675272,-0.6198914,-0.6447479,3.1126168
2063,0.3563992,-0.6172116,-0.64109105,3.1192658
2064,0.35604855,-0.6145482,-0.6374493,3.1258688
2065,0.3556901,-0.611914,-0.63384855,3.1324217
2066,0.3553348,-0.6093114,-0.63028306,3.1389277
2067,0.3549813,-0.6066921,-0.62668157,3.1454165
2068,0.39040145,-0.5886301,-0.5975404,3.2417755
2069,0.3542751,-0.60150903,-0.61954355,3.1582644
2070,0.307341,-0.61941856,-0.63081074,3.0972013
2071,0.28655502,-0.59924746,-0.6131408,3.1017315
2072,0.27746186,-0.5808797,-0.5946385,3.114589
2073,0.26836774,-0.5627306,-0.577756,3.126543
2074,0.26119843,-0.54971915,-0.56587803,3.1360724
2075,0.25675282,-0.54201883,-0.55839807,3.1437705
2076,0.25591156,-0.53996503,-0.5561809,3.1494815
2077,0.258594,-0.5433323,-0.5591039,3.1531332
2078,0.2639666,-0.5521545,-0.5669751,3.1544979
2079,0.27113387,-0.56629187,-0.5801061,3.1532466
2080,0.2781484,-0.5800362,-0.593867,3.1519804
2081,0.295769,-0.59775525,-0.6044749,3.1586545
2082,0.34416822,-0.5765505,-0.5905104,3.2337542
2083,0.34386253,-0.5736073,-0.58650786,3.2399733
2084,0.3435593,-0.57067186,-0.58252126,3.2461464
2085,0.34322438,-0.5677432,-0.57861495,3.2522414
2086,0.3428657,-0.5648226,-0.57473695,3.258311
2087,0.34252355,-0.56191283,-0.5709173,3.2643225
2088,0.4807603,-0.52809066,-0.49589178,3.3628788
2089,0.44307923,-0.49138644,-0.48927832,3.3206937
2090,0.47741163,-0.47634968,-0.32220024,3.2750843
2091,0.46370888,-0.46828517,-0.33421716,3.2107227
2092,0.18686444,-0.35102913,-0.32520515,2.9199255
2093,0.13373722,-0.49135342,-0.44938,3.0079021
2094,0.23448469,-0.46236333,-0.315736,3.1021893
2095,0.21821983,-0.42882895,-0.290241,3.084135
2096,0.23615968,-0.38080075,-0.34756172,3.26552
2097,0.19511443,-0.3545836,-0.4876964,3.185938
2098,0.15308233,-0.29666984,-0.31098166,3.2965758
2099,0.24322946,-0.37300655,-0.35453495,3.199941
2100,0.2010222,-0.32613233,-0.3683736,3.1389627
2101,0.099811845,-0.35213426,-0.86534077,3.116951
2102,0.08031401,-0.17533712,-1.1833004,2.9421375
2103,0.25573072,-0.29739836,-0.61927605,2.863554
2104,-0.053498548,-0.24453016,-1.5169616,2.2774575
2105,0.012253702,-0.198366,-1.9057134,2.6287735
2106,0.0057037272,-0.6867358,-2.5634048,1.8424803
2107,0.15892938,-0.6543894,-2.3314457,1.1719031
